3780
0.0436311525861329
-0.0235568089879526
-0.0383363534167954
-0.0382331281172841
0.0865178160770178
0.0678446879070723
0.00225782460349389
0.0451134670178592
0.0517019867086031
0.0401736352676026
0.0208484660973006
-0.0414067288635601
-0.0321518558874603
0.0777148786876956
0.00575496063227372
-0.0892892579792324
-0.0204608981570577
0.0434763210421071
-0.0177510552876252
0.00826828525359205
-0.00387477608978911
0.0208181821806326
0.0743469220041476
0.0658260328242413
0.0364757365209912
0.0544510526803626
0.0458702636702919
-0.0321766874316723
-0.0539031770240737
0.00374563009497674
0.0123760123499752
0.00932267660935018
-0.00115061523778546
-0.00312140664724328
0.0159327164664807
0.0508202650257752
0.0468683825154574
0.0410970399242156
-0.0224791690361981
-0.0073303813536747
0.110415322395117
0.0403077307840411
-0.0850484770474854
-0.0123417928007281
0.05484976545151
0.0245819653710134
-0.042593466079921
-0.0563989708377932
-0.0412269503566059
0.0505824460419951
0.035395716781361
-0.0475964151216154
-0.0268050086596049
-0.00228560476386466
-0.0327213971962169
-0.0313925267521681
0.0227287033046715
0.0438962924967436
0.0624041639445393
0.00998548703889938
0.0165596056125106
0.0250412699575038
0.0356790480615237
-0.0173463192540129
-0.036849505119119
-0.00502961037925598
0.00906011916831157
0.0588071040602243
0.0348606287092021
-0.0603022788952429
-0.0345106142160716
-0.010501426327923
0.0293953928051125
-0.0192216562283354
-0.0266344579248964
-0.00979650133821816
0.094882024900079
0.0711010710271368
-0.0401083311342166
-0.0205751986007991
0.00435656403273376
0.0457615550450604
0.0243538040883794
-0.0228800519322082
-0.05071012124812
0.0202643987528365
-0.0171397698880422
-0.0534016693706329
-0.0206300873786283
0.0399143521407174
-0.00482360397851129
-0.02420971194829
0.0407737787903921
0.0523420229107518
0.0768184059882709
0.0450177301966526
-0.0334608228205353
-0.0252972884553243
0.0159170740290669
-0.020190806323262
-0.0654656884420446
-0.0907904909833946
0.0345633658153162
0.207308039847058
0.117854421043275
0.0171399097278391
-0.016435192379459
-0.0101493009759768
0.0666164806848911
0.0337900756115987
-0.00332993119329323
-0.0458552714225749
0.0299457801417872
0.00622367579866437
-0.0445442188555879
-0.0132247216917198
0.0132649854971515
0.0670644595637253
0.0403592281816904
0.00215002035083489
-0.00618588923267205
0.0286228456130176
-0.00508135234347572
-0.0400158524328055
0.000719248546641775
0.0317008646399016
-0.00775942203508305
-0.03666003505595
-0.0381366981843334
0.0546193663622557
0.200546564519396
0.118918305703795
0.0104958436450365
-0.0114256159291154
-0.00910984929914996
0.0247578628902831
0.0264133428330841
-0.0137102046113422
0.0114864282642968
0.120434606395669
0.194222262224791
0.083745623456335
-0.051882085211942
-0.0150157270170519
0.0682611749807717
0.0387806882020237
-0.0200554728638752
-0.0297985820789296
-0.0170740730561811
-0.00601160406046101
-0.0303897787500294
-0.0136663036326654
0.0359940805414027
0.0326987894804257
-0.0456438736538017
-0.073349023667168
-0.0580228768984627
0.0433833109235787
0.0671462134538502
-0.0208813444240137
-0.00406542618458488
0.00691675713541674
0.0197276425728966
0.0127300932627769
-0.0239966122247944
0.0341045660735244
0.125251742731564
0.186429768071824
0.0394508683717138
-0.0846703755575197
-0.0187515227557686
0.00110159748752285
-0.0203867811962998
-0.0125394135189415
-0.0135281711023819
0.00974149552732066
0.0691806415960088
0.0786750926854699
0.0440314864600263
-0.0221483990778164
0.000974786816903767
-0.0632491015125014
-0.0794163505748588
-0.0677640489533696
0.0218825739159245
0.0511855548608849
-0.0252795887222701
-0.0270815426738757
0.0205352567744674
0.0116556397268205
0.0419302522755394
-0.0177325488608103
-0.0549002799752584
0.129881028654333
0.149594040523112
0.0205560879164475
-0.0107816839695304
0.0418957417521879
-0.021984187165007
-0.0295739464387919
-0.0143673561377816
-0.0183552246868452
0.0205255926502062
0.0280071512436421
0.0198937791346228
-0.00766107720281127
-0.0157537755830788
0.00291086393629022
0.020066008604675
0.00722441672898346
0.0117703847817674
0.0387532438074662
0.0672640202031667
0.0462195955116065
-0.00963716060137053
-0.00687718288438297
-0.0154543010570593
0.00834346562223025
-0.0752365928662845
-0.110148776145184
0.0800368700086397
0.129672998279366
0.0231120495085272
-0.000898782426246881
0.0296116992928392
0.0125908724796086
-0.0310212248783002
-0.0362368925177588
-0.0167113910465553
0.104064706557024
0.130482668284638
0.0622335329051641
0.0482741869612872
0.0477299081757073
-0.0102819151214764
-0.0169937785928708
-0.0410207637382336
-0.0304123389941783
-0.000560927119179756
0.020961559427644
0.0470396481724771
-0.00174269757348882
-0.0167830270595876
-0.016459218526902
0.0207711593553712
0.00546805743251053
0.0425637007009786
0.0707596345585758
0.0487408938426309
0.0351406490681334
0.0190481304712423
0.0300883941850167
-0.0153425066417188
-0.0155802803205111
0.00696289895830385
0.0460143774951309
0.0694711794244453
0.0649067734833444
0.0337077041877907
0.0414694358337523
0.0450815407868617
-0.0313173685621694
-0.0545330280784997
-0.0354212441852902
-0.00415918647948807
0.0303966766072682
-0.00771743847334456
-0.00874406350249512
-0.00134402204274905
0.0570730141751556
-0.0154650052718167
-0.00546838680906405
0.0121036928343472
0.0393415319933299
0.0581313292965103
0.0570873897793396
0.0207053209403523
0.0686672847251162
0.0640170115866741
-0.0175761663539442
-0.020856241377102
-0.0349695301368153
-0.0114451606807407
0.00141188980638184
0.0309789450613272
0.0418186126559049
0.0441562043811364
0.0264990933796121
-0.0255732587153748
-0.0293702640071121
-0.0197173812631876
0.0175237331586204
0.0566570112190761
0.00432240554217586
0.00512459113090373
0.0126906221341562
0.0341802233938097
-0.00340204397395792
-0.031221902167142
-0.0123317540042726
-0.024046662838018
0.0401153618109178
0.0367458895098522
-0.0650883206328242
-0.0501749551506272
-0.00887156894499614
-0.00897480792175868
0.0044878542172171
-0.00431666325020779
0.0172776557911461
0.0210305495879168
0.0523137157003955
0.0720674887972581
0.0614618487053208
0.0217083693924161
-0.0294352911862772
0.0507358665699063
0.0816447771461497
0.0590632638054091
0.0503293364784373
0.029149285535312
0.0172518398108987
0.049260088479815
0.0101713359234007
0.0015527243901257
-0.0366912218443311
-0.00916733612327106
-0.0263860890853922
7.79067701821175e-005
0.00105653948981245
-0.0633735718260306
-0.0381152135078581
0.0124335951693649
0.0013740770305476
-0.0429731210067233
-0.0729240761438211
0.020652649878808
0.12184251199511
0.0286090326183304
-0.0751077496765463
-0.0454535452880635
-0.02284118070974
-0.0138624013930815
0.0557311402007831
0.0828316202861027
0.05111561182077
0.0345940840186747
-0.00474316927280805
-0.011259170658809
0.0343270841583875
0.0158563787250647
-0.0129560471416269
0.0885692145605707
0.177205260057447
0.260917522739085
0.111220538340406
0.0537400277038184
0.0827785122985233
0.125684672613237
0.00581010597795406
0.00122900858608482
-0.0383981435580663
-0.0849063873997213
-0.0140549317185727
0.0848117659432274
0.00747318599445211
-0.0788461676944954
-0.0434408408937629
-0.0234394679529208
0.036924741968858
0.0105265472023496
-0.0461243908210141
-0.0801219419529494
0.00911010731983493
0.0936829309899317
0.00130137286020177
-0.0911034331884461
-0.0211061863840826
-0.0360877495958563
0.0725178895561555
0.166261802021489
0.233079165144089
0.0902643898567132
0.0264644246499876
0.0536376949408038
0.11951858373053
0.0127057830437079
-0.0386417732249706
0.0129716934429066
0.06320128630115
0.0321978453087998
0.0273493960102463
0.142482143033038
0.234948372086747
0.153182285476065
0.0422503939474825
0.0383153231754199
0.00586573086570775
-0.0338687071486031
-0.043355235959467
0.0489642828445793
0.125742494699496
0.0148705668550119
-0.0864795934900295
-0.0144894421431333
0.00352251093069613
-0.0106299434029075
-0.046639182634278
-0.0338516736979131
-0.0152461454512732
0.00265004864155474
0.00701544145742657
-0.00616515299370756
-0.039169347640256
-0.050378775273208
0.0155711546515641
0.074985027836717
0.0649898466395395
0.0693239140519815
0.150379783279481
0.249179877061407
0.147893346063819
0.0429188052888645
-0.0292729975243095
0.00478841814176938
0.0216968927939262
-0.0250990616980599
-0.0321213616594541
-0.000331258578639015
0.0804957660305148
0.0742436804612309
-0.00649800952713686
-0.00902954768743028
-0.0111319851689211
-0.047580691183422
-0.0159985186322088
0.0511519495425464
0.0233575697832589
0.00511329036327212
-0.0219874129731829
-0.0224059448217149
0.0218345022565731
0.0478229165097145
0.0201573646836894
0.0306980695182276
0.0602287782750173
0.0727853458017128
0.0182058819449705
-0.045271622882577
-0.0195453394577624
-0.0286367890506253
0.00611013256217279
0.0567662090560857
0.0241986389029491
0.0148721645271081
0.0261512138020342
0.0795533404190042
0.0826988502337669
0.0182953239767752
-0.00672051637558605
0.0303234172276119
0.0426738033961328
0.0391630317753156
0.0336545067065783
0.0246233238601452
0.0146969138113126
-0.0468680479714682
-0.00461312170201953
0.00558913635434981
-0.0034846646920729
-0.0477318360014927
-0.0161272971237486
0.0361585453428671
0.0454342527959952
0.0271016646327886
-0.0257389943119822
-0.0238723604583355
-0.00917987000028214
0.00528060884663885
0.0173043148966319
0.0295558575232981
0.0764736780647932
0.0684391161465181
0.0679936790540231
0.00795755149535598
0.00578049815054511
-0.034544220746121
-0.00740459752387419
0.0161846439422427
0.00403041697195646
0.00897304257572488
0.0176845545586437
-0.00597532244372158
-0.0493596419919454
0.00188591291466558
-0.0109973356615919
0.0332259669877307
0.0110187584586836
-0.0117864718502139
0.104432979528169
0.118251259563361
0.0425377189013605
-0.0162579854297032
0.0159203926206755
-0.0107802998432137
3.67928038918055e-005
-0.00794614412744795
0.018103851924434
0.0512544021191386
0.0751265526574306
0.0107365579962451
0.0767025359496192
0.0802723436558684
-0.0191165445429204
-0.0248759165524329
-0.0254694693277803
-0.00682959378918377
0.0239895503986481
0.0423059513361171
0.0155346040962415
0.0441001476200559
0.023678423507506
-0.0152603688578989
0.00198824468552054
0.00263665092810331
-0.0094085559662956
0.0216142214767935
0.0579569719481947
0.0705038775636321
0.0293637005728915
0.0350396847324365
-0.0781024983346408
-0.0424371909422348
0.0103930572698886
0.00829811272387888
-0.00680693963524365
-0.000256839688181652
0.00697034881441221
-0.0296772139747839
-0.0296037478101377
-0.0139363522007962
-0.0032256791491336
-0.0211264397054211
-0.00397355030324013
0.0207902292387825
0.0537573632138346
0.0525421588289633
0.0605462696007227
0.0303078803219389
-0.0318648377815893
0.0318896115619412
0.0514411709775273
0.0367498717194112
0.0569247203920666
0.0102808535273162
-0.0121349135394466
0.0427566464658847
0.00984195768754096
-0.0553223759975492
-0.0231236445054238
0.0256851638663836
0.0322341799155143
0.0177354180708002
0.0093468255836041
-0.0112569507596429
-0.0257049640758942
-0.0348830040494027
-0.0580124041934705
-0.00556672483679116
0.0722327614826272
0.0919212024026906
0.0404055887440848
0.00766862873686903
0.00820953945629856
0.0102134005464391
0.0181113773228018
-0.0256668314998234
0.0277160993388422
0.0293361208564186
0.000348168938914027
0.00432700968334952
-0.0307723895940325
-0.0371725225800996
0.0440330860337992
0.0108712477981235
-0.0230949663914907
0.0696772699409517
0.157913962432441
0.219318809105439
0.0768159246155746
0.0112001135107232
0.0355737096379109
0.0647500457319621
-0.0106026058752531
-0.0529734407880162
-0.00490220390792138
0.0616212745634044
0.0864193651449732
-0.0120806257635317
-0.0381569745278587
-0.00689419749081892
-0.00584400268816295
0.00918023112494585
-0.0992132282176438
-0.0804167432781591
0.0845540270222817
0.169355920683933
0.0636814048530878
0.040968799251776
0.0635162393823477
0.0809021353485161
0.0144123778065865
-0.0486717261813498
0.0454940111324593
0.121562215233701
0.158885484736833
0.0477331214795856
-0.00659787678165828
0.0260382902292788
0.0854398254916338
0.00133150518134212
-0.0430478592697191
-0.00399395940644552
0.0506876157801172
0.0103537721741941
0.00547037295078682
0.0854461227059648
0.170167210825154
0.126346278521021
0.0316874958890773
-0.0881014443011326
-0.0625296018776399
0.0488406895725368
0.123929354856872
0.033778891699046
0.012659338173251
0.0216160920073048
0.0659383767064391
0.0365448206436543
-0.0490293333548188
-0.000391063493641245
0.0240239622842264
0.0331997671222632
-0.00949619513994545
0.0714486544896616
0.135018811045099
0.0165892276958078
-0.0871332862703828
-0.0412033067151287
-0.00370750769492904
0.0525646959934912
0.0472196347205608
0.0518340055821835
0.125378930146217
0.223183637941664
0.141579979674961
0.0385760314500627
-0.0227902343967458
-0.00478438857031635
0.0152477098303122
-0.025850043155688
-0.0442656034291071
-0.0299841470830298
0.00966505611897457
0.00859846838571141
-0.0151089226340902
-0.0503133160541461
0.00555424286236058
0.0748590486743664
0.110730504972244
0.0377052521202323
0.100847783988266
0.157662764628886
-0.000690797676518814
-0.0970382266704028
-0.034743966435139
-0.0257801380072429
-0.00737441221688427
-0.0698536820286881
-0.0885091548640478
-0.0169194615579594
0.0448179497389031
-0.00373574177972108
0.00256399396156939
-0.031001619138449
-0.000761843150238154
0.0513173692939724
0.0227324860258246
0.0115021529709177
0.0230510317324792
0.0392038831006921
0.0378956042390957
-0.000218021806189459
0.00456491750871498
0.0165469570857858
0.0488291471348006
0.0400816651522426
0.0411576922823525
0.0213306859032493
-0.0270295888029013
-0.0579180574151675
-0.0147368219689414
-0.0274811903330898
0.0281455068227383
0.0473041941998334
-0.0138232148312068
-0.0211505794376844
0.0177605501072187
0.0415899267610576
0.0110786816768533
-0.0180294863351044
-0.0223685391559891
-0.0160861109684429
0.026892962114099
0.0607579598481312
0.0381132750567952
0.0176184127669111
-0.0226928651205226
0.00912022614715121
-0.0238885297012216
-0.0278855925487571
-0.0224446812890369
0.00463144418997103
0.00468483752815898
0.0199749019043733
0.0108414417917755
-0.00747403894017927
-0.029290815329412
-0.000177945823904189
-0.0102235761686241
0.0459789268737823
-0.0177303387041593
-0.0368856969546231
0.102649481131822
0.0811744091058347
0.0281564607073947
-0.0445992403784674
0.00856269456199384
-0.0415903157343901
-0.0298897902721423
0.0129879093141421
0.0391036605247271
0.00161783442542609
-0.00987867496951288
-0.0367377062652366
0.00481280878367629
-0.0284866679092444
0.0153595599951824
0.0600657480574828
0.0177097524779112
0.079125037859122
0.0750973803328609
0.0530547758240621
0.0168038905705909
0.000132519518771824
-0.00523486430477178
-0.022355152647324
0.0256050827542757
0.0211448867445565
0.0114806452618193
0.0639375839924144
0.0862724470745675
0.0737087032096814
0.0368651432635903
0.0375043208919855
-0.0724698140488893
-0.047438414320581
0.0184313394091851
0.0365286421766697
0.00604471214951352
0.0238396823581764
0.0263075675832731
0.0101840353586119
-0.0110576209285231
-0.063499496172793
0.000639050003723742
0.000389662814916007
-0.0417338448008426
-0.0262187295693168
0.00231687425794245
-0.0220847337569014
0.00352432214003645
0.0335964591484979
-0.0711652073802923
0.0129246598144175
0.0121446498723022
-0.0871503831051977
-0.0210625911283323
-0.0168195436865251
0.0186451296728236
0.0299008807380709
0.0265369669887622
-0.0586270586067302
-0.0256596040586628
0.0317049504501035
0.034009682330141
0.00721639426982228
0.00471175403882214
-0.00662251478987549
0.00681628889310507
-0.0147560404654005
-0.0491230433575334
-0.0135506026212071
0.105214158177287
0.125895527938368
0.0652225252860274
0.00116513599699556
0.0361194074010166
0.0418603954608447
0.0389040715660907
-0.0461542936978086
0.00647339002585103
0.0186667193153955
-0.082088457480684
-0.0361224604030988
-0.0362274258068993
-0.0146178756687448
0.0489906541097342
0.04671581636355
-0.0877284733711147
0.0812257714621516
0.205152646477367
0.0504271298132172
-0.072355877630637
-0.117750612424251
-0.122962458169399
-0.0378744103228074
0.0419953708067679
-0.0460587276982549
0.0124701651046018
0.128442350096503
0.168728286943887
0.0502508304461612
0.00596386391287213
0.0414683490638874
0.0426997231084916
0.0311184261391083
-0.0852937688973563
-0.0567434540336075
0.140891900006385
0.250488321074599
0.114004465104759
0.0706364465735845
0.0877611991203363
0.100116514040294
0.0284002436338805
-0.0945003323757949
0.0844100030909663
0.211584068337787
0.086301398412792
-0.0856536029149878
-0.103886224051714
-0.121428854890647
-0.0281245021896264
0.0414820630969358
-0.084129642456529
0.0303250053275881
0.0650574666887033
-0.086675674213534
-0.195459401436978
-0.180317972820849
-0.119283841639162
-0.0281208754192289
-0.0304083118511036
-0.0839903434684808
-0.0403148056422318
0.118268663518264
0.257590202504432
0.159361113716609
0.126234684974973
0.123036797425239
0.140812901778838
0.0575691320213724
-0.0388416691603685
0.0327827270460251
0.108519840763224
0.123820872641817
0.0945318280157343
0.217062676116275
0.268352712594971
0.083148893464106
-0.0807908644756297
-0.0639686010756773
0.0497156965344636
0.0485699977038972
-0.0844285342439279
-0.167581985012651
-0.156764158963963
-0.112724423774882
-0.0536605726600788
-0.0255181539576751
-0.0640648047558961
-0.0489746920074761
-0.0891763585431079
-0.143329338222206
-0.22389295987206
-0.136589413662047
-0.0330961371458393
0.0319579238400556
0.000545492003644008
-0.0385608251232777
0.0314848809839984
0.103548289178679
0.141959653260601
0.0667917985299409
0.180130322999465
0.26109062354897
0.0602865810108922
-0.0968313662419976
-0.0227685667803665
0.0185219198394734
0.0417947048708374
-0.0112134136292102
-0.0242887688386705
0.0626220435641128
0.129955042166799
0.0392837646465688
-0.000474527019733229
-0.0667320952168062
-0.0382836345647601
-0.0370029368170511
-0.130643271019571
-0.220031102299717
-0.154233295114852
-0.0223546582441547
0.0481007271776463
-0.025272908618957
-0.0396508020239495
-0.0367609431284511
-0.055632706049126
-0.112117124101054
-0.0960746897706006
-0.0387006658695757
0.097637123707475
0.196954913041733
0.0859371064178704
-0.00979109989127485
0.0613460108917055
0.0598407715250962
-0.00989268479205197
-0.0222989944119401
0.0604890123935066
0.0924309919042397
0.0424320352691377
-0.0237453242602463
-0.0283997273014748
0.00569607249154164
0.0425387477891843
0.0290821768125916
0.0162011032369454
0.00627898430094165
-0.00793033167753302
0.0160761419645022
-0.0359275495135639
-0.0532617485312004
-0.0130925534356101
-0.0371023858967051
-0.121414939240063
-0.0934275041165216
-0.0250478893120156
0.0728212733873421
0.167876855773509
0.0550305668251569
-0.0192971749604476
0.0585297028628577
0.0333577502148747
-0.0224643815726841
-0.00517217272760865
-0.00573883850203521
-0.0419362191955767
-0.00821404763038886
-0.0146089631702434
-0.0429892651689861
0.000819784399112508
0.0433687927806393
0.0364828607697883
0.00118249493928675
-0.0136265106721836
-0.00751630618974543
0.00896669009494247
-0.0311211866664076
0.0123348439574757
0.0693652200572961
0.030591670308391
0.0821473153990073
0.0915877751349436
0.0788365090747299
0.0224790679414913
0.0105952531516346
0.0173791834265773
-0.0447917890372574
0.0230824268665376
0.0167632653980523
-0.0140462216460259
-0.0252034418865735
-0.0262996446442731
-0.0715347446157576
-0.00957228030909302
0.0028575310609588
-0.00474584422289373
0.0194958211972044
-0.0291334999642185
-0.030188197782073
0.0231749230567009
0.00990756324371236
-0.0284725029781699
-0.00185168309820325
-0.00227273127502571
-0.0660990699186907
0.00826775447620239
0.025952913194539
0.0172383497460356
0.0510428384471976
0.0721655784911186
0.0221266372043794
0.0149564237438254
0.0278887225879423
-0.0815311410837738
0.00798965219063763
0.0211881061573326
-0.0640414681140171
0.0159962716440923
0.0478096437463195
0.0494153192114062
0.0494065804258395
0.0351830458599428
-0.0488110469592249
-0.0365880687481772
-0.033386924541533
-0.105525853862709
-0.072493950594769
-0.0153495291929459
-0.062962093989985
0.00162750674228891
0.0554380478633862
-0.0518584149297001
0.0483136896939953
0.0200503018866676
-0.0571672124427664
-0.0688859840681197
-0.0125834097001301
-0.0177291556340014
0.0263625833295481
0.0223053681478338
-0.0533211100663103
0.015791721613025
0.0421766772628961
-0.0510786688780001
0.0197978564145649
0.0364844075226794
0.0303320084295664
0.0695943123042865
0.0457871601434045
-0.086259631055912
0.0675288812397097
0.236026010337736
0.105871259598605
-0.0252354605092869
-0.0509477476250082
-0.0447368230900258
0.00237924021312574
0.0611022424884566
-0.0513389721151969
0.0736942239825035
0.059141798083506
-0.0473856907574601
-0.0950248076025605
-0.0361269086333922
-0.0442844855940253
-0.0125777311120819
0.0123487939065821
-0.0576138774116418
0.102929123837022
0.0514054574780925
-0.0730449929861434
-0.13368250963338
-0.0791484502693064
0.0181158711893644
0.0381123632617332
0.0471051646799831
-0.0947621067194451
0.125911910584508
0.310565139850901
0.198399970316864
0.0262800497268235
0.00389885720134847
-0.00715998830595013
0.0344031826513496
0.0801117533594084
-0.096171155868903
0.0495551784405214
0.126793789967047
-0.00125122652542263
-0.121096495462277
-0.0852684636569119
-0.0394142858506615
-0.000288695667469219
-0.0136096307757287
-0.036308436145449
0.14916372424857
0.119176733193167
0.00241152358481722
-0.0757301862696311
-0.0379964516891974
0.0418851220406462
0.0431479538306996
0.0394007491299504
-0.0170461228139708
0.0542084439384017
-0.00321284022973175
-0.125642907802286
-0.160424970746141
-0.149600706756613
-0.0374283811255281
0.0117589964166309
0.0523753517889948
-0.0810133244818688
0.0787809002146306
0.162989717955336
0.0773162075751828
-0.0172418559769687
0.0108537853330703
0.0352925771265329
0.0204866537045103
0.00138170874005012
-0.078470558705729
-0.0160991861354683
0.0412858903477606
0.0224877373795972
-0.0720992244694233
0.00436910050442312
0.105296117290152
0.111082068556968
0.020167074285581
-0.031900938805446
0.0639636314751735
0.0463172078638367
-0.00534009272809498
-0.0812953884726223
-0.0739740107629288
0.00429458591509303
0.0403836639682159
0.0658477781110899
-0.0675049813038427
0.0115306366571862
0.0290075477620967
-0.0294564455772743
-0.0930083976843207
-0.0540335792820103
-0.00452775561374956
0.000522104188981737
0.0647897486675518
-0.0824307511271805
-0.0151175289561178
0.0296024480299657
-0.0361325318612217
-0.151153899024034
-0.083831616468611
0.0698705666560234
0.11390355328873
0.00296201792435449
-0.0427667746057054
0.0044095478620499
-0.00285810893530568
-0.0125471151583101
0.0104286066973675
0.0817215678308487
0.220563141123936
0.29045362572511
0.107064267637701
-0.0538370596931512
0.00313976795409613
-0.0140258578266225
-0.0696345752363701
-0.131908644960794
-0.0788991991296149
-0.0501414261007813
-0.0257139939997227
0.0296449269020935
-0.0333003365943151
0.0726627182296283
0.051037388114004
0.0568224548650835
-0.00798825391011331
0.00852944877227384
0.0575736222794244
0.105571287080288
0.140311481730313
-0.0576765850182525
0.00765275882371966
-0.0135138199476098
-0.0540114286609546
-0.0353057491848423
0.0147037131814566
0.153510111450908
0.220371485083601
0.0752080708945577
-0.0262827997943864
0.0627170852474735
0.0683634726301323
0.031555203895787
0.0570880018477552
0.0392776392593636
-0.0136169543479477
0.028343158600813
0.00940412862778989
-0.0421160871820655
0.0514238698257949
0.0400061064566363
0.00768081554118877
-0.0598817946210571
-0.0813990549533783
-0.037535651591453
0.0571595337650807
0.0979773349840939
-0.0303179353406347
0.0252799719425844
-0.0114747203048441
-0.0339345446425327
-0.0288619971406511
-0.0472430862051992
0.0030844727520133
0.0634028914371688
0.0696677010844692
-0.0453020162872903
0.0284709098808817
0.0513854532057384
0.0527435769882747
0.0526325841559503
0.025815819997441
-0.0393541079010893
0.0239969142251728
0.0180231438334468
-0.003706359661495
0.0110631165177366
-0.00389048540089582
0.0332761475223896
0.0994729514804074
0.0783097703341902
0.0334102780942475
0.0191071692728315
0.013028570888024
-0.0381780192344318
0.0124155404843553
-0.00593082217760101
-0.0463145686911333
-0.0523765373300114
-0.0758531333553483
-0.0321682337888794
0.0403206463880291
0.036475477945127
-0.0580191824471142
0.0831553227262581
0.0393836005952143
-0.0375697236539859
0.0286195502678797
-0.043430778985064
-0.110314141523898
-0.0161356252241899
-0.00366451426798029
-0.0582295113566959
-0.0156770840200674
-0.0251326299862111
-0.0514595976854693
0.0128239187355814
0.0664805349472399
-0.0207549134374433
0.00838439211753472
0.0321192876332006
-0.0538346014230316
0.0547606889893332
0.0324494187121593
-0.0156778950375194
0.0151094914242695
0.0900275200450853
0.0345739519438335
0.0851733132613444
0.0438748033044461
-0.0486143315958583
-0.0513258306419025
-0.0778778750684065
-0.0541162038509535
-0.00435791311622267
-0.0586901681439266
-0.0634626894231789
-0.0092082051157889
0.027555445407736
-0.0396034812091076
-0.022467673497666
0.000530894737200955
0.0211819565224407
-0.0220658007079595
-0.0785838047005221
-0.0189584837851861
-0.0113550800168837
0.0117155223920862
-0.0567235000620579
0.0833127091195468
0.0529375405287699
-0.0192023425185835
-0.0130712186500447
0.0431783862016539
0.00360802322840352
0.0338236789268694
0.021580464402784
-0.0688279765414066
0.105621446250157
0.0877709713731697
-0.0297631635858301
-0.0911607576389432
-0.0220879254330805
0.0597928423936054
0.0550326215915211
0.0416423896564526
-0.025988620021131
0.0138383776262471
0.0353257584990627
0.0296876619301797
-0.024537954700219
-0.0831836400619806
-0.0584646365329752
-0.0450163839186654
-0.0169097841884785
-0.0240714886431803
0.103946290499891
0.117286683419996
0.0261241919976627
-0.0514196414273363
-0.0407669585516947
0.00716498765053972
0.0608746970067165
0.0299553701560002
-0.0412695394608967
0.15096941283287
0.168819611865995
0.0506724217401271
-0.0183191891241148
0.0194794710268326
0.0923107574709119
0.063315879948327
0.0400061903457186
-0.0409265685974895
0.0474013358640647
0.0356155537676806
-0.0553381321134976
-0.0849132300694035
-0.0865818139659643
-0.0425875551551331
-0.00281467804159693
0.056074049672116
-0.039734423256359
0.108979720004518
0.157965376638658
0.0968742493427022
0.00414926679819917
0.00224164208268381
0.0698515012054583
0.089948730518812
0.0334703985158445
-0.064798813075672
-0.0318995599698152
-0.0206384313080855
-0.0843777243218982
-0.0713531861958573
-0.0642007893882013
-0.0494021201189763
-0.0291227423904111
-0.000237724690625971
-0.06107528351949
0.0493154880180737
0.0833899562069557
0.0509957415316304
-0.0155522561181907
-0.0261017651811272
0.00182185608756857
0.0311522762765236
0.0530883072663646
-0.0658393047593594
0.0123970939364615
0.0435592781727723
0.0017533675052151
-0.00412133548094193
0.0214380238478718
0.0397584145220733
0.00685417531140405
0.0576688379308555
-0.0746460927471525
0.0103668160064874
0.00827569171780679
-0.0149964030629314
0.0363182822349628
0.0357074815787913
0.0213685859679825
-2.57788392628715e-006
0.0185201289019291
-0.0672709503281266
-0.00415955327280133
0.0342506110432517
0.0433723524668573
-0.0187851752643414
0.021767993507772
-0.00574064004230265
-0.0233708263554463
0.0284166667179215
-0.0575165339293023
0.0126848789579783
-0.00356497590772514
-0.0494812737129754
-0.0645113766357574
-0.0350326307382378
-0.0210897465598009
-0.0133265468292197
0.0302692677761357
-0.0235734892915915
0.0949582155692092
0.0979285862147713
0.103994617023287
0.0392696170576641
0.0420791045776863
0.0705396831505407
0.134077981501785
0.158945961242001
-0.0636841526915258
-0.00441210933781761
0.0250557598986078
-0.0216285539812532
-0.101278057857411
-0.0509878110305234
-0.0382010075153538
-0.0500377993237138
-0.0216010380016022
-0.022948319245857
0.0547387671629951
0.0756930342183581
0.0395940178414249
-0.0330572413000576
0.0521395259500301
0.134550264449986
0.126335276046814
0.0892465923527596
-0.035271238991707
0.0678350952319352
0.0703996153275281
0.0477820469761557
-0.0162800235592636
-0.0337944655626623
-0.00128591402405106
0.0843459794952103
0.114252745747742
-0.0231414952316835
0.0477637899110626
0.00476537184873712
-0.00950284090506515
0.0342795989585603
-0.000504540492150755
0.0228447711737662
0.0791399245416612
0.0814581173671247
-0.0419297999850395
0.0309628316703937
0.0512904805881873
-0.00991015165719242
-0.0699543725736171
-0.00643131323429363
0.0755671317693918
0.0929538594941801
0.0704521147969454
-0.056851497021996
0.00535578945786979
-0.0259569431880963
-0.0344917220464897
-0.00585289491973668
0.00957292403481886
-0.00976393506976597
-0.0134735238584113
0.0397355994900675
-0.015555988142661
0.0582012481806023
0.040037294228553
-0.0078471117465122
0.0530215797698498
0.0251729221101623
0.0307343155044144
0.0651366971138053
0.0475339895540529
-0.0577686983960702
0.0511181984405996
0.0548344355846582
0.0148738913729585
0.0998799268524903
0.0356680774588715
-0.0512811898323662
-0.0128457805099695
0.0145738133422014
-0.0675607613195667
-0.0193820285699198
-0.0481173250972777
-0.0602294625869949
0.0053975158940098
0.0135649657704891
-0.0289813569864543
-0.0397501524568537
0.0242954594293401
-0.0663021699239581
0.0280910766703232
0.000296220067762217
-0.0753329324970249
0.00427454033411495
0.00361928960573547
-0.0555630381081876
-0.0533191509535546
0.00358158325093644
-0.0550314315841217
-0.0418354388785895
-0.0717106495540455
-0.00712440177719993
0.058771913688423
-0.00124333056600111
-0.041642902819946
-0.00384347303026132
0.0232257273654581
-0.046039452240807
-0.00498864062065759
0.0381703479504901
0.0666702071497658
0.0589073697804554
-0.000716788246509924
0.0193802688680689
-0.00913343437704687
0.0156073163372671
-0.0872704731007899
-0.0494641224075832
-0.0525876495009855
-0.0746013729402192
-0.0385475048055213
-0.0756907409799879
-0.0966994775496223
-0.021021617082079
0.0122896885032123
-0.0402274940690045
0.0130237946059787
-0.056682463093057
0.00123069821759057
0.00760105771413481
-0.0373444398836983
0.0191433384160594
0.0468027774810591
0.0628657732769896
-0.0250410743347798
0.0316106175874636
0.062181388537912
0.0585578278281931
0.0134592196892966
-0.0592561543620802
-0.0536656623705259
-0.0514875357267292
-0.0160911849402521
-0.0207546967762926
0.0979548055019895
0.0985807233968954
0.0209553301686371
-0.0292408953958022
-0.00783333255719217
0.0355033812960374
0.0806812297806846
0.016062282536151
-0.030860347448222
0.00598258659833194
-0.050141739417641
-0.0206449447109212
-0.0446229851588309
-0.0924256615767132
-0.0263911105887857
-0.00372658582682365
0.0476201857252421
-0.0517192881030808
0.0877005099795591
0.089009795754539
0.0310102747491474
-0.024962115581325
-0.0101373697039734
0.0468008040928374
0.0561974277350838
0.0192007143941775
-0.0309895909654761
0.107364031559276
0.140924576104899
0.0714572888054395
0.0132825698641718
0.0196387412248551
0.073858756674938
0.108621119600503
0.0177711774846438
-0.0644953670008928
-0.010553172662903
-0.0144771501270936
-0.0489177746974611
-0.0577917511619443
-0.0437763802271074
-0.0245617012069573
-0.0181447497186063
-0.00104531321851833
-0.0510964001853382
0.100929956574112
0.126149298127939
0.0687450628237778
0.0206179231815781
0.0467256652200912
0.1027547686314
0.0591581904909097
0.0173840609365304
-0.0575674712558931
-0.00427148062106024
-0.0170718198985785
-0.0668907758928763
-0.0146238690218542
-0.0428995170917229
-0.0331442778303425
-0.0242766226617414
-0.0113672160622623
-0.0717021017944932
0.00527259615900423
0.00645206000557396
-0.0176463190161165
0.0189023928256515
0.0355566595030066
0.0305878254542139
0.00322921703584966
0.00982837966980587
-0.0758851205652251
-0.0163809032683946
0.0226325472247165
0.0512957699751394
-0.0250820872492504
0.0118072105754499
0.0172726720495017
-0.00643600285483097
0.0251141272447618
-0.0408315513387538
0.0227190071762543
0.00456202345563917
-0.0139946018795518
0.0676883882062944
0.0454010043899884
0.00558654343238454
-0.00209755897870791
-0.00722279101619666
-0.0609853723611311
0.00408960527131516
-0.00541607553617455
0.013430443316634
0.0983168212797671
0.0443555243204577
-0.0104430023596331
0.0269257060675536
0.0391429517146211
-0.0680615250643221
-0.00358414819299217
0.020067836933437
-0.000360092001218948
-0.0938495227128902
-0.0488710051500367
0.0047223945813819
-0.0200528377028765
-0.0139064840418864
-0.0228355385113313
0.0741682160554159
0.0867016995212763
0.0625650754265965
-0.0148129986443519
0.0325477074835573
0.0966670505908938
0.0950509244764283
0.113803583415621
-0.0545860676035668
0.0188732863125566
0.0109818040784989
-0.0263255988601612
0.019347972411819
-0.0337992012642842
-0.0424209773475524
0.00848016577851661
0.0107756641087367
-0.0118519474139354
0.0802545373246366
0.0614484843578509
0.051689840918739
0.0647171539554383
0.0289799833992638
0.0728261515032624
0.0604000751396106
0.0510365975076219
-0.0369732595505747
0.0508951126057096
0.0535215325732615
0.021315001810113
-0.0383080947235781
-0.0115838487314932
0.0542215003656018
0.0573705338966066
0.102869375532738
-0.0555297510248886
0.0176555727428423
-0.00348129920535679
-0.0215133220376804
0.0114756642132632
0.0251880641356159
-0.00760799799727204
0.00571529167359762
0.0526574571766371
-0.0197783972875399
0.0384025349546865
0.0452895702805381
0.00352557521114656
0.0112410482946487
-0.0282664883873158
0.0248921158926
0.0214427105329742
0.0216427673853647
-0.0433982075677836
0.0932603863969777
0.0357679695831798
-0.00637466800205247
-0.0248534095194862
0.0036349853560146
-0.00991439037128069
-0.02012197615857
0.00947486523907679
-0.0485115987201731
0.0176453687363432
-0.00351327645985899
-0.00318721532321016
0.0656576507020301
0.0712576438973913
0.00812509903432113
-0.00590353603749062
0.0430250135752566
-0.0600197047610853
0.02825249402128
0.0106382516713639
-0.0563287849879345
0.0492814566380717
0.0237339206363051
-0.0489710371751289
-0.0411794740021907
0.000110117289627995
-0.0487613200017208
0.0815408594157199
0.0486025349752599
-0.00929691399548617
-0.00725714178389378
0.0441965406218422
0.00719290765855098
-0.0354179142279166
0.0343702607303579
-0.0742266666798817
0.000392064592165516
-0.025911367251673
-0.0472198629237608
-0.0172601681901265
-0.00734574622877903
-0.0916711975549984
-0.0697967773268763
-0.00091368547614205
-0.0779671642222639
-0.0335332898581668
-0.0432830775261713
-0.0472948714035277
0.0210983557084506
-0.0117696378310697
-0.04261685276447
0.0153020570442541
0.0285259244885908
-0.0357198943701646
0.0022743867716732
-0.0202575671556025
0.0383993926939593
0.0786498267978273
0.0278358238059947
0.0473177648850052
0.045323604859156
0.0459875670133964
-0.0775708667336671
-0.0449608277277119
-0.06855484547261
-0.0585623895855004
-0.0244926772059178
-0.0153507111635362
-0.0577076124743896
-0.00693495785501094
0.0911132962695355
-0.0886609675845969
-0.0564153978731023
-0.03389274911568
-0.0225195786731634
-0.0471516054419151
0.0199729805325798
0.00189660315615666
0.00138067427113749
0.0344833320417546
-0.0237863807730534
-0.00677273714000153
-0.028060027449633
0.00768797482403198
0.00714051673440699
-0.0218142721995588
0.00552075997715016
0.00670579265356486
0.0398131122627621
-0.0385265538877689
0.0660408391536316
0.0782292432004211
0.0685075061870733
0.0080387660359003
0.0474772890718695
0.0974563372287331
0.0610337366430857
0.0262372760797714
-0.0445599134799766
-0.0253555370376976
-0.0284776776394387
-0.0531723165378364
-0.10390850508412
-0.0411039305111062
-0.0542239517822627
-0.000845002285895848
0.0186342580097676
-0.00190487608674373
0.0981770307760656
0.0604815049022275
-0.00772655623613361
-0.0325053993127391
0.0320794207773216
0.0476497960482473
0.0281444096435135
-0.0216232925252636
-0.0391082178497868
0.0898751328627857
0.113070475738628
0.0902395670077314
0.0195518842448583
0.0580951886211487
0.134673582009558
0.0765351052415547
0.0190569955806734
-0.0505140450635766
0.00979277436086438
0.0244794915788689
-0.022683944483018
0.00120965461412955
-0.0221189608475042
0.00892059121408269
0.0147249785154783
-0.00311987833091489
-0.00478134396444447
0.12147933691527
0.124009164545502
0.028161584735693
0.00270258014132746
0.0553174812145415
0.0663920762758822
0.053690542458041
-0.0277563497696217
-0.0615697135266369
0.0443566566900867
-0.0165978862214308
-0.129939167475707
-0.153007703479215
-0.0493650336954441
-0.0258366301154069
-0.0135409351943087
0.043086020075394
-0.036455340843213
0.0268309434179774
0.00948408010866248
-0.0061991219256675
0.055709567004312
0.0526331597537738
0.040953635383498
0.0193753447034043
0.000896135985894933
-0.0668629860198639
0.00957787406512908
0.0449759407110066
0.0457532902497138
0.0980712524723109
0.041307486100694
-0.00850556011198375
0.0200811483357561
0.0375496570605443
-0.0638022579810345
0.0216011899566611
0.0182688333119649
-0.0793871266870003
-0.0964082775694982
-0.000733199623738879
-0.00494434622669983
-0.0349359914333484
0.0588037793938009
-0.0350014230419256
0.068101472196554
0.00590035390957892
0.00815067548278886
0.0116034577150878
-0.0407302358038138
-0.0302586820100378
-0.0264098073877791
0.0157889421733035
-0.0600485938049433
0.0265181914743748
0.0408985603744455
-0.0333158603496198
0.0180344004689079
-0.0140063976240111
-0.0145843733265966
0.0205244864052381
0.010884271589253
-0.0255054930939097
0.075175483219335
0.0594114597334049
0.0470952086596866
0.0800297310166128
0.0268285220317797
0.066033666051567
0.0448942881203297
0.0625565410057411
-0.0314739395568619
0.0411067743856967
-0.0136467842729618
-0.0480595451377003
-0.0402021917877097
-0.107874947299729
-0.0847643135111927
-0.0129483113797268
0.0288640119258801
-0.0467757689799121
0.0772584763005758
0.093583762257549
0.0501215133878385
0.0503607788438133
-0.00479509248911779
0.0212930815311148
0.101663058933995
0.0799712546702608
-0.0287762697002013
0.0528153087670606
0.0561684251203361
0.0380521445038017
0.069727508980676
0.0313981050184795
0.0443412935306728
0.0434987579913363
0.0503828408085924
-0.0404398830622747
0.0802110158606056
0.0299433100650408
0.000980518175967581
0.00645415701821778
0.043852921034412
-0.00717398190675189
-0.0179473726135186
0.00791538606882771
-0.0491258735803657
0.0528172263328623
0.0626535572124351
0.0146644468527205
0.0217503863291726
-0.0452486949126524
-0.0107371523612586
0.0728245552273702
0.0820184616567163
-0.014388796846012
0.0310773829760231
-0.0462642904329538
-0.0527327102308348
-0.0335066956578162
-0.0542866361058565
-0.0153095767764931
0.00403011401201813
0.0317706131940716
-0.0389377675352587
0.092447652624226
0.0570863802754377
0.0324298033953056
0.0691932061969676
0.126559415206005
0.0436769611373826
0.0100933413678211
0.04376579376762
-0.0634729127103026
0.0232861542808395
0.00570228351657989
-0.0109400751223177
0.0279416746094734
0.0357825083538642
-0.0843848194050092
-0.0806276048140877
0.0203984685643801
-0.0136172428601399
0.0407726164370345
-0.0498857965005846
-0.013061063698302
0.031675422634626
-0.0188573897879462
-0.00638188922424917
-0.006677987040175
0.00798019270962966
-0.0182694180080554
0.0578076871725364
-0.0530502529328213
-0.0673199740938011
-0.0267839430784082
0.0275372508089156
0.0143331322235385
-0.0115166391853734
-0.00504019018124481
-0.0677057337865042
-0.0200317510048927
-0.0528878503221149
-0.0171298786613341
0.0217373511496127
0.0275471368780913
-0.0355966201043575
0.00302777113720219
0.0972881816011734
-0.070487816900671
-0.0187663342625495
-0.00824653489167721
0.0139362689088313
0.00955418128631396
0.0541071124582042
0.0394868038639513
0.0424442860691173
0.0545871668323439
-0.029531097939509
-0.0327609001464819
-0.0272744836337354
-0.00586090577889125
-0.0193307850792968
-0.0987315638883851
-0.0663443724759815
0.0164219403136663
0.0529638630464274
-0.0571682672254282
-0.0264273329624505
-0.0531621949238971
-0.0517040005782129
0.0176290683606694
-0.00585665032089541
-0.0189413531112492
0.00185484617932421
0.0240252821896253
-0.0365710942362821
-0.00405497821285729
-0.0174021700657043
-0.0505517812435665
-0.073450261623945
-0.0274117176952946
-0.0165789006375969
0.0335551682771852
0.0417741408702978
-0.0118277781030835
0.108034021611025
0.0890031061651701
0.0599615312258062
0.0509588416653639
0.0873998785154579
0.0781490848503562
0.0424080069534109
0.0104470328099949
-0.0409447887262466
-0.0109377091916673
-0.0484980179560011
-0.0790601730278145
-0.0470925566299675
-0.0658434641941574
-0.0440459335743393
-0.000722586927007093
0.014354627925492
-0.0390565269050036
0.0636505662948283
0.0151209748197033
-0.0115189217733964
0.00670848254790256
-0.0252157988097922
0.0194622538737052
0.0487756762244184
0.0698642035680267
-0.0154182532374455
0.106826938329402
0.103372561326747
0.0404511360417011
0.0401498320312199
0.0744193611884274
0.072551769223131
0.0493874011593855
-0.00142500787629448
-0.0511175289418284
0.0442658815055426
-0.00494023761782948
-0.0885973934908075
-0.121761706073708
-0.00806524059594398
0.00615137637048534
-0.00320941551633292
0.0319887756933927
-0.0247130068977575
0.0701936487196152
0.0335334955488336
-0.00810813056070187
0.0307384619189828
0.0106241460779141
0.0275172378489818
0.0391870292207341
0.0448903359003135
-0.0571937388595083
0.0826948604077853
0.00306328876317409
-0.06979772024712
-0.0725688484755824
-0.0278422761811862
0.00376705094117578
0.025132342527197
0.0513086388279623
-0.0603895179296964
0.0196005331858568
0.0172974501623557
-0.0563496456618298
-0.0894796682324178
0.0283813519091385
0.0122402210344923
-0.0220221709434256
0.0579099826835305
-0.0407036021240182
0.0615329431416677
0.0192803466479549
0.0194117341165425
0.0307959239738386
-0.0142629832515319
0.00532337333910914
-0.0236030179814926
0.02233606075327
-0.0244604005823653
0.104983298066962
0.0746617478216135
0.021922453053627
0.013281458811182
0.0306549914312096
0.0239607014599497
-0.00664113382041146
0.0413714169156305
0.0369474311540179
0.145825257600069
0.0811889864585823
0.036857579143364
-0.0225386220668167
-0.00620656948853568
-0.0144069766342915
0.0311685887698045
0.0951492034941124
-0.0328013901180506
0.0416684518614298
0.00304193266810624
-0.0402879972630402
-0.0408595357800616
-0.0953417647726127
-0.0407237767445129
0.00402782461893591
0.0330257305668016
-0.0337186790599641
0.0834063354427766
0.0954174697613529
0.0647052809141946
0.0819583261424216
0.0370678001074608
0.0413207500558847
0.102442835653891
0.0758153389163241
0.021599986971073
0.158771186749927
0.0730225738681936
-0.0174042536015826
-0.0859433064910065
-0.0650298453017417
-0.0620359616734009
0.028207176082647
0.115494797765703
0.0311106385393718
0.0637235722213324
0.000190580966668681
-0.0462721793430924
-0.0127932147833926
0.0255842143417205
0.00953938722073945
0.059262875264317
0.0815907887078477
-0.0273647106263265
0.0786786391006411
0.0761699073324774
0.0382340311247628
0.063725115396119
0.0179308495098933
0.0442902075316444
0.0903972419143389
0.07887471960096
-0.00444146310132071
0.0680972763663551
0.000932875374958743
-0.0234161700097422
-0.0183758352125877
-0.00718812130094587
-0.00170385879153293
0.0152536212303044
0.0536295613849573
0.059401826090008
0.0808383008493819
0.0122543007379984
-0.0473740295735531
-0.0240554109921451
0.00680181138833098
0.0187423354067984
0.0322985122998509
0.104205742756898
-0.0248738636300588
0.00935192345766276
-0.0442908382803154
-0.0941812745820078
-0.046801574917044
-0.0486260173506584
-0.0548308301617241
-0.0190458590546267
0.0660808186603464
0.00374597573006556
0.0712031374745428
0.00186788822549208
0.00504373897091732
0.0518357664545801
0.0392432603895825
0.025947543894683
0.0094354315649582
0.0372059890451575
-0.023529488469929
0.0502548591401805
-0.0469594800853154
-0.0448297257611338
0.0122544689085063
0.0786689815361128
0.0375915345014584
-0.0205689315581189
0.00960083972666127
-0.0297891954878648
-0.00368602774803919
-0.0530362194188569
-0.0670595163599183
0.00249936153426527
0.00572450719040953
-0.0258099465284761
-0.00133074142183106
0.050606688593951
-0.0140442338817311
0.0489642548466386
-0.0402289200280226
-0.054601111340755
-0.053150120164511
-0.0434177876195307
-0.0397939735817896
0.000962275584273616
0.0397917508541684
-0.0356594741589432
-0.0113420894942445
-0.0153514489407459
0.000928859175959764
-0.0424731342474526
-0.0877896857655355
-0.0742595829041476
0.0111876434150336
0.047451067625391
-0.0544557886030167
-0.00368133948170652
-0.0300678489845195
-0.0398752740353554
0.0357548843453837
0.0274068157978425
0.000279297850427728
0.0120145928015589
0.0267295808364124
-0.0562850794300864
-0.0446856654817169
-0.0898053407365548
-0.0284646982675273
0.0197621642009065
-0.0128273249872518
-0.0623577506555828
-0.0175402823877075
0.0775943949721763
-0.0762918754402317
-0.0406890184401041
-0.0537222056892633
-0.039709626626382
0.0206628614616441
-0.00652799627959507
-0.0101150869142121
-0.00685390307892013
0.00687083150718381
-0.0419016845490741
-0.00865942704194967
-0.0510773551558829
-0.094758164241558
-0.0364614644352519
-0.0359493444483515
-0.031342304567888
-0.0110721140884752
0.0276311417147314
-0.0515047720695914
0.0513007778139517
0.0381374990439159
0.0189860317931443
0.032088213202614
0.0206544437669626
0.0166920724840824
0.0294007396813622
0.0854351817822929
-0.0358147011494906
-0.0270468226002621
-0.0514238338614524
-0.0761991910430604
-0.0241577952159472
-0.0633152047136198
-0.057806793622247
-0.0528289492882338
0.00644072028045746
-0.0519762745841563
0.0973666845940124
0.0580997328996569
-0.0272213790960706
0.0050619512591463
-0.0307287144312513
-0.0119826335994961
-0.015189669775412
0.0824587545249141
-0.0360791693159256
0.0657985803230657
0.0334900818701237
-0.0177453755657292
0.0133232025421773
0.0119773148863784
0.0213979083561271
0.0247387620702359
0.0620276751496664
-0.0301448691947747
0.0988935341404395
0.0402134783164899
-0.0308676768889366
-0.0497516038355313
-0.014671099898395
0.0138335401338201
0.030052666172428
0.0596492615378984
-0.050832698288483
0.109354060665672
0.0908681771861613
0.00446128593460823
-0.028012750000593
-0.0440455808195138
-0.00476774721069079
-0.0111586890341871
0.0341259252219937
-0.00587229334737664
0.129961952487568
0.0869407712192169
-0.0446223107936201
-0.08405161978609
-0.0491463365654136
0.0358552399218119
0.0420386161067651
0.035016382715142
-0.0152667245738271
0.101243344849552
0.0561922551731948
0.00158077997639008
-0.0129670008103341
0.00771414447586643
0.0123047579432293
-0.0025266087390202
0.0338360069209659
0.0325674311971068
0.140447743107748
0.0952326268350072
0.0307445200995329
-0.0180164355471362
-0.0139246461501644
-0.0304371621113528
0.0184451351294404
0.072320948562531
0.00671031211824541
0.156562055153868
0.124643745398279
0.0158680752865307
-0.0448183253382867
-0.0135758314971898
0.0815550322067821
0.0596550200134094
0.046924481610728
-0.0203393199297637
0.0776291696286022
0.0595958347379423
0.0466283599321686
-0.0531096599212037
-0.057613653031925
0.0292862091246957
0.151453858213699
0.157327488119666
0.0343885967657608
0.168967492326861
0.0946821958845653
-0.00884574540902544
-0.0626170460112974
-0.0545813887646241
-0.0403336671023249
0.0441609524899809
0.0939503914085708
0.0293569969127766
0.082911397478938
0.0114464218882179
-0.00825099541592711
0.0109166631221688
0.0292843390160981
0.00351047405369645
0.0774107728669165
0.0832166194312543
-0.010847524867207
0.0895565399092682
0.0637855205772745
-0.000942231532800144
-0.0941177761195476
-0.0773450880115154
0.00342344721488077
0.154471069768646
0.158074363766088
0.00899115958841643
0.0530330453511203
-0.015783367227956
-0.022656152410392
-0.0751269352211736
-0.0391662860229109
0.0104737869072771
0.0844640337940549
0.133057036153556
0.0519480916437117
0.0871192475023906
-0.0167846283744102
-0.0310720106950753
0.0166634684638177
0.0479874938813175
0.0494007382348266
0.0690563535186678
0.10511560304106
-0.032748841811922
0.00910365292733613
-0.019013022062269
-0.0327236120271474
0.0122669017178068
0.0195001027847641
-0.0308960736159294
0.00814995168415045
0.0693841751969556
0.032231406781801
0.0693249001844813
-0.0197121384620043
-0.0343776175354218
-0.0563058778008928
-0.0455282917455697
-0.00727363365116922
0.0725220683926493
0.151811864688599
-0.0287117961896526
-0.0245871173371738
-0.045948242212312
-0.0725763505677504
-0.0817275717472069
-0.056380616432823
-0.0987716858586493
-0.0484235164177481
0.0245596293993057
-0.0357957798199803
-0.00831938850701708
-0.039798364352574
-0.0247749887326421
0.0443011410662124
0.0564290351493964
-0.0019949575464178
0.0232103739037266
0.0664902291955252
-0.0275361784783974
0.0300134450153873
-0.0464222796113006
-0.0268680878313611
-0.0173821041964836
-0.0181328874158962
0.0063012265750449
0.0433361551560488
0.0648535975122967
-0.0553317546083437
-0.0319492283734685
-0.0423916697496012
-0.0575959411835987
-0.0278516830983753
-0.0220894825730787
-0.0765969986562222
-0.0346699641331406
0.0340766758469685
-0.0322574303874472
-0.0101125241529289
-0.0610484901742883
-0.0674240324383649
-0.0532877404614689
-0.0636190388906314
-0.117878973210675
-0.117109599602146
-0.0116300781905024
-0.0588574493523818
-0.0320564128558505
-0.0684477719832178
0.0117032062116949
0.0459128841425934
0.00278644896660068
-0.0676693010041984
0.0096070045030314
0.0776060008504091
-0.0638538396582196
-0.0325001559523189
-0.0525056376232129
-0.0220363574619997
0.0238965767218917
0.021518589764814
0.0146964914516461
0.0161969076110788
0.021688363211462
-0.0641835243637592
-0.0397845861923284
-0.0562798966223272
-0.0571758963233212
-0.0208965027410411
-0.073418251397719
-0.0410919816158473
0.00628955497377846
0.00913975340564005
-0.0412616990583345
-0.0199965461567925
-0.0519088511683482
-0.0332107557950917
0.0223871728411085
0.00936797261669559
-0.0547138869381891
-0.00389839814521762
0.0263429045580133
-0.0266468717479281
-0.0135348578235137
-0.044207620864316
-0.0438536877847171
-0.0210598368241535
-0.0271638169156953
-0.0451190496352861
-0.0230118205576067
0.0161641347316983
-0.0509325106763565
0.0930276400991517
0.0694130298618649
0.0132816820706233
0.0295563021027938
0.00706377249611343
0.00072660420857182
-0.0184852302713063
0.0983234570662078
-0.0449823178585067
-0.0327491100143177
-0.0786075389261916
-0.0469322704881663
-0.00972653944258606
-0.0469319794406848
-0.102871275783171
-0.0627831158436039
-0.00430860142102667
-0.0361978303808086
0.0529884875190297
0.0110092272664208
-0.00990694241656994
0.0146414945063622
0.0070683703178078
-0.036001626961458
-0.0400279840393933
0.0345830565460032
-0.0525745610851828
0.104130669302857
0.0851374566548618
0.0137493024288858
-0.015090741588329
-0.0419018156785336
-0.0207427213893454
-0.0197953777331531
0.0500961058440994
0.00797977879678798
0.131101232641251
0.122693100082539
-0.00433822170598832
-0.0849140572443298
-0.0434243506482106
0.0302553299558687
0.0353347236682094
0.0502094273883883
-0.0379423431843203
0.046131993668753
0.0065316217592492
-0.0387771888249296
-0.0528230601334775
-0.027411319531422
-0.0264011690625097
-0.0119566298986688
0.0134021767170246
-0.0188077600504018
0.103623266459748
0.0815177469128389
-0.060113193591154
-0.0870385753476951
-0.0586878993697923
0.0566830262984528
0.114144705568747
0.120676279288759
0.0141173796566894
0.141943650078666
0.0941209668825685
-0.0144465676217786
-0.0953849736516448
-0.0616115625867481
0.0360061652679118
0.0482805687887798
0.0561713035916588
-0.0163748457618842
0.107507036094469
0.075137718242752
0.0204368513892905
-0.0756118099219985
-0.0815229063722183
0.017809229476713
0.116535822819877
0.146289849952008
-0.00694016198594931
0.112947769747399
0.0998430875362116
-0.0192079950066762
-0.0575598035419512
-0.0406383319017613
0.038108097060993
0.100290933385047
0.129926566892179
0.0181280748702956
0.119951456532076
0.0841240066205741
0.0670904014762507
-0.050678500881992
-0.0941061409213864
-0.0162958556576502
0.116439995486699
0.104419544354245
-0.00651825313645545
0.0985052856535134
0.0709171823941258
-0.0120204968201457
-0.0921509949411753
-0.0621586309822178
0.0290543670732328
0.155465013746662
0.143863169387945
0.0107603061113138
0.0740000759818823
-0.00117916423270684
-0.0214831861452558
-0.0760209461453198
-0.0371871790027804
0.00327224511369224
0.0776905225629438
0.126516094557759
0.0275756039514889
0.131820175572199
0.096529424328355
0.0605011979624894
-0.0869879066938519
-0.108218860050995
-0.0107547338603412
0.12741297565834
0.121029959098778
0.0146709955025303
0.0567590379303934
-0.0357058894760844
-0.0630208579903329
-0.0714406864767453
-0.064212932908734
-0.0194380330091402
0.0385638106821599
0.0684114680934965
0.0259753955972826
0.0711567751457172
-0.0145549373436792
-0.00603321049765041
-0.00982255113693205
-0.00629557747438784
0.0261632575201925
0.0868042867411026
0.141895419726302
-0.0261764312172918
0.00628072373246317
-0.0290530740631173
-0.0501174815229855
-0.0500291189268677
-0.0360743600173309
-0.0710967344983139
-0.0334721835043686
0.0300507766105278
0.00885951655365838
0.0384965308153079
-0.0699454041485789
-0.0734378010176978
-0.0292943260204736
0.00951444076577726
0.00288492464994441
0.0258971705645799
0.075959083905443
-0.0187156611387008
-0.016053847762387
-0.0732058444447467
-0.0709981642647481
-0.0369201780344336
0.00029170215130972
0.0128395240692518
-0.017204513076698
0.014068218416279
-0.0500886655947382
-0.022171854623672
-0.032227983060501
-0.0357041608230503
-0.00868692847006904
0.00478255076690566
-0.0479413636790311
-0.00747252095375759
0.044488745004322
-0.0348609953931047
0.00589344522295064
-0.0399872473650383
-0.0498191474395926
-0.0296079277109535
-0.0159101047673821
-0.0847652761196099
-0.0949249599973028
-0.00293665247892706
-0.0271051288508749
-0.00581526714752454
-0.0634709418875074
-0.0416893792582135
-0.00243582826111485
0.0301632316856018
0.00550082458710613
0.0314408853755238
0.0357146696387268
-0.037229729905813
-0.018977133114005
-0.0139588528918397
-0.0487358450462437
-0.0565179680482766
-0.0295225794376127
-0.0578373270730691
-0.0429983465091141
0.000776807240534105
-0.0680270481817504
-0.0297342022666481
-0.0582187166073845
-0.0200751407535974
0.0153795690569266
-0.05818654038063
-0.0382311476790086
-0.00279941754051105
0.0407929320621958
-0.0407466649020907
-0.0319591094600006
-0.0284286475726751
0.0238214770498857
0.0800868619434491
0.0621532210308046
-0.0328836564674133
0.0152709189560408
0.0457957195765087
-0.0653146901070841
-0.0565315371851894
-0.0952827517617543
-0.0890099095839141
0.0062046719883905
-0.0344698814173624
-0.0843817664901186
-0.0758823283048036
-0.0113468139422447
-0.0598445890967774
-0.0331430276271487
-0.040482803991317
-0.0183640773729339
0.0129616983562937
-0.0104379987998583
-0.0545813947897668
-0.0189925886328797
0.0315587378781855
-0.044936324092925
-0.0224643637118761
-0.0512468963586312
-0.00167761721611905
0.0277063174820811
-0.014889726582557
-0.0988870721048032
-0.0529515032831087
0.0120471019104791
-0.0427507425763845
0.0691904238292094
0.0599220164155098
0.0165417738465241
0.037550088944169
0.010102791533052
-0.0164436230409433
-0.0198465562592683
0.0220344740122986
-0.0457620339847357
-0.0378131194593275
-0.0644441953033525
-0.0507841160895002
-0.0327022275462491
-0.0760394218744223
-0.0592545168920629
-0.0140217354600095
0.0262366143089603
-0.0344807153018352
0.000659393859438266
0.014102249791159
0.0199440862566901
-0.000503929848220767
-0.0321442870768473
0.0224105744830185
0.0442057327004719
0.0571190091823553
-0.0434195658041416
0.0611056666265188
0.0461925667919978
-0.0306866742727527
-0.0565238809408614
-0.0588451112396451
-0.0325241220002556
-0.00848370925121919
0.000244190903792252
-0.0173976067178893
0.107049638014599
0.104417809462859
-0.0308444344157381
-0.0621628969062403
-0.0752089159756298
0.0400898905638347
0.117065870684412
0.108745355468097
-0.0482170854765366
-0.00376553451046451
-0.00698668669132289
-0.0213287151873034
-0.0603625430672459
-0.0911830150020971
0.00927096305316834
0.0309461261042908
0.00947653418674932
-0.0361144671542816
0.0700730278697479
0.134126705818965
0.112981453157551
0.0194855451969059
0.0019069739267662
0.0604645866107027
0.145245694470612
0.0578407845538486
-0.0131471434119331
0.0951951194016555
0.0772081258543452
-0.0360310969608638
-0.100136991428972
-0.100337352606886
-0.0078180526707155
0.0778214505422116
0.105505911997517
0.0123619240352887
0.083228816420456
0.0710007629517648
0.0325219331038377
-0.0995186395299847
-0.126536164817808
-0.0320945803693266
0.100553780829229
0.0906761137625383
-0.0233970695276501
0.0822304987448868
0.130218655472707
0.105141613215082
-0.0247381336069216
-0.0467871574203445
0.0122413805856327
0.0937080991625425
0.0470891759272568
-0.0241024927980178
0.0616799951732205
0.0857123297934922
0.0178936002978684
-0.0408214430416489
-0.00801086902068971
0.0956180854744296
0.117553029125632
0.0631661000302148
0.0278094483849148
0.12234307722563
0.104486582931635
0.0663875704185268
-0.101104514809112
-0.112444647245516
-0.0108510670474641
0.114210123428848
0.121264589467248
-0.000290897091717309
0.0411704028398692
-0.0331295458570426
-0.0576442920445537
-0.0959932026991103
-0.0822933418497365
-0.035899657719335
0.0452303845646235
0.0528823910979162
-0.0159193421108584
0.0882416958343384
0.116752503595603
0.049493618367957
0.0154763069880365
0.0118416867862692
0.117143183245691
0.144190077962308
0.0543939251999324
-0.0325625398994913
0.0136865660525781
0.0205995028395887
-0.0404384686211622
-0.129549851632513
-0.0575659649631025
0.0167240231290752
0.00973790463580662
-0.00263999901220771
-0.00359772060790524
0.0329155153811644
-0.0332869712072455
-0.0265538454423743
0.00153958585332264
0.021124363088451
0.00149425297421469
0.0503559646242208
0.0727898145657129
-0.0201092666695319
0.000718627599372634
-0.0706104342022076
-0.0539052720390038
0.000462353947873154
0.0112777860540712
0.0255022831126732
-0.0238230235257551
0.00332109413409184
-0.0203458571047021
0.0264592176945398
0.0192728869903405
0.0231288970025544
-0.045256377256602
0.0196282619351572
0.0532305209437542
0.0318055486737839
0.0397834704774365
-0.0148289332517743
0.0254548538904293
-0.0285605420132049
-0.0678657092913683
-0.0983512725099279
-0.0156243904384864
-0.00687568173826602
-0.0543934344158744
-0.020997549240714
-0.0248579305842767
0.00742368424301484
-0.0408141596422154
-0.015918663144334
0.0506306973513656
0.0478525470375279
0.0286301040167718
0.012717470858499
0.0111478960401518
-0.0341569229702883
-0.00579149903094557
-0.015012491982331
-0.0257999371368136
-0.0199010909342213
0.00106404606945381
-0.0511242083596213
-0.0497948568909124
-0.000377065828606605
-0.0323202625792272
-0.0116369425417512
-0.0665989472424826
-0.0548778797668108
-0.0524999313440743
0.0318317038729715
0.0177361852719739
-0.0242139335678578
-0.00379815633810582
-0.0605535802145847
-0.0221688502006095
-0.0491432920288411
-0.0607260525345251
-0.0569059787802795
-0.020676503204411
-0.0274477029094427
-0.026703334440773
0.0117862255327523
-0.0416504300548944
-0.0398453379490104
-0.0651672118662994
-0.0363116239534453
0.0681936476331599
-0.00486118487009623
-0.0684297746525902
-0.0704904873525602
0.00346387948381321
-0.0478800498440393
-0.00154830744559637
-0.012188365976833
0.0447907826294176
0.0804664561611076
0.0381440084984644
-0.00277601688516232
0.0147744701305114
0.0230202453417119
-0.0636613585228186
-0.110315904405957
-0.0966262909096236
-0.0379284416660208
-0.051595173602754
-0.0667950151362699
-0.0174254538790981
-0.0054306819766238
0.0142264978377741
-0.0530782077814984
-0.0796430798427981
-0.096484291724372
-0.0553766017402839
-0.00790280310365771
0.00358909652422685
-0.00772654577405912
-0.0275904097315853
0.0100318759093238
-0.0341150973830024
-0.029293833784675
-0.0413852594067603
-0.00360704353172918
0.0140486854099425
-0.0419372421163968
-0.0142280809788327
0.0135809727273205
0.00831506506363052
-0.0260504235788123
0.0204195950068647
0.0396462566714277
0.0566563939437975
0.0709656349688655
0.0371711314710085
0.0763328385239668
0.0314558099149741
0.0568127700951574
-0.040181296959691
-0.0686227511541578
-0.0758507856813046
-0.0621674056067176
-0.0842502179947064
-0.0812457848410476
-0.0474292481096324
-0.031540950779437
-0.00476044005683001
-0.0666893529571883
-0.0801622552663235
-0.0641411600717666
0.0103258476501152
0.0303749337978767
0.0328700836382209
0.0262935379342597
-0.00846278038512125
-0.0330623894813698
-0.0467289928039437
0.00696971803316499
-0.000378527484565353
-0.0182330638581452
-0.044264592455659
-0.0609723345708803
0.0179209643932071
0.0107573911191798
0.0121599620989699
-0.0269449876855533
0.079609439289088
0.12725116949755
0.112887096471474
0.0677712788784118
0.0454306810855003
0.0870062361436275
0.127365641380662
0.0538211769747946
-0.0619691374203126
-0.0920656671036283
-0.0999693206375596
-0.0718306571128631
-0.0798919336640298
-0.0682685439911607
-0.0545007881195696
-0.0501603117294567
-0.043610568847632
-0.0495016891048899
-0.0548207391956326
-0.0371713157079148
0.0471008712164073
0.0583976940233359
0.0543029200265723
0.0795126345221235
-0.02239021866659
-0.0636971116676047
-0.0185402303203565
0.0767501652431607
0.0959741937310164
0.0650013544560206
-0.0167746676298915
-0.0341138192315475
0.0102528973139404
0.0892252963220885
0.0421766808612107
-0.0165758470926303
0.053426303639097
0.0828153316172055
0.00410248458339625
-0.0346756375977513
-0.00886268315442856
0.069124706001077
0.0978699463925748
0.0513447875995824
-0.0436464783694918
-0.0693430535563187
-0.0550030641635751
-0.00331302805724329
0.00199291342290087
-0.00786511713578961
0.00248883453896634
-0.0650705041791962
-0.0738491719145875
-0.0757891315076591
-0.0901012339019583
-0.0341872156169104
0.0443245195374842
0.0523006629590527
0.0107326017864317
-0.0146444537145074
-0.0525931628750609
-0.0619135311838437
-0.00664590411672305
0.0848360736510031
0.109050166292052
0.0551237809728177
0.0425131953549378
0.0385343843667147
0.122894712702275
0.131360147920972
0.0440379482583448
-0.0250924840027173
0.0164054216545338
0.00709447563284036
-0.0240580522669539
-0.0938480144150552
-0.0498630649172244
-0.0122285846903372
-0.00768776900972191
0.0033369430574389
-0.0765514347832599
-0.0765828485161
-0.00868126667594324
0.0860233875226789
0.100023684540325
0.0547117161576058
0.0235411859050995
-0.0327722813430166
-0.0625195475753958
-0.0463967364455695
-0.0400239030433001
-0.0331322540986978
-0.0395898961611164
-0.0749258551984706
-0.109477296139274
-0.059114276004442
-0.0726113580735255
-0.0825795839265906
-0.00874960441522454
0.0264814199658117
0.0239841097759263
0.0771160158564366
0.0170597784703136
0.0689400581333458
0.0476446721898372
0.0323574931182174
0.0474368405485277
-0.0196336332527445
0.0265511626095395
0.00343595591732429
-0.00960912879028041
-0.0475473884139338
0.0278248054932742
0.0182499186426251
-0.0564655084302178
-0.0281229810782436
-0.0651976195829841
-0.0449992744232295
0.0230066129969657
0.0501341066191244
0.0568189383878489
0.0129263493995453
-0.00267796209259677
-0.0299213225379661
-0.0713118856524345
-0.0127386118239019
0.00622415028058419
0.0142589870983133
-0.0513397557343561
-0.112180039290941
-0.108108943206438
-0.0679121647000424
-0.0811619768809143
-0.0512218167254012
-0.0286849296060823
-3.22835441692069e-005
-0.0310499035218721
0.024238896847723
0.0206803557224852
0.0959957429578268
0.0500848291909998
-0.0306749264715635
-0.00378237521579913
-0.0491382343221047
-0.0151303247827914
-0.0161384697492821
-0.0273742475845488
0.00288550131603955
0.0430834727401163
0.0106115657684786
-0.0201468970949496
0.0250334649153543
-0.0259513755630481
0.00719805948057172
0.0145522764914246
0.00190478457806683
-0.0337989505394729
-0.0400647944544896
-0.0623030661596745
-0.0820728044632994
-0.0496776720151198
-0.036352876082145
-0.0311036177015241
-0.0200667635180678
-0.0707101967624906
-0.0649474935179954
-0.0206806058536451
-0.024506250255006
-0.0680848064059355
-0.0347194151629531
-0.0557604293044108
-0.0907233525363621
-0.0706349208040496
0.0133574365388937
0.0059007698903203
-0.0349714586981813
9.58794013977513e-005
0.0137318822965638
0.0177881528994187
-0.0508183599192703
-0.044232669974581
-0.027658263781648
0.004502654705833
0.0609594604792793
0.0575396081926427
0.0566196857696294
-0.00378442561072305
0.00956528884966401
-0.0369265621187061
-0.0950396957029527
-0.0809823744923762
0.00165144739509454
-0.0258878970200122
0.0170223743081049
-0.0237171790115391
-0.0401759099590077
0.00375962838848012
-0.0275645175983002
-0.129730331970241
-0.0722079270262195
-0.00846678521225581
-0.0289489562741168
-0.0423532740418541
-0.0315171899003831
-0.0266157520486442
0.0157262252596871
-0.0413390450835673
-0.0351704116366311
-0.0239972133323212
-0.0162769397652142
-0.00404033965733686
-0.0118497196565538
0.020941963491798
-0.00421997203210895
0.0082607477955901
-0.0690245347939374
-0.0530815586740095
0.000481063857880615
0.0937785420006302
0.103223776773585
0.133492388472953
0.103258791863826
0.0170477578803197
-0.0379311548981837
-0.0155808573109325
-0.107638944346875
-0.0657960240640707
-0.0246242020993432
-0.073135620491908
-0.0845768250263998
-0.0495334224804676
-0.00718942872507717
0.0245142074545349
-0.0695663784711159
-0.144932424658296
-0.0809568814607678
-0.0665905999527937
-0.0707541976153105
-0.0374684201449681
-0.0318446956316007
-0.0421973143658361
-0.0136019643346582
-0.0574357342804092
-0.0529785873100597
-0.0263722126983709
0.0335906459438309
0.0260460466747168
0.0647273052874924
0.0481745830805961
-0.022228216025277
-0.0378607993841997
-0.0483554395017158
-0.00103569646195607
0.0400391909091276
0.162792936430586
0.210059753312448
0.179812285338641
0.190713293796831
0.0148286808974079
-0.0558575569422821
-0.0612184895764592
-0.137103803541708
-0.0921139885819566
-0.0931080979060161
-0.138544006274649
-0.105850129839525
-0.082192913095153
-0.0760289230909342
-0.0414281960533519
-0.0262104546459848
-0.0920113087714551
-0.147759755821418
-0.13398601728369
-0.0994614749274298
-0.110045508601408
-0.0981442864375424
-0.0766339512322321
-0.062603399748321
-0.0408015126261456
-0.0167589002438378
-0.00469839190491421
0.0969546399967348
0.141431978186231
0.128928845969363
0.114792003806478
-0.022802492796394
-0.0649241315619919
-0.0735659495719624
-0.0798391231068603
0.013006356338452
0.155666377679182
0.193274426559277
0.156626389995057
0.0797781538903916
0.0042218355786042
-0.0331445101738024
-0.0109920575747688
-0.0953064058177459
-0.181559621493058
-0.189018217859414
-0.154484972898649
-0.158451669872756
-0.131441085380769
-0.0924169183782684
-0.0530088805678453
-0.0405743865142096
-0.0965980375011621
-0.110428985182967
-0.129188115632874
-0.115738467005343
-0.141339561560167
-0.125708497514418
-0.0928402920886635
-0.0624446218892729
-0.0816222156088709
-0.0702655675231116
0.0279103917759729
0.177752593015629
0.220880096720119
0.196386557150033
0.110174692444889
0.034148921972094
-0.0343328320653372
-0.0408281729846788
-0.0357042253425559
0.0109299962174431
0.0784638926438839
0.0587383023181817
-0.0161575882638597
-0.0109891489111009
-0.0466663198713006
-0.0605124102581258
-0.0455045090874958
-0.107175748599789
-0.0970864264702297
-0.0991128913159077
-0.0851972319948694
-0.117531951447249
-0.110463086235498
-0.0805657190140499
-0.0704505966077041
-0.0113899729386478
-0.0467850621581323
-0.0752070397535691
-0.0670867539581352
-0.0864829322698728
-0.142481638927964
-0.0833870456842509
-0.0894616529640732
-0.109828289721005
-0.0597140001156383
-0.0541430926441508
0.0569790756441784
0.144780372079446
0.141088668329254
0.0693144416167658
0.046218453433909
0.000495843023201717
-0.0474777347207311
-0.010080816962071
0.00732686552752739
0.0458281414719217
0.0119194436973146
-0.0509594707500194
-0.0420039870638847
-0.033989119590128
-0.0356743238631459
-0.0348799839930003
-0.0190535183818656
-0.0219453454884635
-0.0474362817500786
-0.0120011387703235
-0.0056689105944917
-0.0739317191410467
-0.0504777500169871
-0.0656842794497801
-0.116069019237964
0.00481763944119475
-0.0127930193992676
-0.022678326982998
-0.0336065226913153
-0.0929524459344209
-0.0834047999892464
-0.050788777328673
-0.0835863057498054
-0.0820665830716789
-0.0195475872177652
0.00426739419707607
0.0455285491008712
0.0403247117296258
0.000864523080283073
0.0150507049363525
-0.0223258013198089
-0.036798967757474
-0.0332866963097448
-0.0427825053041039
-0.0231101114194639
0.0155190205774971
-0.0411313094940956
-0.0303066493058717
0.0307562145265037
-0.00680865586110237
-0.03956534808474
-0.0143859629859452
0.00366519696125637
-0.0248115963599493
-0.031431416044998
-0.00895919969410292
-0.0575117182024107
-0.0441685049286317
-0.0462258548887422
-0.0742840197375947
-0.0746387665816906
0.0015478043035179
-0.0138562946885229
0.000999735262414534
-0.0214215078348932
-0.00359675545353998
-0.0348915464635549
-0.0177238567951409
-0.0460039777585527
-0.0219009315606541
-0.0359707117873376
-0.0986420426094003
-0.0461348992388348
0.0300776746055532
-0.0254734202090055
0.0371933290295876
0.00513911404820224
-0.0261825168091695
0.00858983658774052
-0.0314767823436146
-0.135726930332913
-0.0658887328916396
0.038784701194275
-0.00851436208462425
-0.0133268371941992
-0.0210511468204804
-0.0106761094171816
0.023268775609109
0.0629786328711372
-0.101378762152705
-0.0771458964911373
-0.0304032888165083
0.010864100786479
-0.0119099112561832
-0.000692761652863861
-0.0414674087329358
-0.00873407934836101
0.0505775604765035
-0.102165121982306
-0.0963158935946734
-0.0258432075192605
-0.0586615837817431
-0.113049302346679
-0.0760576636864794
-0.0551297771096714
-0.0114528643198887
-0.0265019755281908
-0.111790792107473
-0.0144692143559502
0.0651254509316712
0.0138932242573954
0.0010206994244472
-0.00398325044033612
0.0194169542779776
0.0434454447255226
-0.0708862435894846
-0.139904128159146
-0.0584617857448734
0.0211151803685681
0.0163645292206238
0.0472595493636242
0.00353462152871438
-0.0247342037376562
-0.0139289772982061
0.0497849441138251
-0.0882985929104689
-0.0748401047586259
-0.0106086217262492
-0.0405248761181427
-0.0784023538214634
-0.071538260958761
-0.0426244685315828
-0.00221423367969814
0.0380441434935549
-0.138652424582735
-0.0782528222798916
-0.0203388977155709
-0.0184916740254768
-0.043499884073309
-0.10420161023922
-0.119362850420578
-0.0697236691541159
-0.0600734031139501
-0.119693051384465
-0.0305429302757612
0.0510601661525767
0.00468649834542242
0.0366941060528187
-0.00239871387808177
-0.0401174866341624
-0.0287101701683761
-0.0262756278067947
-0.0835667084307362
-0.114666708640217
-0.0503214812955736
0.0570668360903527
0.0608281529176024
-0.00946634727336815
-0.0233431803822783
-0.0300848266356408
0.0395157406052606
-0.144042805125264
-0.0760847560395152
-0.0193860139559754
-0.0153382857709787
-0.0248533425699838
-0.0703369716374544
-0.128871965199974
-0.0642994351999336
0.0283509879036922
-0.0934901389706221
-0.0797722757928892
-0.016564686246263
-0.0533900789145196
-0.0803033247560911
-0.0452954630493639
-0.0321092372473283
0.00316623998545431
-0.0103039667195202
-0.0946005607026433
-0.161359086795536
-0.0967829503963262
0.0226901785649394
0.0371849225179105
-0.014979875612111
-0.0318589607235643
-0.0222523968045966
-0.0364719411147287
-0.0582607797732938
-0.0636177352943227
0.0133720569982776
0.076664505508317
0.0126963680091138
-0.0574187369020821
-0.0796767315180071
-0.0574700040400301
0.0417280085459525
-0.0998672368635674
-0.114302703110476
-0.03352214703995
-0.0759482210700427
-0.0979667640034108
-0.0554557802931128
-0.0476549848957867
0.00379442488338469
0.0657867257516916
-0.0399152915879188
-0.0704426675804563
-0.0207677541102962
-0.04117937723107
-0.0828962640526405
-0.0374948703369311
-0.0746872949559702
-0.0533300324383476
-0.043828651828057
-0.0894577733301349
-0.0801300808882323
-0.00287363186738532
0.0595060710096421
-0.00347054884552519
-0.0541896783443582
-0.0650937807095357
-0.0615158176680775
-0.00515522181408826
-0.0351115251027323
-0.0378031608663761
0.0197900237680972
0.0565363800342408
-0.0167499656727677
-0.000335913263810064
-0.0477677495168323
-0.0932645354138147
0.0637695064592276
-0.0641416231917276
-0.0921427203059668
-0.0429133976480573
-0.0538913183720806
-0.101385210052176
-0.0562576818692182
-0.0635631927956187
-0.0460624013601572
0.0740776828099251
-0.111545064292988
-0.113683621339682
-0.0254945094271069
-0.0245442779328807
-0.0509167989096183
-0.00968154689545521
-0.0634284623774978
-0.0829247311179742
-0.0140029340181021
-0.0208802352160797
-0.0243119532691629
0.0340302968636853
0.0826459032570663
-0.00219643164441599
0.000250737733370894
-0.0468010398314955
-0.1075550262952
0.00854822700860452
0.0124403181180958
-0.00782449604969931
0.00252434560045355
-0.0223604343461827
-0.0151724308041666
0.027794012002646
-0.046787488385618
-0.0714904820397156
0.0656650649585294
-0.118646390023394
-0.115146769787989
-0.0438933198187298
-0.0255550190672911
-0.0275912086984209
-0.0145363394789361
-0.0551531374254574
-0.0724587530392501
0.0485045846150538
-0.0825801543690336
-0.0925686479417693
-0.058935245825125
-0.0268338578024781
-0.00159155620687133
-0.0142229570891002
-0.0714552731587631
-0.057522305562304
0.00279411282380835
-0.00575895663463048
-0.0293557618523017
-0.0141150283720446
-0.0466503989489943
-0.0283163810078579
0.0145755213068278
-0.0736030480120495
-0.0681742861079936
0.0101321168476977
-0.0124686696414239
-0.0112856432804195
0.00570265126934591
-0.00189021998625013
-0.0282373926835662
0.00653831297022356
-0.0214107604856122
-0.00855900839109154
0.0444846256080359
-0.0942436354630792
-0.0853331040866134
-0.0662951854560718
-0.0621127352388219
-0.0222962111425785
-0.007918636134433
-0.0743349243110159
-0.0682122473233749
0.0762483186492426
-0.0389647760837296
-0.0195339674173107
0.0266217361576626
-0.0555552169765031
-0.0302521737941607
0.0314527971831233
0.00772654108734452
-0.0421108049879648
2.6837270000
