3024
-0.110583149860962
-0.0166553220675745
-0.165735435059304
-0.1763473346002
-0.075882515960335
-0.0480253584196381
-0.10091438407384
-0.0387034636285812
0.179186200213373
-0.0841553458758291
0.0803350399149875
-0.0742024028002479
-0.0588652864791753
0.0198780398185392
-0.051597024750114
-0.112292627415569
-0.0816526821846318
-0.0490141261923166
-0.0233979142757858
0.0271225389778402
-0.0572480614877037
-0.0520500523094203
-0.0417626141842313
0.101486841316489
0.0270593076191058
0.0969749127071589
0.146720751724951
0.0700065331025212
0.1894250240846
-0.0404762134769806
-0.0452134442026973
0.0505922222510829
0.052961922739381
0.0421392447229858
0.0669488946950585
0.108627404292904
-0.131545532027651
0.0811554097973828
-0.0585179741574667
-0.00837439512137491
0.0696602714137674
-0.0130882190110896
-0.0874938210239402
-0.0950205764400106
-0.111396823012964
-0.0716196045082546
-0.0934234394543752
-0.0751941140961063
-0.0309778359415159
-0.0685319821871176
-0.0884708441022092
-0.0523423389190079
-0.0370105709518654
-0.0340615946567393
0.0517640055689856
0.20205857293867
-0.0102281714066429
0.0148143618919686
0.130465770470705
0.12080355337535
0.0896298709613429
0.0701744445028222
0.109563540332722
-0.0750904786537611
-0.02730329410221
-0.0537857579345586
-0.0126671339442307
0.0437367074280495
0.0340199269607308
-0.00398010303097543
0.0367822568229358
-0.0147740567334189
-0.103598244811151
-0.0346540511766049
-0.0914581720235745
-0.0868449933552834
-0.0908505061793163
0.0476686309188427
-0.0174066913231298
0.0326968624576858
0.0269014690070016
0.023827532293776
0.132132338055511
-0.0764207849318044
-0.087543163358849
-0.00720488197419307
-0.00343879401055811
0.00149894134525305
0.0319852682026444
0.0493563126565383
0.0260601884795858
0.248323844967557
0.0765721939367923
0.0524648177433592
0.0867812196361283
0.205612262289694
0.0452116685683097
0.0173833633622597
-0.0759379885664519
0.0723793803782216
0.126439509362649
0.0390435236914542
0.000812627409418697
0.046412395632655
0.02418424564442
-0.0108271457440058
0.0766419987566701
0.126645198044513
-0.0295387376459263
0.116154863815897
-0.0609644882110795
-0.0485214996294841
0.0384123088710715
0.0366934798638762
0.0287098477929365
0.0270493670919591
-0.00341470884650951
-0.0948425332118881
-0.0640132246170889
-0.0893398702464616
-0.0662005526489918
-0.0207733156635508
-0.0235468114998925
-0.0338017056878216
0.0184458559854406
-0.0522472022818023
0.0437075333179722
0.135460245669403
0.0733175881820121
0.0411932897192194
0.117960257403077
0.0911160854189909
0.0220700813897058
0.0800833079489441
0.123128491970314
-0.0315753142591963
-0.00987860886939373
-0.0861997920034809
0.0447786905021578
0.113427176080648
0.0474451587742507
-0.0338664917279215
0.0189244180039506
0.0678839795350464
-0.0559499423299872
0.15337316693056
0.00452458269218954
-0.0305063072154004
-0.00318695735903436
0.130535627238332
-0.018438694227945
-0.0530293962593884
-0.204313133723746
0.0113429911278046
0.0804733629675936
-0.00795144413278255
-0.0692210532494971
-0.0535223654162637
-0.0701522999524221
-0.0807712872656184
0.0260545876256854
0.0476581810748804
0.0459645260236495
0.219789059863671
0.106244783956903
0.0126801328173001
-0.0921405070820718
-0.0502656101246247
0.00644664975614953
0.0857435644322925
-0.0124844415485616
0.0625508016890172
0.118862043307518
0.00810090621351608
-0.00455158710708083
0.0636069962805641
0.0229847080072353
-0.0121914550546189
0.0926608105326933
0.0660042353601888
-0.0346053101755741
0.0611652937513877
0.012672937794263
-0.0431701976365745
-0.00510432551999556
-0.0271933802462837
-0.0621414514418145
0.0210856565177377
0.00354835127960557
-0.0783276804558243
-0.0584696210480137
-0.11421437190526
-0.00898546987734019
0.0317263448848302
-0.0342382703228788
-0.0910462215069655
-0.0209778159541587
0.00578956846270835
0.0178133365534857
0.09081965351271
0.0183024787411189
0.0222358104784456
0.105222125675545
0.0579663516229991
0.0134080520987562
0.122984065535477
0.0597537447254686
0.0274839264863003
-0.0354476997227543
-0.135859942729749
0.00120557797468997
0.162659369603612
0.0620653905971789
-0.0583894500456304
0.0587414582555446
0.0983893523350521
-0.00279889065874133
0.189756314428835
0.0736877729535562
-0.0389006120322155
-0.164353978170084
-0.115133694103367
-0.0388263567784331
0.0420975332392433
-0.0775844203983653
0.00323445843949289
0.0818694266357411
-0.00624818312527204
-0.0354708019752152
-0.0126837434928705
-0.0621966667602092
-0.0749135413845797
0.0461841126546284
-0.00877956580056264
0.0232213835297912
0.105161673213922
-0.0540759033472318
-0.126232245847957
-0.123734239102755
-0.0684648303966102
-0.0131405068618424
0.0610453282596901
0.0556553255638879
0.0646137385115791
0.320152883445711
0.000172668820467135
-0.0767104959913522
0.0311406994060689
0.0344771807542882
0.0207970851208533
0.0588508451057597
0.062361692637718
-0.055748592586135
0.0183970428080789
-0.0177818348953485
-0.0294229297167463
0.0256103113640569
-0.0186030766945411
-0.0591403945443902
0.0500483818174712
-0.0326541900240089
0.00141178239920181
-0.0556239450441739
-0.144329910286504
-0.0298186474887261
0.095401687093509
-0.00701935383215684
-0.105832736784579
0.0296717730241354
0.0753562195422029
0.00754987362886851
0.262804953494644
0.00878927878185871
-0.0474591444587769
0.0693059703613709
0.0769321161282923
0.0442478893412286
0.0720323337560157
0.050964763936597
-0.0396892897880079
-0.0937403440981819
-0.160610878129197
-0.0564682545689271
0.108550063793839
0.10128532375401
0.000570034269318644
0.0649728339380701
0.0293467350879593
-0.0173936518347181
0.0755489805248895
-0.079936412175746
-0.15567508085508
-0.170537852376728
-0.12652777915129
-0.0700893313755306
-0.00981331242671628
-0.00530090488229162
0.00428221965904933
0.27047455782273
-0.0163411918854482
-0.0964154305624132
-0.0246038194072109
-0.0384049148944274
-0.0553418308124777
-0.0127386321669828
-0.00536371426312646
-0.16858204023798
0.162431130313532
0.189957504695998
0.126865856372321
-0.0293809663141767
-0.105480956336558
-0.099313481093741
-0.0284165868190543
-0.136058215634325
0.0285109921096869
0.351094297324491
0.172968023821616
0.0112215622495057
0.0366394896882786
-0.00529452662419718
-0.00183201759874131
0.00634867443120071
0.0715918898540046
-0.0595617837603975
0.173205617497834
-0.0591296566584127
-0.106393260942259
-0.0331840914230128
-0.032780843526683
-0.0531094149967293
-0.017848985643353
-0.0279464044036594
-0.0666889930324108
-0.114333755584974
-0.191852689988782
-0.102118271369594
0.0164967396474193
0.0157133332074952
-0.0604502337324918
0.0181476564973103
0.00870074021593959
-0.011519159087613
0.270926026481236
0.120212752727039
-0.00222303730920204
0.0407591489013276
0.00978182497506482
0.00021992712992963
-0.00237357972952058
0.0460519943943286
-0.0509940835913462
-0.00743054074237584
-0.0759706372079658
-0.0553339380867261
0.0766566651211165
0.0754490861581625
0.0695179137884399
0.0973521822600679
0.0610548174063865
-0.167755870263012
0.144577278940421
0.15763894846399
0.100083245753735
-0.0295480713926998
-0.106555929187754
-0.128218290517781
-0.0808238627931235
-0.18227091168837
-0.0161911672378838
0.26389860307296
0.100636894333571
-0.0279991062787973
0.012770824741413
-0.0384054855029564
-0.0586164699314327
-0.065003724814399
-0.0165660173451982
-0.0771559018772748
0.0936601338682033
0.248876106819513
0.343100326443568
0.13923048598277
-0.0214695698920056
0.0136571535189645
0.231839149274842
0.176578707739376
-0.032971056314375
0.00124069240938927
0.0313137852516794
0.0094767654133851
0.0581185562384803
0.0357014579469662
0.0180329412966641
0.0599808840855153
0.0602941217415173
-0.0511797723728129
0.20057115160492
0.0352676606994206
-0.0504819032182057
-0.0106732617263346
-0.0579197581965374
-0.0772402339393162
-0.0785043325716467
-0.0394355625600999
-0.0597407628234378
-0.0178994513783507
-0.0940687236668848
-0.0773102950458804
0.0219952538301786
0.0332035095481956
0.0399985288487787
0.0688462381443127
0.0327068220893031
-0.0555701401429337
-0.0387029540110584
0.00532104660551799
0.00664652796223782
0.0555319345862996
0.0282228043563977
0.00752017990579284
0.0626036336900648
0.0627371692897201
0.0683150848024228
0.095412344249132
0.0100714405701493
-0.000649877179844029
0.0874380314333797
0.0965144324418753
0.130089300530563
0.125492993457681
0.109615143172348
-0.0716354950556085
0.0577380484212075
0.171933740994498
0.305653680541268
0.135074390230284
-0.0162758934497186
0.0134133592185823
0.226322742789611
0.181961340284822
-0.0167242172828531
-0.0101605752734095
-0.0229454275048067
-0.014770366000319
0.0513284391395002
0.0358572878429087
0.0171853219272179
0.059040598979751
0.0832415855316046
0.147049698064109
0.264950193054128
0.186477914000185
0.11687526048752
0.0588471967444039
-0.0109483485588774
-0.0323691205351661
0.052583832900691
0.150491906475695
0.0727454559953985
-0.0628380560300317
-0.059559930518814
-0.0118531440868527
0.127364204202598
0.0939285029155
0.00727347480343178
-0.0373585027438203
-0.00787945439524074
-0.0601562380320084
-0.0631635653950696
-0.0916522249568967
-0.0428874181138586
0.0328572516367388
0.0207593909227879
-0.00192870144803761
0.0496311815151807
0.0732793936608621
0.0599540182726794
0.116202003258423
-0.00426088693659789
-0.00335447720971339
0.0789603711094265
0.098521098937435
0.132777998298113
0.123508169102107
0.131846208116244
0.065704201349496
-0.0448137165939954
-0.0589710964770065
-0.00507490651697212
0.130019228291672
0.0898765346626642
-0.0044675045366437
-0.0524278809974611
0.0145685866608278
0.0854823428351356
0.0535720316735504
-0.0336926871308184
0.053586335161612
0.141010069508075
0.116481117275446
0.0451191844637528
0.0940611756646754
0.0912175876845789
0.15059267024858
0.269951523140228
0.109974993612195
0.0215975895120602
-0.0150416272167427
-0.0530660776472141
-0.0284681276230251
0.066591723457619
0.204211525525117
0.091976038358197
-0.00319103031843935
-0.0545337117971961
-0.012233340420205
0.0781793880971837
0.0596306368269619
0.0278002099199001
-0.00673231400762288
0.0703170351788898
0.065797495695834
-0.0266664992312672
0.052346650372149
0.147231306242197
0.139076547596936
0.0128743683148448
-0.0773383743643264
-0.159545029025356
-0.0420348813456993
0.129353683162249
0.0435533821820627
-0.0375091999234905
0.0327125934074795
0.125630561456201
0.124547657795268
0.0447090336251494
-0.0131129457551442
0.107404405272243
0.0548778650580796
-0.0201180988882551
-0.103586021888711
-0.055675929782899
0.0450011592648037
0.0300272422168971
-0.0028748758238592
-0.0421920419429444
0.055294564524271
0.0581350213216628
0.0730305530036562
-0.0414204196494034
0.0479614592594449
0.0825423215769773
0.0649384693559819
0.0419888752181585
0.0842598585609101
0.110736791757245
0.0893087331672669
0.0405686151687857
-0.0524024047790605
0.0213412843814289
0.0892590794626514
0.0907277852514385
0.0194410241702819
-0.0404414227156133
0.112949467694624
0.0922095217363668
0.0150639461132665
-0.0816738460740402
0.0265045689122887
0.145378264866659
0.0734415891935756
-0.0156558864925297
-0.0633201805079264
0.135291706071797
0.025451711394217
0.0048773012917919
0.0543538852950283
0.164114792401398
0.0693049321630835
-0.0653421564869834
-0.0859622780379183
-0.17099128045001
-0.029711306929488
0.103440104181795
0.106830887581271
-0.0256458250234411
0.0498949949315295
0.0396132177291066
0.0583164204999968
0.0470511892283933
-0.0180795585539505
0.169733040531422
0.0780646867462201
-0.018447304862451
-0.0836626397135806
0.0393427923094827
0.0450100591253194
-0.0108418595307554
-0.0433002633028127
-0.0541484425640538
0.0480292372418174
0.116173156103745
0.0775589879825329
-0.081275682742514
0.0708416740299629
0.158842689609966
0.0973997069279458
-0.0106213005039268
-0.121002187895142
0.1206796789479
0.0524981266313204
0.0612305025755502
-0.0729967964437281
-0.000929000464389464
-0.00895209367225849
0.0175609007755184
0.00426736811354546
-0.0630942072290762
0.133339014654255
0.0520212216158929
0.0377394131024225
-0.0908193081098131
0.0313300582136608
0.0781768727380447
0.0177275106256089
-0.0327259892964541
-0.0800026447584713
0.151620710548481
0.0623031357907067
0.0559966064874755
-0.092273422264307
0.0568276779263348
0.137516630191622
0.0642777190447493
-0.0349139362696022
-0.145378704881928
0.0905336749426262
0.163329749612241
-0.00327112966216625
-0.17233855526832
0.0280094021916791
0.138738264384802
-0.00916993814685793
-0.0753479450608283
-0.036784494061431
0.108916605089692
0.115385385158347
0.35048132533827
0.191966500857133
0.067988773808246
-0.154541832435626
-0.121875447667581
0.000224669309949886
0.0904723213178796
0.00302276984297104
0.110819464458253
0.267893824851868
0.0530460061629353
-0.0768914433785948
-0.0683456192547001
-0.0141722884171223
0.0633718208561027
0.139514259211725
0.153886144885981
-0.301234910183422
-0.181742680900869
-0.0564931564141751
-0.00507427148131611
0.00221385823158197
0.04745713230003
0.0393856871117198
-0.0119527120320279
-0.386520329425555
-0.0280515626847084
0.039930775782991
-0.0581471655894389
-0.0564328626498179
-0.0803014490537109
-0.0551190132159158
-0.0460169111426271
0.0238758858438045
-0.0318821209186465
0.0739600903759272
0.232628083269916
0.0409292060152085
-0.0916059473467255
-0.0957744139560494
-0.0613548406175923
0.014375674588402
0.0856633265706824
0.103943200906358
-0.136604009463583
0.231918385577158
0.301909511658757
0.253142710110036
0.0869255230190596
0.00365197197023346
-0.0156556421038361
0.0361595282996362
-0.0716200195018621
-0.0498266154449911
0.00371877282981515
-0.0883167225925196
-0.0941033424539134
-0.124377248642587
-0.101319955738959
-0.0881509350981882
-0.022063831120408
-0.0704613505310488
-0.216451670178758
-0.0283852119322491
0.13404428949295
0.158072209652626
0.0565017185123091
0.0564554566470737
0.0719115809853343
0.131631089968471
-0.138951684557215
-0.207895632382141
0.115429665743538
0.162442884059583
0.0953512322428007
-0.0231178942124299
-0.100739788474387
-0.14394062715217
-0.103296932449541
-0.220140211175018
-0.0755586030204212
0.046492467112024
0.249463247686888
0.375474564385894
0.192337766267761
0.0185851033708733
0.0347813957006682
0.226930277661583
0.16946769559944
-0.280188206374625
-0.131028933054274
0.0321997136849254
0.0274500146123372
-0.0679928373502717
-0.0711424775563424
-0.0612997467058892
0.00162012061808309
-0.270773149106277
-0.0368064299712807
0.232285167307349
0.255657733338847
0.266920180210126
0.168442776631835
0.225489364695913
0.295543123844963
0.264235771718079
0.0967759973739867
-0.124457750991352
-0.038108065374496
0.121968171226493
0.244381112032528
0.0877410231734965
-0.0641156338804667
-0.0532912313218583
0.123255225637227
0.0650148911093415
0.0900882336281644
0.172901108342081
0.0885299481562704
0.0056345523092842
-0.0263761357603515
-0.0519758196808064
-0.0680363298220133
-0.0174012899031696
0.0569884296874571
-0.0969958367093496
0.143711518424907
0.157236892275677
0.151722917188905
0.0321981331706671
0.0911413067109401
0.180141324159526
0.171627238227922
0.0116487174516472
-0.0171132473299497
0.184290801151004
0.218427574757146
0.228904992334465
0.112345197367801
0.128311718637541
0.208070170572591
0.195765256438545
0.072175764840669
0.152078879394296
0.254790486954421
0.118940019127769
0.00747757539200563
-0.0502206805863457
-0.0712323772152245
-0.0657630160692711
0.0105126394488288
0.152179209605563
0.0559315429712513
-0.099028116138416
-0.0322128530032597
0.0591382321987442
0.0841047093476923
-0.0142910626045931
-0.0947659591163692
-0.165121185921498
-0.0912047033220579
0.0391177956256531
0.261013467710617
0.241438227427136
0.222574868609377
0.0890139870497592
0.119325246947689
0.238129043942732
0.251504293425238
0.174684553705744
0.0918545564682996
-0.128195249325653
-0.075355294577111
0.181091595338399
0.222266213848336
0.196387177881762
0.109274807133983
-0.106350505744126
-0.0433728890010953
0.0707812367227165
0.00483858637224038
0.0482639354587996
0.165543857143363
0.0870875012824249
-0.0379366159144668
-0.0729467875145643
-0.154052270373994
-0.0147413520370926
0.0739538629624593
-0.0187690826614513
-0.0824910311741815
0.0421486129538874
0.0702633061285722
0.00268321732205448
-0.0414851590439175
-0.0612826233170783
0.0360300398652239
0.0948930151120856
-0.0803863320459959
-0.0719323057640344
0.282360525618454
0.277452120999765
0.270665656655424
0.230545016938892
-0.0502074605132295
0.0445400477961976
0.236409333176509
0.0602361137437072
-0.165476197570484
-0.0810198226432749
-0.0197371904121439
-0.0289501774568218
-0.0899839178268513
-0.112034471249142
0.19162504326324
-0.277483167417699
-0.157157173479744
-0.0175123699379379
0.0237835392652772
0.0219608486684884
0.044033464490171
0.0235115175619004
-0.0343893462428285
-0.419264467134245
-0.00242588554309065
0.0468130365193144
-0.0371038500969804
-0.0530643268656279
-0.0800275428765067
-0.0504459247549165
-0.0446052662975165
0.00646366615062538
-0.0623895790267203
0.0121224813334381
0.133583199608022
0.104914195785918
0.11591276289934
-0.0150891938027473
-0.043642118362548
0.0363866706658645
0.271563833629845
0.247953110123247
0.0667799215617851
0.18980030901334
0.0886046259108994
0.0836081384408266
-0.0282612172332084
-0.0723140916920587
-0.0771325547796585
0.139474594758381
0.235605785388093
-0.0465312702693505
-0.00716622176173541
-0.0855127823640355
-0.0996852212211587
-0.128195484317149
-0.10073134962799
-0.0884849195233249
-0.0289648712074575
-0.0991226239540147
-0.212471116849775
-0.0429085265147502
0.115462073155159
0.149368603443672
0.0610857683782715
0.0686416309545581
0.101264606011885
0.152020290896874
-0.150475148892694
0.0139343389437557
0.121316603096106
0.0304656278125914
0.0406871847540829
-0.0619365951383741
-0.0917525644899436
-0.0941834454012059
0.109745645258204
0.181373498891761
-0.121443735610837
0.00438868563713662
0.0686519634878327
0.00361633954137995
-0.0648521459070315
0.10557419324919
0.287198276071679
0.440656406120678
0.193915585332359
-0.285019301662453
-0.145338668987516
0.0142604835691191
0.0233224586727778
-0.0696847310684703
-0.0686478171396399
-0.0481977145330349
0.016131371149725
-0.269918395527276
-0.0499658707842245
0.198065954176056
0.215399420305794
0.246347897520708
0.165726351799354
0.226384524787553
0.310254845878362
0.275143648443592
0.0863526451303942
-0.203815510947575
-0.127487333557081
-0.0503408457645644
-0.108325687820872
-0.168804377606515
-0.0211553777527109
0.124731923091126
0.272446861704191
0.0433240010005794
0.0396598647742769
0.271888576740006
0.205781208225254
0.00945079815083931
-0.0153074742083433
0.209289413377901
0.351426986522755
0.22524418503638
-0.002677149925785
-0.0967627395212227
0.141138278060672
0.163523286588653
0.165413174753867
0.04588105676892
0.103617496066699
0.181945152736373
0.164559630802805
0.00543260918412553
-0.0205561306352423
0.159912500923225
0.185354498984247
0.211620175225625
0.116536014284491
0.140731001592697
0.228009966234232
0.219692217968249
0.0987427124096766
-0.0147028855253069
0.182397995982398
0.116804240741581
-0.0566781890268019
-0.0868916821436791
0.11037968575534
0.229140563964705
0.114944394228397
-0.0751773509622668
0.0538008734393289
-0.00289566962662974
-0.0531434754412304
-0.116732469558227
-0.0409261851961252
0.0271918557905712
0.0837278077780867
0.117581789159922
0.169743811118964
0.0339350341492065
0.246924839097739
0.241852923461255
0.237820840546952
0.0967046936076896
0.117517302338805
0.223421124608075
0.245269155190738
0.187542122673833
0.0989275624826409
-0.118533521741616
-0.0779216765797948
0.170381652829274
0.216078663977578
0.206487591813786
0.123762335903052
-0.0888392269790248
-0.0145231689509922
0.11463924497424
0.0688204423238666
-0.0267743318422791
-0.102100371347321
-0.054228366876841
0.0246286575206161
0.107950943124553
0.172304371785272
0.288885696652021
0.0582927439177291
-0.0839755845573003
-0.173708716486012
-0.113742471331938
0.0149190518382069
0.0375281836281363
0.0338829329698406
-0.0572146981366579
-0.0876847074316875
0.101421678399381
-0.0488151993743663
-0.0201601293187517
0.311382299561389
0.281597787923134
0.253786020484579
0.193995413562756
-0.0739916049827109
0.0482542613756425
0.239438216032418
0.0763580657875969
-0.148259010426684
-0.0673731706903906
-0.014839335534229
-0.0190148540439664
-0.0851356365546682
-0.111838136973113
0.198587457126986
0.066900949781344
-0.010090926414062
-0.159537114556996
-0.0753896665630534
0.00346480075499593
0.0745960067495864
0.124601194298096
0.0157328485691245
0.0344368150506023
0.0416842198328373
0.020916400445404
-0.0843085136280814
0.0191367753030017
0.0600999714692746
0.0569423297875462
-0.00202349098844448
-0.0526189724707263
-0.00271281149202566
-0.0464142525098435
0.0675635782494719
0.0286205807681582
0.0436233742922803
-0.081728099360031
-0.122013104375548
-0.0649660347693592
0.158255251658911
0.128584583693475
0.0109171318069191
0.131699247842401
0.0237553852427657
0.00935113109265024
-0.0859633715594479
-0.142410473240947
-0.171772382052069
0.0181000597003732
0.0850108953235787
-0.0125634475398239
0.0578505532749756
-0.0534012780877092
-0.0744026256387819
-0.0295286095384894
-0.00246124722078689
-0.0237478411906727
0.0466807981753767
0.0139697906871343
0.0519466844822017
0.131156603257254
0.0429655257835505
0.0404199007325499
0.0746445189621244
0.00454430113540512
-0.0771856209038593
0.127684483277615
0.260376907566298
-0.0435872847379021
0.0696180081480448
-0.0311029312086208
-0.0342137068410079
-0.129647643225958
-0.178203960723079
-0.19549756114541
-0.00409174681341113
0.049338871872444
-0.154125581281498
-0.0485160610926022
0.0080914595556826
-0.070091177738867
-0.149502551385682
-0.00783223097873465
0.155368470477187
0.317384496871329
0.0904981750169483
0.00381276210543636
0.0806540431011622
-0.00896546485854771
-0.0021819263734425
0.0358938487661569
-0.0175473748002338
-0.0863575843801117
0.11060871052225
0.218292969395498
0.0316667333661707
0.0376634369610449
0.0168088847484068
0.0236035502672833
0.0308702854901233
0.0275735402981202
-0.00496511633534109
0.255555397067323
0.244584154203983
-0.177646595295729
-0.0983799838926504
-0.0374199157695597
-0.102209266728219
-0.166607617713182
-0.0273114448037367
0.116248465582478
0.269697544131431
0.0668630169670947
0.0415132121561499
0.274371004222617
0.202040486514038
0.00330738400096316
-0.011338744954426
0.212680340064218
0.348212091311984
0.204398119526704
-0.0328696732662206
3.75028108217034e-005
-0.0150599100683613
-0.038590213020354
-0.0141477240760637
0.0115556593065432
0.012835751813785
-0.0366600906697926
0.211046402846709
0.189090410857007
0.0267019896066945
0.0404631385442258
0.0505175001461323
0.0452117745035981
0.0607316531543664
0.0455699488071687
0.00545980409949954
0.0122836095604057
-0.03577013244134
0.0463150521558253
0.277053398382878
0.18864438024172
0.00747323930244628
-0.0114755992620814
0.192485439165003
0.291133400087025
0.122855216944875
-0.0649706334688316
0.12948777483363
0.0765430707692198
0.000705268109723853
-0.0695461720757217
0.0322338252770473
0.11433056668465
0.172467252117269
0.19961194913581
0.272287130857641
0.0402200009808743
0.0565070505309405
0.0499576118019577
0.0586467606734907
0.0643857118065912
0.0416066689407204
-0.0120688814140095
-0.0115760839164679
-0.0270189975773711
0.100247848315675
-0.0255001791482818
-0.0453225773041638
0.0157255379085178
0.0931776016784814
0.052743208619211
-0.0406298110905334
-0.0797576997066015
0.0169190999249867
0.130095395390541
0.117881858978708
0.0041745205534847
-0.0726197205726988
-0.0205290643309551
0.0539870550377586
0.109419292796229
0.162857483719295
0.299034766154313
0.0793403621762842
-0.0391969711754743
-0.160061603738307
-0.077047527348505
0.0669941498869028
0.104135247229213
0.105212319634338
-0.00612458868412445
-0.0343254041579901
0.104978107960984
0.0324236445700655
-0.0164251092243237
0.048995886714784
0.0712451668425359
0.0427175918206252
-0.0228229204197723
-0.0536409422511912
0.104803787545918
0.101829478785658
0.00661110388584353
-0.0192288722634064
0.0676123120274916
0.138483846044123
0.0427855178691035
-0.00676475159888467
-0.0228086401608783
0.0866535141035946
0.0350799935501478
-0.0104756074415043
-0.15770159527669
-0.0606876958706558
0.00498500150220596
0.0678223501859823
0.1245335634143
-0.0149661913145633
-0.0246974731807139
0.0805824006920115
0.0670709327317751
-0.076772435561807
0.0261010335324453
0.0474988308948021
0.0540775239517424
0.00933262589514158
-0.0340291393093215
0.0427838232928313
0.0843884238354202
0.0576516970476765
0.00205500421025619
0.110406502218401
0.111532238641347
0.0258802466156821
0.0190762566005767
0.00277776656243287
0.155716280575077
0.0798466930511274
0.0286702134115817
-0.114073127329432
0.0673728522377399
0.0944339275456328
0.113361706669488
0.0225806956618761
-0.0281267039446277
0.0888034759499377
-0.0920615215144985
0.0355517012953324
-0.0439849740698748
-0.0546548654415593
-0.00121268962432685
0.0192128336529939
-0.0275510799252869
0.0131274198198957
-0.107455201284515
-0.0123321176445413
0.128541482975187
0.0672133925791054
0.0773045525499289
0.125655269935003
0.0425723430033035
-0.0670684359422298
0.104241577136005
0.115536833172268
0.0246075631161859
0.0590358669385414
-0.0648847006824081
-0.110182175548189
0.0529222329785575
0.0888150488225511
-0.0663535821652973
-0.0801735168603867
-0.032146419770037
0.00669591084608339
0.0891661937111999
-0.00299389963217184
-0.00320911465084227
0.175961881601676
0.136859998965051
-0.0647482428386673
-0.145261647925681
-0.118518612766514
-0.0829389063231631
0.0499723456008907
-0.0268839115664743
-0.0210167353112507
0.00881131093829275
-0.0561141898696247
-0.132045232343811
0.0308092327786703
0.0331979149931498
-0.0137295931527876
0.0300705000179411
0.0074728413895647
0.025963359508255
0.0323995621088927
0.0195450340477797
-0.0320409422778432
0.195159970786565
0.127261686264864
-0.0117047841100035
0.0745544779162678
-0.0631299068514631
-0.0588233822654664
0.0820358242420532
0.0579660733893197
-0.091386157437436
-0.154217048488345
-0.118816169601734
-0.0266385588589035
0.154028024778998
0.0536435882616967
0.0739943075933524
0.0916573981683271
0.0309795162481149
-0.0790897486137572
-0.0236436646271377
-0.0607379969909085
-0.0607749795062108
-0.0278797069675136
-0.0657095396814965
-0.046569431111865
-0.0410142772744259
-0.03657719444289
-0.0907255973868928
0.122428502345075
0.0636721676289758
-0.00436008807452914
0.0601176013153299
0.0428114472935959
0.03844356257933
0.0329191929120464
0.0316180207375253
-0.000819376235742691
-0.0199019531333989
-0.0864711644364346
-0.0360535773076708
0.163061754737756
0.0311022218142487
0.0488706688983248
0.0410146640352585
-0.0127293644863619
-0.0948983505242093
-0.0345646240293896
-0.0494529047364056
0.0426420909450008
0.114613511860766
0.0686603726522198
0.131916081923317
0.105138867740264
0.0240793899765739
-0.0351468418129584
0.0203295853886103
0.079436911594439
-0.0198294128239569
0.0681082349790418
0.0363635880226949
0.044698012460467
0.0195519157530918
0.005915156911173
-0.0398604983312111
-0.0736506174084013
-0.112099421632819
0.066704109847019
-0.00620371913796115
-0.0654517975567001
0.0152200673463629
0.0630734785359979
0.0313377975429678
-0.0496020752953938
-0.0944206158438005
0.025898758991546
0.0417740396736481
0.155366017058487
0.0710687444860794
0.143763639287756
0.100035652760153
0.0247809269857024
-0.0342007985767234
0.0226393794776509
0.124002018574758
0.0426314313225826
0.0935958565588586
0.0475284731903968
0.0727895719811855
0.129190502572172
0.0933601839167595
0.0190204954895892
-0.0553637481020594
0.057614665884349
0.0522475661105213
0.0400921577858498
-0.0504424522552315
0.0271368216577494
0.0184633616968043
-0.00930594803610799
-0.0653512841207328
-0.096704801595082
0.0681595744869845
0.0768817613251253
0.0218752126797074
-0.0508897396566153
0.0460027702208171
0.0787272413086005
-0.00268841097637697
-0.0125575976826626
-0.0293329391549748
0.0922872694378154
0.0373367250653755
0.126033518919337
0.0535659443931693
0.0863577225050843
0.104597566284047
0.0923741538154433
0.0476550817724679
-0.0278351062262902
0.111071224418339
0.119602670770753
0.0267817378674036
-0.0845856435469875
0.0161092567532151
0.0730327429609998
0.0841640215162507
-0.00930286286127167
-0.0784740063773587
0.0588783277420837
0.04495723113582
0.0403920160186784
-0.054521952817116
0.0545324891321508
0.032745855051025
-0.0509768480966064
-0.0256040222162775
-0.036464384323879
0.111864868190866
0.0684666977848843
0.0332794066745138
-0.142446469443392
0.0497786533077088
0.0539088402545146
0.0813165703786388
0.0181114598883084
-0.0306850683156586
0.0818824809120243
0.11184237538249
0.0548519631191476
-0.0764247237907925
0.0298026929711266
0.0427057269408482
0.0686847889904421
0.0084822572196908
-0.0691111846392509
0.0884995133232919
0.0881891274740489
0.0147336435130937
-0.0896548136691648
-0.0256765418399687
0.0158336427289783
0.119557482752673
0.0136892946533621
-0.082498920812866
0.0985829392610543
-0.0581674832081568
0.0498410125907829
0.0323697688705858
0.0419658732938115
-0.0731733054387417
-0.104724370663751
-0.0185383782098771
0.162582803489893
0.134937273673071
0.0259802591709706
0.109425939570368
-0.0128643200666975
0.0012454351988108
0.0433957521422873
0.0648982189620207
0.0049888812835358
0.0691312301536883
0.0865272584837866
-0.189216762898769
-0.102127743861266
-0.0909752091720934
0.0118313970012958
0.115472472394399
-0.0255564292350311
-0.0941840186923402
0.116438252601792
0.0609940873631755
0.0297024656623505
0.0425925127550312
0.0173591548823406
-0.0811787488536752
-0.0731163424452461
-0.0778736737896987
-0.053426472792893
0.0188785051397728
0.0740257180721842
-0.0315781409090887
0.109971770208284
0.0372788838745783
0.0475944769454102
0.101549057633586
0.116556939040033
0.0353454419441309
0.0777416534800941
0.0323100095218643
0.0465697941863583
0.0800425288850621
-0.0140666409753524
-0.0499337367971552
0.128023891563671
0.140791165587407
-0.0622613753476578
-0.0819383830502995
0.00378745306764327
-0.032884148399407
0.0102150751406881
0.0122447844184975
-0.0694990689013327
-0.0468868888021619
-0.0586472576897545
-0.0364165118908156
0.0429828131677057
0.0266726107163907
-0.0247731908283836
0.00777213012348067
-0.0853953687019754
-0.0812148956559967
-0.0337212887012556
-0.00341618928137779
-0.046810633768549
-0.0751216065083917
-0.145764894904183
-0.111389280999089
-0.00825891871066713
-0.0230911944668635
0.0704262598419574
0.167008790003007
0.0353385085037991
-0.0290904671733898
0.183519730604955
0.176110408835231
0.0787400850477356
0.106128302576146
0.0680758221826057
-0.0179960017757345
-0.0010924119659544
-0.0229493083400237
-0.0250156312892058
0.0488951217457771
0.140097281185298
0.00532297582327534
0.142617957793925
-0.052919748633531
0.0134095891976977
0.0658907245577746
-0.0775562260773486
-0.104865488404418
0.0063481076536417
-0.106063817807398
0.0165085993742447
0.0818174777605458
0.0182700775924924
0.0186225816289309
0.021385034750759
-0.00592749320328971
-0.0889155338405464
-0.058180567890546
0.0857043387642614
0.0506310674433629
0.0959594365810522
0.0808184738415499
0.021232691200294
0.0737948891881512
0.0439789952775455
0.0262656833429284
0.101507499496136
0.134506863713072
0.0198389049045576
0.0522314448707518
-0.0488259309554419
-0.0296321346187096
0.0408882471980695
0.0644678796336738
-0.012207699411253
-0.0536929361069852
-0.0807952310073752
-0.0484759750743843
0.053417544300098
0.026422062126154
0.0541854134797459
0.0715994284354622
0.0524421976146018
-0.0432502677087949
-0.0368719043201595
0.0428833183951118
-0.069840038863581
0.0313161858289997
0.0143891201433077
-0.0183811949100155
-0.0799497713320105
-0.0399560761812833
-0.0376319755795584
-0.0281309904835798
-0.0801803488032114
0.0651399493298126
0.2508004930707
0.0048531753372572
0.0512677140605136
0.0944542926130056
-0.0613482211916165
-0.0896183200898699
0.035161201248216
-0.0522217571296944
0.0492143437024445
0.127320096274219
0.0456508100073733
0.0492151732910036
0.0754084142690899
0.0319818448142015
-0.0713859666893818
-0.0327130937026266
0.148519740525501
0.0363072729086546
0.19258360464395
-0.117717382166405
-0.0395895224539449
-0.0602544817596783
-0.0965337195916358
-0.147579528222043
0.0249391536976389
-0.0224422536218836
-0.0738069242386618
0.0200413646354798
-0.106170790157342
-0.0895665233423159
-0.0196811312177487
-0.0344362219858517
-0.096174630492529
-0.0594987133842877
0.0260162919817871
0.0293073190757432
0.134578732309009
0.0690516445369656
0.107656905237675
0.15771673905377
0.117865250489266
-0.0104326063667381
-0.00479359333773963
0.153306736001958
-0.0535309727086516
0.0516014162618963
0.0213455930703245
-0.00425060850692434
-0.0308251994849864
0.0028126042018421
-0.0187048930812059
-0.0223595026602073
-0.054741674040171
-0.135231011493395
-0.0060707424936362
-0.0893410335549897
-0.0285178890515632
0.0369372605749133
0.0314445708905032
-0.0242900134266841
-0.0219402364197932
0.000573908482578868
-0.0521355726508404
0.0544506857080651
-0.0389809974909398
-0.0550479617579259
-0.0853800544361981
-0.0272288712890411
-0.0341061624011363
-0.083676392231458
-0.10414780439319
0.0962290393359025
0.254267833365808
-0.0893967069048759
-0.00178299026894219
-0.0196510268634073
-0.0672644479745092
-0.118753231849397
0.0540404377135909
0.0422333002147435
-0.0455149626691104
0.0428931419214407
-0.0771878885704043
-0.0480485695671466
0.0346398782594063
0.0211648290561043
-0.0535609654352597
-0.0355463531854441
0.0742256718926042
-0.0064598926536519
0.131725337369946
-0.110682764010671
-0.0508190095058977
-0.0593995792948111
-0.0936925617465072
-0.103189963843795
0.120552167196681
0.0547538824732625
-0.10821536298554
0.0175316421010794
-0.121121538727623
-0.0358838793304219
-0.0305807101282026
-0.104354268911258
-0.121572034445579
-0.0344129231996996
0.0202286034467146
-0.0739782489035066
0.0297111041446227
-0.0750360990603495
0.0147736855010076
0.0994021518868565
0.0935513003031915
0.00718192432981684
0.0009193186732563
0.0755040011376768
-0.000684782072992554
0.087776083344878
-0.00627783024753515
-0.0148701156808167
-0.0327733718191703
0.0291258039428625
0.00479826679798687
-0.0518374170560687
-0.0443720989174934
-0.143702940186166
0.00515432911038744
-0.0976508624078119
0.0328586960118688
0.0574842311435871
-0.0202308265472221
-0.0452173736465
0.0267570926559728
0.0282250925205272
-0.067712039385336
0.0523245822268108
-0.0343792284583231
-0.0138684829492533
-0.0267457375491332
-0.00345101132447248
-0.0723955361878575
-0.0679059135412782
-0.108739345077128
0.0334246343995022
0.14354732686627
-0.117928888589161
-0.0373309434843223
-0.0251408780680168
-0.0673211351996765
-0.0818332203605085
0.143694790839545
0.0758889274750722
-0.0929069408982753
0.0115213334641028
-0.112885044522312
-0.0216628732842354
0.00505010113138123
-0.0664314670847533
-0.096408087430974
-0.0284492894654644
0.0192260633016848
0.0401913532306171
0.110393703387353
-0.114309279362124
-0.0448581586497792
-0.0441513324092475
-0.0274307772019443
-0.0752210321964278
0.0827968077823844
0.0743390159226846
-0.0654743925153002
-0.0212218324532039
-0.171240814724611
-0.0546294379412744
-0.0332870310175782
-0.00228512481732996
-0.0388621612599454
0.00012325222870685
-0.00533546504188849
-0.128350022325472
-0.00252071672865121
-0.105062537634863
0.0542132762514858
0.0949671496439493
0.0149473902794225
-0.0264150561806952
0.0220445906916437
0.0423654205160412
-0.0599243557295823
0.0567715231358666
-0.0131461899033032
0.0141899942715337
0.0180993720876602
0.0436819203330118
-0.0490157244021316
-0.056618640821362
-0.0869410058508154
-0.104584564256774
-0.00478866776629985
-0.141612170031257
0.025875768916367
0.0587636041075381
0.0739761218053548
0.00726275471913784
0.042994217132007
0.00728959398584605
-0.0542127871852249
-0.00887470337390824
-0.0660725660892996
-0.0492342657137048
-0.065369561388504
0.0284145444914831
-0.0170860823914101
-0.0635142176502538
-0.112039738620557
0.03482868461245
0.115621201173867
-0.119141068768489
-0.035353383199073
-0.021614563848541
-0.0123867636669035
-0.0740794444869634
0.0706929545230365
0.0496517011665288
-0.0846698796982219
-0.0339702119485744
-0.176575642088081
-0.0559848789350859
-0.0245077788655524
0.0119922238282205
-0.0304250091476102
0.00142471464395522
-0.0184257856607009
0.0263235088914696
0.177921478823791
-0.0155054595531911
0.00076130742329905
0.00577447037486741
0.0630524687074919
0.0409831732094159
0.131903707866931
0.172292352008673
-0.116773311399997
-0.0460146268143451
-0.0871566283197602
-0.0479794069990633
-0.0652253204163371
-0.0876327943359017
-0.0414704462960125
0.00324829644172627
-0.080173010186984
-0.0898950059932778
0.00508554216017984
-0.128411362068391
0.0528657280921567
0.105438451401938
0.114128360095036
0.0233468625172572
0.0441402520899059
0.0318967274091589
-0.0224829037379392
0.0189058470366264
-0.0382779561243463
-0.0247273779014171
-0.0393763019846417
0.0552239309816066
0.00835852838347831
-0.0323531218203342
-0.0611232152632625
-0.116514590871693
0.0114209336426352
-0.00598276810567589
0.0695885729738236
0.0585417416343717
0.0120367004187534
0.023457047459773
0.0450539968501016
-0.0368318949181688
-0.0258414983193062
-0.0334637453840504
-0.107141510064791
-0.0888170515813328
-0.0686855266549947
-0.0349423089394342
-0.0430419466519942
-0.0715616126526503
-0.123368144866186
0.0601305213366209
0.223001691877206
-0.0178650599927453
0.00637998138872401
0.0157507796091454
0.0887432565598103
0.0902295524552548
0.206841062672304
0.223639954005757
-0.0932071346538156
-0.0139585775727449
-0.053727582547418
-0.0306106260861793
-0.0635906551339934
-0.0808320478526464
-0.00895617217413069
0.05184318262688
-0.0388605268652037
-0.0872640865421417
0.0233241653862975
0.0883087467217794
0.125199680122299
0.202406259651129
0.108766547113976
0.0520430844300403
0.0420029831600223
0.0733233661311797
-0.121623757693229
-0.0263110843215746
-0.0205764941974982
-7.39121174653464e-005
-0.0958660003015544
-0.105824596510291
-0.105822186129589
-0.0712604212283931
-0.113202968226801
-0.0510629932134145
0.07306021625194
0.0432827033638056
0.0965596062128198
0.0953195741914474
0.0665764612691037
0.0888404476935149
0.12762147771578
0.0625256984308433
0.0185941861080441
0.015562191475622
-0.0651326418857407
-0.0580717138424997
-0.031046027313247
0.0204260277130783
0.00424863283161442
-0.0203369466811732
-0.0593189869208669
-0.101967875196588
0.0376501030470579
0.063455943399841
0.129414369828784
0.0721414600117869
0.0425533826969798
-0.0203349240072058
-0.0238516736877508
-0.067992521676884
-0.0392790775374389
-0.00321681057244489
-0.023866941226211
-0.0502887965138976
-0.0378466302942203
-0.00288751685046605
-0.038367213773843
0.0236764939176371
-0.0529693936676234
0.012262837379338
0.134780095142663
0.147071487782721
0.165852957294571
0.229161589263506
0.140243635953343
0.137250825900067
0.170622482610907
0.23778089684257
-0.0529213152236628
0.0600047483413894
0.0640295241084969
0.0723101092035979
-0.0969143163127456
-0.0986826752084793
-0.0479973170027515
0.0207008528289052
-0.00332423152887965
-0.0385151758543756
-0.089947346830653
-0.0716196811822992
0.00259821865220436
0.068861147273515
-0.0387559386998179
-0.0566394453001162
-0.0779624486149895
-0.146287512880951
0.0890419713521135
-0.0425264978660104
-0.0408638138545846
-0.0294391029224124
-0.0159804312939695
-0.0115561274312067
-0.0463375180891563
-0.030882732848325
-0.0948693596397896
-0.0545378804961106
0.096304116203847
0.0910547935416823
0.134502377147312
0.000138370237965543
0.00956096303017073
0.0311010200539337
0.0589770178853268
0.0217184749463875
-0.00333440177118266
0.0507432902388081
-0.00712807191337925
-0.0751536387675149
-0.104360865329034
-0.0261245802277522
-0.0275559662150192
0.052576860413883
-0.00296316912402458
0.10794780805469
-0.0229721514808902
-0.0194378337577292
0.0202682393841354
0.0554674049108993
0.0563233430271906
-0.002222604474412
-0.0279516173620508
-0.109667096502123
0.0418063388960034
0.027425313028503
0.0315835039268844
0.0408617621339286
0.124055594687079
0.0754734156930248
-0.000376359192631869
0.0523793553161482
-0.0448541582813736
-0.0232934339764161
0.0039537846706073
-0.0211174906832828
0.0626343419985472
0.08217112745886
-0.0633363243044805
-0.0102483218107901
-0.0242019536449435
-0.0624781569162551
0.135996326079316
0.01669745142617
-0.0131774467424547
0.0179766349462698
-0.0493857767934984
-0.0575648701311361
-0.0294432871738851
0.0158253532747753
-0.0145259432113082
0.0978737332007018
-0.104353326863344
-0.0126701150316773
0.0759807661458484
-0.0652666372232669
-0.0264979523196844
-0.0149438111605487
-0.0660296273887407
-0.141766048183575
0.220939310617994
-0.0679732416217321
-0.0474793257907213
0.0170207697631105
-0.109045525361073
0.0349527978149237
0.00954036054027425
-0.0145069325661226
-0.0850019047089628
0.107487901079889
-0.0160204248110405
-0.065773121043825
-0.0203405936217788
-0.0617850695988409
-0.0530428261763247
-0.0344111586156167
-0.0340344902235158
-0.0978914532163263
0.032979371404445
0.0369290202770661
0.00483801149186698
-0.00441758975480219
0.0235470749359711
-0.0348229471861064
-0.0618231222921721
0.0243429296391387
-0.0362635750146732
0.185323913500953
-0.092010526868877
-0.0770123695087636
-0.014775180533302
-0.151715220446673
-0.00515005954233387
-0.0208078146267315
-0.0603047839877318
-0.162935431615562
0.254289540725788
0.00580654087586817
0.0427703962305531
0.0359207828008254
-0.0223793224090162
-0.0126005691071122
-0.0188608413312534
0.00545338988816288
-0.0590090444949334
0.159096433861219
0.199682025732659
-0.107792021658919
-0.0356059440094515
-0.00294213379385972
-0.0305086775855607
-0.137548421013033
0.00843194676138922
-0.00197466816166141
-0.00821463428219094
0.082277733048445
-0.109226626343757
-0.0416352889622745
-0.0233239384897791
-0.0586838210656424
-0.0718081599453259
0.139087497856984
0.0502174614300799
-0.0844794772970494
0.0872282294465818
-0.00271451519109437
-0.14269331246107
-0.0352341021227506
-0.051961269010304
-0.147578594546242
0.162023192122122
-0.0671611269792158
-0.0345725788127694
0.174193968284866
0.0999387351167032
-0.0686689279328348
-0.107388536380123
-0.0748128876262703
-0.0580633565637617
0.172138043131575
0.0883568317398666
-0.0208518434849341
0.0621640127800096
-0.111882052326817
-0.0363397202015758
-0.0268723137126412
-0.0648842287891828
-0.063116598791847
0.158869274925989
0.0596876586410486
-0.0117720145121605
0.049963885203894
-0.102767928066228
-0.0274288562046349
0.00630369452698335
-0.0146758534038107
-0.0624737048173068
0.0646468523452973
0.0464406463938953
-0.0470608545952646
0.169102182078822
0.103381979504815
-0.0652300918330932
-0.104978578030024
-0.0708019744663896
-0.0486082593184905
0.189939967064852
0.0961818339974338
0.0371385570824796
0.14463780354744
-0.0684448098954512
-0.10974992730388
-0.10535670405406
-0.108688164595288
-0.123089380366919
-0.00312218197031761
0.095121721635879
-0.0683074820225805
0.00770680631201157
-0.131262225017634
-0.042655901798907
-0.00677589093714313
-0.02577625427528
-0.0817940069956552
0.0596002956472779
0.0146174381165045
-0.0346306178633626
0.0974308375278023
-0.0362733498636322
-0.00911845351094795
-0.00325007204876513
0.0550462621049508
0.0166607194233753
0.114979013775679
0.098908730789618
-0.02041384567937
0.110814876943777
-0.100200718368351
-0.136337953344378
-0.121313527666206
-0.128838471570816
-0.155877049108239
-0.0289969891582617
0.0302259270749752
0.109891740044672
0.18898579280122
0.0137677163248195
0.0060152126907231
-0.0720080872187141
-0.0582954952460735
0.0247432974682573
0.0844477648268948
0.176550529289262
-0.0819908003692122
0.0681523231263357
-0.0520727141648443
-0.0190734753453174
-0.0211490913108524
0.0416407635629007
0.010243683941594
0.1218536497306
0.0617689186969354
-0.137725385103856
-0.0393346339334797
0.0596452108409491
0.0528886286185208
0.0728406126699653
-0.000112381652294153
-0.0189167246037413
-0.0347309261005717
-0.035633676801958
0.0515807044498606
0.137683020935916
-0.0210957292946657
-0.0132029053869039
-0.0732672178369181
-0.0605665795720823
0.0140049014560303
0.0676343334871864
0.114265691716936
-0.0390421423028582
0.0693807731333688
0.0134647139006325
0.0829978467102582
0.191003757334671
0.190136034810657
0.0720764365861939
0.0513039622501187
0.0272057653439054
-0.0573508706721377
0.0729175475701625
0.157731606096407
0.146086840281538
0.121755445104608
0.0367100382640711
0.0439142910912677
0.0590199672227456
0.104293339871626
-0.0321734176744431
-0.110332062083461
-0.0888337019783575
-0.0372347390019051
-0.00955039168804878
-0.0783784554509457
-0.110173620717646
-0.116849592482893
-0.187336247710777
0.0719501912714453
0.216087241022283
0.106550661684377
0.176029482525024
0.298933029868861
0.314968363779959
0.199297886517246
0.179312001330611
0.211710027486817
-0.0552513578559386
-0.168342087953288
-0.155092400209915
-0.0878109251685982
-0.0321465734871383
-0.0248766364887183
-0.136358092451942
-0.129953449931109
-0.200721630954738
0.0125106310982373
0.0297640100724806
0.0249182683812573
0.0883272776032366
0.0433880259571279
-0.0827822173864895
-0.0689825601356912
-0.0573022704211069
-0.0674014381561165
0.136521637058057
-0.0831732751034267
0.0042998174978144
0.0841231453009786
-0.0514677349329723
0.0141587828063043
0.0168728756858968
-0.0239883586042105
-0.0993350384731898
-0.0332479216193936
-0.0433878068220909
-0.0663256421338374
0.012713608069787
0.0524866564316275
0.100501410260197
-0.0309986355069436
-0.0148594687092001
-0.0406469336663611
0.163780232097953
-0.0573853931562572
-0.0382622303587225
0.0303437671586812
-0.0514220450282393
-0.0422135427375036
-0.0139782219528517
0.00299964339463233
-0.0404181211510618
-0.081107160328236
0.0746489630037876
-0.00190287216505566
-0.127568036110267
-0.0241126480814091
-0.0370396620317794
-0.127082084628791
0.186553233239105
-0.0338681624970798
-0.0418311422083403
0.145763669576716
0.0825002857587144
-0.0707444268373788
-0.109600260852273
-0.0767091676565194
-0.0406152820080846
0.215408155208813
0.135611002777743
-0.0157448727744071
0.11916359250181
-0.0653881651730189
-0.0886522502654356
0.0313496681297089
0.0239985643653735
-0.0500233986220815
0.0311226598065186
0.221272861306163
0.00177977050241963
0.209385972404046
0.0704557000060726
-0.0897698259438373
-0.0936054324318734
-0.00273801696649886
-0.0705293920439659
-0.0360029924298256
0.0639002052889656
-0.0413810523336114
0.164802651707938
0.111204463039447
-0.0529063479108266
-0.0910588627286207
-0.0639194469981628
-0.0336899060904437
0.216655250881545
0.136824551078432
0.0381332417952173
0.12962091941361
-0.0723523102536405
-0.0980344014029414
-0.100125133956215
-0.100127519212778
-0.0972601157989463
0.038299682879797
0.139360910804208
-0.00870261419205602
0.214500544793998
0.086913354758775
-0.0817486353413153
-0.0912148779396925
-0.00158705562907203
-0.0763389834948083
-0.0399133496025838
0.0495776996042714
-0.00821030943730005
0.155166835746975
0.0116584145302193
-0.0568288236459631
-0.0159195558246981
-0.0116110492115029
-0.0546996214125544
-0.0428252554809914
0.0756317338031502
-0.0238958674605997
0.0917348938170017
-0.0967733228710489
-0.118769022330303
-0.101774512197167
-0.108773483154689
-0.130313971107145
0.00402058104478934
0.0882873975965434
0.108961736446977
0.182742219316939
0.0308125350768398
0.030176884339381
-0.0460214617680492
-0.0393066839253788
0.0421467712073907
0.108819347043301
0.226528454677156
-0.0511336334669292
0.137042239589596
-0.000787485702939413
-0.0771821149246473
-0.0155676081548476
-0.0196709304009395
-0.0791968425790533
-0.0756228081864278
0.0375906108505091
-0.0131278376532909
0.170515032247023
0.0776598509065203
-0.00260902686346913
0.000104649172858438
-0.00104567537103466
-0.0345180353646644
0.0250821345249277
0.0865282284155465
0.0499351464694062
0.141485149745361
0.0125656224719899
0.0225025727847457
-0.0498469036073447
-0.0510236447703343
0.0135999648553111
0.0631669320868765
0.154327642341742
-0.0298691360481925
0.097675814381584
0.0606893511049596
0.122681039026917
0.220467207437208
0.20274825023405
0.0647918572435177
0.0423254983125812
0.0379589877097612
-0.0554584770238749
0.156899061239247
0.0780770606588374
-0.0044385073141385
-0.00909033677315557
-0.013249583646373
-0.0441246258082395
0.00510872316148788
0.0413223790304728
-0.0988387591627628
-0.0150422339214316
-0.0398856624410061
0.00367468645476032
-0.00622030564146441
0.0863765053809743
0.0548755070841067
0.0641599012241626
-0.0298670764165547
0.0679055722514535
0.23996724703976
0.157895803530458
0.225126113183039
0.31648874380338
0.290485775139324
0.139106272221591
0.117586829206935
0.185108272208497
-0.0543196911730254
-0.14190973272688
-0.122633702108236
-0.058560833879281
-0.00902177214560982
-0.0178087527063536
-0.14336832043946
-0.150600847237981
-0.224900039920099
-0.0371015845318269
0.090242219949979
0.0476533203578411
0.0674835873622121
0.0317689931698086
0.163806548038505
0.156693394520371
0.160328434602072
0.0899183192895405
-0.0377508743997527
-0.160845233502491
-0.124064992275277
-0.106362098914602
-0.119408694163332
0.00910370615454952
-0.0390444473986778
-0.0533034775203159
-0.119088190382612
-0.0214636485172561
-0.0066273368217059
-0.0112209079476138
0.0630007673797995
0.101284121851205
0.117208172348897
-0.0614572077067861
-0.0738870815874207
-0.103999854720626
0.163416981049112
-0.0489222632924144
-0.0202801748217123
0.0366061330720339
-0.0326234764710785
-0.026241734833943
-0.01398320097843
-0.0170206353065462
-0.0874189575982852
0.00471917951543598
-0.0577959210530545
-0.0543422383667158
-0.0743223618714039
-0.161735749027507
0.100065334391329
0.0821177209165173
0.0525783707781953
0.0243236778484999
0.0818863286463103
-0.0775285019933711
-0.0325107500852447
0.0261060774896274
-0.0319181925573706
-0.00750384803242442
0.0541201024217866
-0.0448287347140064
-0.149982275888298
0.00714171147830263
0.160614557492086
-0.0842099641851357
-0.101847021243522
0.02392026357046
0.0152118175055174
-0.0850221142057755
0.006066060096639
0.322161681231223
-0.0118765314161901
0.232864929022776
0.0701026373766185
-0.095602884882204
-0.111329397757216
-0.0133627950136481
-0.083600821098261
-0.0367398373112536
0.13216351316235
-0.0495605410229067
0.0530366020305972
-0.0456657013533331
-0.0295211446979341
0.0205637236340504
-0.0132083495071016
-0.0650903738887463
-0.0428963646011089
0.00291117030798724
-0.111509022906727
0.0719976783122419
-0.0700009616437051
-0.0622835743549798
-0.0660430553971616
0.00131202625897687
-0.0414824653266687
-0.0780221702703206
-0.0707770184496444
0.0136943717614711
0.241494061082214
0.0797097911643741
-0.0829347293422403
-0.087578340087856
0.0174969505090962
-0.0798998298698842
-0.0372667072505947
0.162532291458606
-0.00966826860437881
0.174598684517527
0.014322220132398
-0.0541014413886379
-0.0215053205018887
-0.0175507186416802
-0.0616363479572965
-0.0346938858300365
0.140393906240908
-0.108463183203901
0.0675124530917276
-0.0635667693344518
-0.0474281649147151
-0.0443410420034638
0.0173680815095586
-0.0410774696228824
-0.0819125821446887
-0.067523186225312
-0.100761458066388
0.00418612462049481
-0.0776681908787352
-0.0346023783341805
-0.0288563386767156
-0.0231311281477247
-0.0753478264661111
-0.0979414747361457
-0.0835849400516639
-0.0250475246530333
0.157936789660955
-0.00579347868227859
-0.0528544313257113
0.0161329007681138
0.015349739237942
-0.0659805205406829
-0.0558893472019298
0.164028390925551
0.0139878210199913
0.205754190581564
0.102092022248101
0.0487691634313285
0.0410374089339472
0.0488339292893068
6.30406641431476e-005
0.0564581702372219
0.175461437317756
-0.112307362686188
-0.000718918781789754
-0.075487304943533
-0.0220369868494218
-0.00235123679344937
-0.00731547031158925
-0.0777954969680707
-0.106584012440186
-0.0870163829569628
-0.139333170486882
-0.0118755401080934
-0.0905646729276313
-0.0891181092307748
-0.133329763333331
-0.0971038125894382
-0.100106944504913
-0.101670033783938
-0.0959814151912684
0.0195423208200469
0.243937455677003
0.145349068584671
0.0949264022086697
0.0842591829716655
0.0710238807709709
0.00239428851794604
0.0388924106237356
0.191526407161471
-0.0557603875725958
0.0861479547848987
0.0554437008133624
0.123617606636433
0.134167093550226
0.221676261846397
0.124807777890979
0.107631369028453
0.0589603334035154
-0.12414264723506
0.0239706452452401
-0.0590236034576227
-0.0535749934345451
-0.0984104922928491
-0.0688756655252216
-0.073086971312989
-0.0762556036660195
-0.0744112500611926
-0.137414093378618
-0.0871066962381882
-0.104212161595086
-0.0727987770134847
-0.131592818022931
-0.0902739907551761
-0.0288539576536166
0.0225134274414336
-0.011160450835698
-0.0215562327218472
0.188069821269342
0.135768885980623
0.182133834231572
0.152520021531018
0.25266680276863
0.163673496010495
0.138255022607026
0.130447106768879
-0.0694167397592508
-0.125704523055445
-0.0634549557400252
-0.0275950796924569
-0.030965834707425
0.100126471771017
-0.0121484095106547
-0.0609793819878412
-0.131204150415757
-0.117105561885061
-0.0235254330376001
-0.0490586873986197
-0.0303790434478181
-0.13605244995117
-0.0671989188045667
0.0347785344614848
0.0705013561946613
0.0395718745267901
0.0215665334677433
-0.117521423732731
-0.0126488248295163
0.00422971841976819
-0.0314958346361313
-0.0346378275513599
-0.0943403750511538
-0.0186492584114491
-0.00931685261524194
-0.0535548967446715
-0.057657741268982
-0.00993115462088568
0.00635129749786178
-0.0649555717829974
0.169439918619723
0.0540197651298117
-0.0250548920521797
-0.0645533487178909
0.0677601394270924
-0.0935406302119248
-0.0273884981614795
0.031563573704531
-0.0144533796423324
0.0214886468082402
0.062697706063576
-0.0587255835617192
-0.200438747326368
0.0771601441532154
-0.0404166692986923
0.043706805981626
0.00893683085241961
-0.0908896259070214
-0.00532373503804594
-0.0447550680683927
0.032524496671964
0.0701159331016798
0.193536978995639
-0.098965760588098
-0.00392634690373361
0.00469196814242089
-0.0443940884214146
-0.0903270745347773
-0.0426359249645445
-0.0547863916513659
-0.0909733391641161
-0.0434575572529698
0.0893883880005651
-0.0103358191413769
0.0336661681385038
0.108890321842066
0.0546929393199659
-0.0305037889132926
-0.036373829965076
0.0277110232420976
-0.114165503342348
0.135827123522412
-0.022256735796489
0.0062703048908437
0.0167175020022445
0.0898125955627717
0.0125357513419924
-0.0653114079853017
-0.0545883476378581
-0.032171938224854
-0.0472399821651217
-0.0363447944245688
0.0276373511954368
0.000940729083728872
-0.0463215498104702
-0.0111942207318711
-0.0113729688194731
-0.00415754320790968
-0.0996030682907675
-0.0560594553119775
-0.0928086003662554
-0.0688247649834589
-0.00481877935915844
-0.0151283356477267
-0.0228903931167695
-0.00920478770606279
-0.0157915274798356
-0.0906286771519067
0.130992491843455
-0.0317052211920766
0.0236072020037814
0.0426194491306512
0.109018201100907
0.00386869073337677
-0.0695421263179506
-0.00910388574583684
-0.116884850786683
0.0364172982899889
-0.0365196457245076
0.019226814245507
0.0509935957444306
0.0744909836626353
-0.0122568018635782
-0.0667680729310447
-0.0620746716063295
-0.0917458844160123
-0.0588239698199905
-0.0931896794110651
-0.0495625583021375
0.0088615041058128
-0.00828133768691258
-0.0138426319614659
-0.00295746839409476
-0.00193903827861027
-0.126797950928369
-0.0257393223704878
-0.0960242681682842
-0.0407064884345674
-0.0529895180645305
-0.0649005155095662
-0.0805847776282634
-0.0411465507756885
-0.0738916861873466
-0.1027504176612
0.0562478719088852
-0.0379966163835536
0.0512739417414415
0.0984225420291118
0.113905226879536
0.0145865883997728
-0.0566932295159233
-0.021097321963438
-0.119287574635314
0.0672325649231244
-0.0130228750608984
0.0135386617414238
-0.0128602962882295
0.0477696928410156
0.0107873727937625
-0.0293869608580581
-0.0474308169537471
-0.101229669492303
0.000514979022401407
-0.0685956210396711
0.00098263815688265
-0.0121764078342531
-0.0422630658464801
-0.0620932180888611
-0.03578072388141
-0.0579562811594048
-0.0938858099915279
-0.0619100445834578
-0.114586457939424
-0.0893203133168397
-0.0717209194784103
-0.0674965245753445
-0.0752197155931519
-0.0553989568243011
-0.0559307030066209
-0.0851683415021494
0.127750072534216
0.0283790898185759
0.0719742032045483
0.0692155088045185
0.0943310967382743
0.034328882625363
-0.00227266871116035
-0.00454585782581173
-0.109029876196041
-0.0210841676312303
-0.0255452639163988
0.0579601983499868
0.0485193962281963
0.0948542225922431
0.0885556403165456
0.0903928461490501
0.0443809392231687
-0.071454257025285
-0.0304184546915766
-0.0821289295910941
-0.0279539756024213
0.00677984719373099
-0.0250505592202674
-0.0498409987203741
-0.0369350126006941
-0.0218900276933825
-0.0934289771319505
-0.0209011746691796
-0.0237928585938581
-0.0252000897064144
-4.70652596970254e-005
-0.0153508383485783
-0.0301268109938472
0.0276016877896745
0.00547031772677426
-0.128123461498642
0.00563594669693827
-0.00282784503702601
0.0683535322046188
-0.000942694975268862
0.0496049655054795
0.0889103586209537
0.0858723865535923
0.0461462951636888
0.0339286848405122
-0.111229825071599
0.0318564653941293
0.097438174402832
0.0821094184325668
0.0628354117302467
-0.0603124428915132
-0.00638756648495181
0.00106881212773554
-0.106817221144554
2.15066756798574e-005
-0.00814442093584808
-0.0175398692403575
-0.0381126765492219
-0.0717609039957025
-0.0615835281506036
0.0103146074313093
0.0233148781789041
0.0576829519258538
-0.0112906219061328
0.0490426234790081
0.0491447429318634
0.0541799424627493
0.0492599908848361
-0.0253886229033407
0.0584500251415918
-0.0156599083736017
0.0211333715981032
-0.109405411158919
0.00915305526784935
0.0302384014627069
-0.0591308530521906
0.00683382370963209
-0.0824076429610141
-0.0079765308843461
0.0226851124437047
0.172992889357538
-0.151163093121466
-0.0254589203180407
0.00189630824659312
-0.0416260783837952
-0.0858836833118229
-0.0557076071422965
-0.0683899701975388
-0.13232720801071
0.0879203227062611
0.00177376343428749
0.0255848015512159
-0.0254049083784389
-0.0797142535168393
-0.0159556200992071
-0.0520010220236767
0.068628470518029
0.010381501800609
0.265591466697732
-0.0450916388016546
0.0427743534005319
0.00437129521054979
-0.080018924074368
-0.100981860759418
0.0298727279958839
0.0630392339297085
-0.0307742297145088
10.4481130000
