3780
0.0362195307644192
-0.00478798805819582
-0.0695521988817601
0.0225521685912499
0.0733071509148411
0.0764081397990983
0.0190270770624611
-0.0478549464769211
0.0468180619031163
0.070637085085148
0.0323232698831768
-0.102363409788837
0.000809633261006817
0.0708990708086311
0.0540878515271374
-0.0622000832209491
-0.100109918218265
0.0264979487471543
0.039904891128293
0.089303707193094
0.00191991147822065
0.0384823053292225
0.00896800944922719
0.0198441325895244
-0.0151682022761207
-0.0196545373680887
0.136984837382871
-0.0126219170676317
-0.00654255342401728
-0.0819701835296214
0.0180378169017764
-0.0431375839996232
-0.00188426241171946
-0.0280508621291957
-0.0580676850942545
0.0656399350424818
0.114369579580199
0.0667266469678334
-0.0683776740260528
0.0273311014406419
0.102298566542677
0.0809487778723719
-0.0357788666665865
-0.0678257301585499
0.0592462491705267
0.0280071018029994
-0.034545789874612
-0.0860762650717427
-0.023544881902894
0.0330933699387411
0.0345285065465878
-0.0441322643384005
-0.0929088866570894
-0.00233286871037274
0.0472245764602954
0.0455641849107321
-0.026088132586955
0.066183901148065
0.0178124634813457
0.0494538045851571
0.00264643433579055
-0.0235670514121013
0.114050017077837
0.0163073408058041
-0.00494924386138639
-0.002973810094652
0.0459747828086404
0.00311615693371395
0.00345095474147652
-0.0549298590695105
-0.114820691846878
-0.0171607921487926
0.0526403678298685
-0.0114162811216104
-0.0755412058897773
-0.00978930489110167
0.0547084552702393
0.0589398180339358
-0.0244268695007651
-0.0757752578458843
0.00861995561563835
0.110250020520984
0.0285803852470398
-0.085982139736796
-0.0337959903956075
0.00170147968605484
-0.0112159380267006
-0.0720640350518524
-0.094265767236722
0.0791976847360893
0.0424331748808251
0.0223659433210924
0.0245407515575305
0.0679437621936121
0.0192805887503952
0.0211105373544705
-0.0409355412688544
-0.0982434404619512
0.0108801207177713
0.0299473090055937
0.0445901537065326
0.0264550207414591
0.156373213922927
0.185912081017379
0.173217430770199
0.050252348821301
-0.0819362647264898
0.0356255479743184
0.103936154416595
0.0200633815578894
-0.0891376023767276
-0.0348985967376802
-0.00243068868869047
-0.0141038221717158
-0.0738209965957735
-0.09683806507965
0.0663466329324011
0.0747695711714535
-0.0034832457666887
-0.116119279292663
-0.0612858586253758
0.00133682086727856
0.00962096656155065
-0.0481860760934856
-0.0760102271871656
0.0421264077028575
0.0325207435377643
0.0437870943920624
0.0408810526027359
0.162299657601528
0.173830098604373
0.153409415564966
0.0287870628422933
-0.097047925096461
0.0192635118068273
-0.0148438113487712
-0.0427787693676234
-0.097688192196446
0.049358835996463
0.110009318204722
0.179703603378618
0.144393358674356
0.02540014635003
0.0556153356485749
0.0996023238127483
0.0115140827944421
-0.107840978224855
-0.0585395124468003
-0.00280817295581256
0.00830522027155065
-0.0455279912069976
-0.0738675502884584
0.0504572709947535
0.0300333101828312
-0.0278894064554522
-0.0792343364763736
-0.0181691908963379
0.0522573217828366
0.0499200130225651
-0.0426808351768019
-0.0731754810549046
0.0208634996871055
0.00844640022450294
-0.0133531758325457
-0.0712053760621114
0.0832872884672817
0.134182057708974
0.197489829440759
0.147942691933008
0.0229895905371762
0.0656285070967969
0.0477581126248625
-0.0120049926825181
-0.0912373721196077
-0.0107865610259435
0.00671049553708908
0.0243282379710893
0.0296780449843143
0.00396801614400794
0.0822401505951007
0.0276908780932409
-0.0262296818308132
-0.0783590909724425
-0.0203315600216381
0.0430784272235504
0.0430957118069571
-0.0448849783900353
-0.076160060802698
0.0111597278892487
0.0987490801398257
0.029407437826207
-0.0823916245528459
-0.0362375473850212
0.0514737155267332
0.0843749740190437
0.00506479040127145
-0.0580566645467582
0.137924123444374
0.0385465900032454
0.00142164687654264
-0.076426303102075
-0.000896519448629534
0.00385156032287617
0.0224960473719562
0.0287737801267603
-0.00575921397748377
0.0766331771032283
0.0623347059270365
0.0541146665726766
-0.0277932675823188
0.0390620076695002
0.049937695251419
0.0296629355886172
0.0181319710752063
-0.0374884660903778
0.0887719975590824
0.0698715769432528
0.0166310934999469
-0.0955919309710215
-0.0413138145895035
0.0461534214437097
0.0760602529753188
-0.00587281498966604
-0.0730541318861717
0.12227496446637
0.0161516385854521
0.00201392384478946
-0.0364489704659684
0.0272822834180378
0.0546484019067118
0.069820078524142
0.013211709698509
-0.0580804952620271
0.0100508415986234
0.0178638317052836
0.0302157239164855
-0.0432071440164746
0.0224929745181786
0.0264652598534327
0.00100540801883123
-0.0103624467587425
-0.0736763092472544
0.0468422158310442
0.0417699877304283
0.08683272789451
-0.022396645985133
0.0394766547009135
0.031623024828217
0.0517765738814481
0.0372301666157762
-0.0225620632300412
0.089697192888306
0.0386803865226123
0.0657462417395629
-0.00362076736375788
0.0311231208647983
0.0221750827033115
0.0284987290854535
-0.0165529547972968
-0.0193896725573219
0.113763982658448
0.00455709733879237
0.00698396230632614
-0.0459223576287055
0.0394904623268571
-0.00570817325808664
0.0229947418376563
-0.0212365863308023
-0.0500076495131053
0.0597458617409635
-0.0194391014346261
0.00455229599600914
-0.0136163573481508
0.0479640536712302
0.0597733295525886
0.0633526512515467
0.0449738592718504
0.021703500685976
0.0654548446991051
-0.0454452923640987
-0.0273447675421243
-0.0481599305095845
-0.0157382227789599
0.0013863938692335
0.00927950404109962
0.0256248602949251
-0.0166210549923082
-0.00261511654161828
0.0465837235830358
0.0307626207569362
-0.0220369185191307
0.0621484418199625
0.0408325411739863
0.0623897448723748
0.00384730710856247
-0.0227719245082089
0.0871289162306468
0.019482316899899
-0.0187577368189059
-0.00124422330909893
0.0471394424562926
0.0316981201930402
0.0245340357958479
-0.0529750742807775
-0.111159437255097
-0.027598798629807
0.00749740996311371
0.00970430263028969
-0.0150058594082806
0.018122132327206
0.0347652267873088
0.0445142901378386
0.0558043480362155
0.0168217672746562
0.0465341151305405
0.041450466160955
0.0719072231978174
0.0563895749273379
0.0204990814302183
-0.0301134296825943
-0.0430382387753889
-0.0170693514265947
-0.0184489059176255
0.0577974507239945
0.0150211032247578
-0.0385567663373103
-0.0211785090941253
0.0240059114440699
0.0118405027012003
0.010760846000742
-0.0600810775370083
-0.113952135180579
-0.0393186743054813
0.0165619969335722
-0.00493780879355428
-0.00234380829619085
0.105577940667176
0.143167321320138
0.124404419787878
-0.00111992071906052
-0.119401548283487
-0.0171838392568165
0.0365240583411266
0.0570189416527602
0.0422810644207865
0.00826534112310786
-0.0376795568184255
-0.0551318536215482
-0.0318280603164401
-0.0325583089650236
0.036198424687502
0.0545944001587681
0.232189733160879
0.182478174280056
0.147650853918587
0.0442722942995345
0.0626071030071573
0.0961490001923794
0.100640552606157
0.144267904137955
-0.00176110304033785
-0.0353097147010436
-0.0269442172107341
0.0763631969363348
0.111909247136051
0.0996472763981922
-0.0179408482247656
-0.132071151168184
-0.0435862227648959
-0.0353655760274431
-0.0817055253978224
-0.125866701468493
-0.00198813056573567
0.064126788561423
0.113536689592005
0.0670349532375236
-0.0395819713668575
-0.0223527583433326
0.0333918699673141
0.201668463474132
0.170550066443939
0.134491417174299
0.0233319350406814
0.0371210180422456
0.0686629283629613
0.0706846939971382
0.113794350695314
-0.0231458038600997
0.07323720874171
0.0159556453131428
0.0152537071643732
-0.00963712574289508
0.0624336876350081
0.15391608248031
0.16653119018595
0.165453179719628
0.000567651354008632
-0.0453296555931732
-0.098850085007563
0.0310301754520024
0.0980398040800237
0.151130942449956
0.10239329827159
-0.00692368234506329
0.0199525371438915
0.0220768701178328
-0.0459979576538429
-0.0981098444452295
-0.0259344435867516
0.0166371626114978
0.0184252667639296
-0.00358808238506512
-0.0342588727427037
0.0207287138696045
0.00953022451114883
0.123726872941904
0.0658716606536426
0.0601994674858083
0.0234140600742514
0.0928128547041591
0.176918519818997
0.188843219743086
0.206942216099656
0.0354973016748091
0.0181069316832966
-0.0587794122072217
-0.062451466203957
-0.0896809525639088
-0.0231566520944394
-0.00239706314020577
0.00173283434873649
0.0336297360750244
0.0362416055027237
-0.0123698279895762
-0.0727237865178174
-0.00110643514486137
0.0391652230733964
0.0445088952762027
0.0254224050746552
-0.0089514262605886
0.0502820275414197
0.0568775632035564
0.0383376605557592
-0.0247353551843164
0.0361221772000331
0.0808598145299464
0.0525510942360544
0.0181083100215534
-0.0402404956212445
0.0598957407263672
0.0414575193631271
0.0594138631915305
-0.0329112968682742
-0.0306934135251017
-0.0761622374147595
-0.00257426490963229
0.0188245870312341
0.0173966888403824
0.0560995361407207
0.00162289890844275
0.042159518334165
0.034379158354909
0.0541559583608364
0.0103871447935056
0.017795993843101
-0.0116236857395603
-0.042886708093697
0.00581122355393392
0.0279951553465519
0.032866577534487
-0.0360499431100155
0.026931995482901
0.058934481388159
0.0315735716667427
0.00746265915361269
-0.0533798427215726
0.0480497722095024
0.0443507732379134
0.0792169708128128
-0.0193487393017528
0.0373581635306549
0.0415787659541396
0.0581000830372914
0.0283954417449235
-0.0310232420168883
0.0673368107946085
-0.0455994580237597
0.0222261777581665
0.0140459937512212
0.0366419651437205
-0.0258826035307133
-0.0137985956113045
-0.0394801034968608
-0.0693381163968935
-0.0218153092704501
0.0212508161977479
0.0563637951033104
-0.0164301942214301
0.0342950240384316
0.00892148635801376
0.0379070921745978
0.0622171929316282
0.0113749416051619
0.0841296297273262
-0.0197985412204871
-0.00969450894340966
-0.0190912476553301
0.0479691358296165
0.074245982235319
0.085281311422184
0.0519824259452882
0.0225932146156324
0.0522277491368108
-0.0364299197372662
-0.0158775500306872
-0.0291239798120208
0.00735685727517097
0.0366318753734634
0.0407447130278392
0.0334374611613809
-0.0114583745494678
-0.00504657137880803
-0.035370050436198
0.010323094579108
-0.023890292285125
-0.0283988160383668
-0.0195597296981342
0.0273497370225025
0.041566476023995
0.0358675822177188
0.0964159213502868
-0.101932482255674
-0.0485426610742833
-0.00861912050409953
0.00410589089069629
-0.0174507441452277
-0.0226248642035096
0.0259663170888458
-0.0115318917545517
-0.0260262842077163
-0.00544737861175885
-0.0135695345674171
-0.0265705653767457
0.0115418978008063
0.0511076266265301
0.0567113218620409
0.0433179605429947
0.00224739785586215
0.0170597236051233
0.0336199121829732
0.0567609940670997
0.0583092581933807
0.0311911718693758
-0.00119864027967281
-0.0255930858038104
-0.0202500835303242
-0.0207155556798395
0.0368101233157745
-0.0470418106815205
-0.0178352213430597
0.0180114800873972
0.0245117403990909
0.0155341701331239
0.0106578003092774
0.0425543931808006
0.0108998294090018
0.0114106657795056
-0.0940362967296946
0.0261297860157549
0.108779492794682
0.0749392717414071
0.00186699218270994
-0.0580364770135064
-0.0302877086274421
0.00221746903723034
0.0107765865824796
0.0151945058353226
0.0228593232604624
0.0198949713723102
-0.00504536665817322
-0.0282634416326029
-0.0511015360467885
-0.0460950347238605
-0.0470166538211099
0.00014932630897017
0.0344801800248325
0.199009280178161
0.173803728584898
0.145598920718772
0.0516511123010012
0.0611203829606054
0.0758989856225173
0.0788943908277422
0.106720383022979
-0.103170842878768
0.00979815960149434
0.0937612193518188
0.0533708206605722
-0.0200568872598215
-0.0790030789231283
-0.055919430895194
-0.0227514372514481
-0.0274475293660758
-0.136624012895031
0.0593792442549083
0.13753022819443
0.15168788208486
0.0299665135189487
4.11355906410725e-005
0.0624278623741479
0.0944265608657977
0.00171834596841757
0.0058825496501442
0.16266629512133
0.145646568690397
0.116628069220847
0.0223200489428518
0.038269308690005
0.0609883912096489
0.0589778528630226
0.0795026807832649
-0.0420256869741819
0.0567637229522005
0.0140243129535748
0.0128320704933705
-0.0088236225756685
0.0612592010669116
0.136501213110553
0.138794914462703
0.124440395662766
-0.154199030934247
0.0368486788238077
0.121377889949903
0.130247872861342
0.00717039128881582
-0.0186137317031481
0.0370192801319434
0.06167660074797
-0.032831027562488
-0.153020599907318
0.0187122370751797
0.0532098363662465
0.000746128620489461
-0.0592166344021762
0.0362667399878394
0.152689518607651
0.127440537033738
-0.0723036070130831
6.84486264573566e-005
0.106787674254498
0.0562872117050788
0.0472594257026948
0.0282650678299534
0.102409440759518
0.180388144201841
0.184846072057097
0.183921579943017
0.0177700507346271
-0.000992558390413482
-0.064086363089864
-0.0683096143181021
-0.0755515022233518
-0.0132236691402905
-0.0130738921715663
-0.0155452698289881
0.000757572194383565
-0.118063319160533
0.0762242868494878
0.111348260081419
0.0488990109635888
-0.0224985395432049
0.0738620505421683
0.193497262528595
0.163347648250015
-0.0360606316090422
-0.0843788547586415
-0.0101177820623095
-0.00945811233914938
-0.0444809173007093
-0.0694402070309516
-3.47256676232205e-005
0.0748464134520659
0.0958262658461902
-0.0602676590067824
0.0458118284754551
0.0513251962581766
-0.0301208433839786
-0.0323019046860613
-0.0442607299742823
0.027086322943859
0.0301325854137032
0.0216807344025411
0.0433474514010149
-0.00400210950916228
0.0257770687589878
0.0296834969723967
0.0498161478164036
0.0356814052885409
0.0370164470433322
-0.0102213853604193
-0.0468232488024588
-0.0165262088452841
-0.0674953090872511
0.0359251145832866
0.0274861044551232
-0.00775150050654285
-0.0423239340702971
0.0344079431521819
0.10959588060576
0.118296034001091
-0.0433459380659647
-0.017422874210403
0.0253249866137154
0.00538659783674979
0.0552124516668783
0.0375963008230747
0.0248334203712956
0.0215774501576999
0.0159262847122497
-0.028766869187832
-0.0366202241901433
0.0207010025691098
0.0246615729735448
0.0481455875427552
0.0204659459452019
0.0281815340692889
-0.0143025692463134
-0.049318298711839
-0.0152297057315409
0.0191068079667932
0.0540349675898754
-0.0132496847863559
0.0383722693531474
0.0289791834778104
0.0422344329148287
0.0506961476410464
-0.00789026580536669
0.0685516739327343
-0.0721046787064306
0.0165081000839395
-0.0115598656177392
0.0434541740316054
0.0115650776426088
0.00750965104405242
0.0074138468223636
0.00038091653112669
-0.0463625285762267
0.0294738306724707
0.0873070195882777
0.0361002798478576
0.0615651480123208
0.00429839223885913
-0.0405256236282153
-0.0138364355144667
-0.0119833807833975
0.0143715946385112
-0.022266786568066
0.0132571732303612
-0.0162004327606478
-0.0188614836714891
0.00595676754755348
0.0482057545813828
0.0469919011725451
0.0434207721162826
0.108079637065283
-0.0644007668378399
-0.0133405432549344
0.029014472681549
0.0344467488508896
0.021266561043708
0.0125074454459446
0.058780829289253
0.0200096142786745
0.00645918808203665
-0.0679064790438963
0.000671709376119321
-0.0262027740549324
-0.0903774298910002
-0.0186920864130946
0.0185819522949612
0.0150645988793292
0.0195872568314506
0.0102526207480691
-0.0963290653632104
-0.00604953196190691
0.011771192533195
-0.0787941434723153
-0.0606401972963607
-0.0449654399160857
-0.0603046499676194
-0.0369073515209757
-0.0442260692885737
-0.0417091787329754
-0.0100403507435645
0.0281072408987024
0.0278793112024291
0.028089006190088
0.0207203310014702
0.0488219389140993
0.0163760824787271
0.0119950077038748
-0.0720001612509979
0.0535039770669529
0.135525204312053
0.0909747241310743
0.0191264468424545
-0.0392512263414547
-0.0137402971965797
0.0238272394830209
0.0331502964984921
-0.0530408582945551
0.0168774908685532
0.0210734267818985
-0.0643475296714339
-0.0429753528145651
-0.0308147716262619
-0.0506689911547763
-0.0213111928074623
-0.00647037850715924
-0.0439979839210547
0.167073561759924
0.148031322210078
-0.0235930869498663
-0.086715821812509
-0.0987655131356875
-0.0803019057335133
-0.0664731619920194
-0.0722967137033711
-0.0582095468784935
0.0691116838456581
0.153509037600402
0.108661382341092
0.0354197269781957
-0.0267982403517296
-0.00713356398289809
0.0309213628186209
0.0346499636816996
-0.0901248407205079
0.120381633901191
0.205568018261765
0.211233455876839
0.0822388583946012
0.057114704654544
0.111252058499211
0.140501299537052
0.061625916042881
-0.0327741378047857
0.184664119889999
0.164937875028552
-0.00963109915817257
-0.0712765176480369
-0.085352429031405
-0.074218844839926
-0.0622949022986118
-0.0671898788659824
-0.182601975793149
-0.0147988849453408
0.0497144019037251
-0.0388071896688884
-0.108567037597667
-0.091184240107678
-0.0553035073162764
-0.0604743618622968
-0.202190733503205
-0.0904563666889985
0.124839166938499
0.217812959921712
0.224755634042689
0.0981711843270127
0.0749782309324626
0.130051139333597
0.154296610732357
0.067563501356355
-0.0860842971230997
0.10776016502153
0.142370134353746
0.0876960829177935
0.0307508993162741
0.134713893035867
0.256550403255713
0.221706245923417
0.0177811245686933
-0.18445077577724
-0.0155947210595202
0.0566411963689956
-0.0249460412246614
-0.0945687926483431
-0.0802083025399954
-0.0464522338095139
-0.0527121705706797
-0.204095253165361
-0.199910655639906
-0.106978315396006
-0.0499233543408416
-0.0615665987022056
-0.106048213680425
-0.0658398262701574
-0.00388005393353221
0.084954585343334
-0.0770848290969778
-0.0822219854808599
0.113208672686457
0.143430079754702
0.0788275993172018
0.0182796032947565
0.119100783774269
0.246385362232501
0.216941483793297
0.0144990543086395
-0.050278440506261
0.0389172263720444
0.0396380712737388
-0.0027149234023514
-0.0255255916415581
0.0482737375711933
0.1204244387252
0.142947311000547
-0.0137411211128765
-0.190044449078953
-0.09993641859845
-0.0446945941938474
-0.0623403160701426
-0.112713358093351
-0.0766559208640289
-0.0084930166020782
0.0905630160588723
-0.0666030119370162
-0.0911150240972376
-0.0221115637056284
-0.0828087567465493
-0.0802224821059434
-0.0815699941590756
-0.0655782033936302
0.00522077470309275
0.189439420877401
0.103549878522197
-0.0523760879422974
0.0530329444487149
0.0488200925259623
0.00333733325094502
-0.0283067230457166
0.0463216020597727
0.119355835728345
0.134847776342485
-0.0219619292254497
-0.0121804010500845
0.0262775708858036
0.0102184126987867
0.0516238805788755
0.0377261208894737
0.0258683316438738
0.0208393762499189
0.02493759895788
-0.023510887060809
-0.0955611490583316
-0.00770833429955905
-0.0717775158729354
-0.068929961538011
-0.0852896259317091
-0.0713775989577088
0.00184063236039061
0.185133237289542
0.102433306132595
-0.0189036360862703
-0.0095223356888564
-0.041364007583891
-0.0321279769860963
-0.00607710697752732
-0.036431485418998
-0.0494096146917752
0.0231041843839806
-0.030917738919021
-0.0398266971976032
0.0413797000009993
0.0160106303050946
0.0595034972128014
0.0302486516652549
0.0266895359378385
0.0272701134293838
0.0257532680739419
-0.0163023745752807
0.0450844823074839
0.0980204827438322
0.0390942266930135
0.0620720131403441
0.0217619778079518
-0.0216173112520274
-0.00421294559838903
-0.00530867625447135
0.0279674490395579
-0.0623909144402602
-0.0122297314134538
-0.0462603801880599
-0.030337899552719
-0.0203338435921486
-0.0546131606922863
-0.0655393045182589
0.0128352701382277
-0.0388337742825941
-0.073970150287085
0.0285816731456509
0.0243111100973161
0.0245621040479199
-0.0072577295953664
-0.0339377270880767
-0.0592011293217297
-0.0188768062788082
-0.0325134126010008
-0.0409941623899605
0.023742380567236
-0.00491097085904557
-0.0676517771063031
0.0337294119070012
0.0626706370548908
0.0437995598040132
0.0458404923333731
0.039248866014763
-0.0499885540639003
0.0391941257415762
0.0497708412299147
-0.0355338905119529
0.00615462798616821
0.0233896311975704
-0.0121625601387821
0.00779617228976092
0.0060333414416733
-0.064140627764251
-0.0217275380769537
-0.0461348604742447
-0.0674051473587851
-0.0484920874731845
0.00233839559873087
-0.0226794881649509
-0.00150962833189278
0.00600265723768243
-0.061778301068644
0.0329658996368489
-0.0204914786519074
-0.0881753251664308
-0.0752994202250824
-0.0630944525362629
-0.0682568530651216
-0.0256948239351246
-0.0420215204059317
-0.0244745627627799
0.0427406826822916
0.0473586275618864
-0.0390280899001519
0.00322159597950883
0.0169857933426945
-0.0186169757502814
0.0100764728626746
0.0217502941119013
-0.00837055526903082
0.207230781568642
0.188005352798059
0.00741134466005473
-0.0467771620023841
-0.0593203300914891
-0.046003201291086
-0.0289202455741351
-0.0321663673041655
-0.0306525570508252
0.0480667575172521
-0.00826342934269492
-0.0788581930013961
-0.0633580731529865
-0.0560473265056734
-0.0618167488575023
-0.0189355317951564
-0.0129842256808652
0.00703944994550141
0.122879324216971
0.0121824388708312
-0.112219628835051
-0.135538207337253
-0.0937019717300351
-0.0291353144097312
0.0305996683741544
0.0126267914365632
0.0282004117402244
0.268339536842301
0.24801084980681
0.0502649987788642
-0.00753244547241281
-0.0241837896584415
-0.0164539294032411
0.000774242781249703
0.00784405802145522
-0.138358605744776
0.0412227738815202
0.117784236835724
0.0245750758651331
-0.0486901697284046
-0.0316516747600212
0.00374645887488747
-0.00306291493562443
-0.14840507534462
0.0520311807962115
0.184040330002676
0.0542462070660694
-0.0715312093189269
-0.0972762305091241
-0.0571865602503204
0.00589353939933868
0.0638674396137968
0.0595505437040714
-0.0526509259554889
0.000802817050407687
-0.0253680939217045
-0.105677968485213
-0.165780044247219
-0.125886207019446
-0.065496154187288
-0.0149774831056758
-0.0410707332295378
-0.118781308107713
0.0696440494668985
0.157527135240058
0.0699995419023192
-0.0021531451817619
0.0123996376785297
0.0474409091848215
0.0353882320209535
-0.121805789785472
-0.134163271714515
-0.0244727302663254
0.0391503497065558
0.025680517792937
-0.0125816498103862
0.0335110162599591
0.104112829116947
0.191158972973386
0.0176221583436463
-0.0316476537871217
0.0326773680889788
0.0197914607478908
-0.0658950369720031
-0.124922833033818
-0.0849089835662321
-0.024978884790545
0.0211938860187808
-0.00813455615330622
-0.02148936458156
0.0505675732183717
0.00328646225217913
-0.0286543320988181
-0.0933184465321905
-0.0826125155425247
-0.0514962951976982
0.0355348022272892
0.0267608340681302
-0.155553533620271
-0.0573338319411823
-0.000349008191490054
-0.0223918829816776
-0.0662876194841355
-0.0205570486311828
0.0541903545809389
0.151593802630289
-0.0186026093055295
-0.0379896931588686
0.0380909558551566
-0.0330684854260388
-0.0355443195396046
-0.0301818998797043
-0.0127851407915764
0.0601949379066094
0.259440074887396
0.182168091672835
-0.0482982764939266
0.0113564014877797
-0.0348676604828527
-0.0680486498026097
-0.132289462466169
-0.120043841870482
-0.0880092930983633
-0.00586171502894228
-0.0177243822335096
-0.0117805110297347
0.0868099558375101
0.0256656364956847
-0.00868750782586634
-0.0585022704231038
-0.0849126204571685
-0.0608572715053237
0.0922838254141108
0.157088224499959
-0.060215496769474
0.0252610090312591
-0.0361008426069626
-0.0392089458449471
-0.0447669975761909
-0.0333777103609037
0.0334139725466524
0.220985944122993
0.14579738837411
0.00708073947748873
0.0132923369730613
-0.0136640870503415
-0.00494787685680031
0.0402057059089968
0.00210476692943592
-0.0212620992959799
0.0504273162532854
-0.000751052529335774
-0.0513993729228717
0.0652003957195442
0.009591001570725
-0.0255906333405869
-0.0793816646050729
-0.106187781437391
-0.0805195526975869
0.0624001834659249
0.107887141585577
-0.0399674469256096
0.0124994516284838
-0.0516093189434385
-0.0709221699655057
-0.0294060983867876
-0.0387219227644597
-0.064785740238925
-0.00292557079177225
-0.0143568013207183
-0.0235465169254358
0.0249907585987998
-0.00390321293901744
0.0164127046533008
0.055593028035191
0.010920951612587
-0.0194634712984171
0.0504556830648641
0.00861125463484627
-0.0422180911080909
0.0532277680832627
0.046439976411455
0.0520067592527015
0.0481395067562755
0.0180528517043297
-0.0318761763886975
0.00615006513191274
-0.000723969613548087
-0.0734741788697612
0.0221660570471306
-0.0498344288540136
-0.0663425059558755
-0.0320222210655836
-0.046388978080412
-0.0703386739723428
-0.0109500071834793
-0.0176776260781643
-0.0442637843548336
0.0449466464608239
-0.0314582237808585
-0.0357189210855024
-0.00373356977331002
-0.0179876942389524
-0.0482507688282807
-0.0113074136368991
-0.0318365982769978
-0.0495708581203176
-0.00229762908381181
-0.021573791928306
-0.0341815885102816
0.00239224199865947
0.0466182918602525
0.00341471926668437
0.0186510028874951
0.0095444109833044
-0.0181894700986193
0.078085990473228
0.0188286249853137
-0.045840938667032
-0.00855130482859652
0.00495709055502995
-0.0174519390397089
0.0228245597238394
0.00755432424084594
-0.0867138014806522
-0.0283940561357366
-0.0161111226124609
-0.00603569044414983
0.0157627846177953
-0.00630418496778443
-0.0293844228471818
0.00945091139268879
-0.00625169547921376
-0.0628599836311749
-0.00702918656897052
-0.0334774965329216
-0.00273346714405475
0.0351764661758412
0.0115128679225072
-0.0603328966234327
-0.00823903014395994
-0.0224733868475116
-0.0059468327378976
0.0734595729564522
0.0129619564777399
-0.0562467427212918
-0.0285283360198035
-0.0210380459731999
-0.0351089222769702
0.00780314161125089
0.0106961685664603
0.033546674824757
0.152600960181684
0.0393305555505733
-0.0868233563967589
-0.105735031187312
-0.0595999534183803
0.0014618173718661
0.0607227759300535
0.042144876380079
-0.0443313648115122
-0.000610365818605292
-0.0335981126691587
-0.00433498117382354
0.0266246729713247
-0.00272192561905965
-0.0766886193638549
-0.0177111136306054
-0.0104573229671698
0.0106912618977759
0.092525529618502
0.0107613453633428
-0.039092750304433
-0.0659006108562999
-0.0594377743352549
-0.0404692464040605
0.0216323798621838
0.0245795988394125
0.0648503690383978
0.197335801828165
0.0657839856803445
-0.0660451933260876
-0.0819259812176229
-0.0361428352816079
0.0195880747853706
0.076467485679257
0.0711434077213755
-0.0482513350646629
0.0100236904845476
-0.0142583716867507
-0.0911599802633533
-0.142715019340823
-0.10084840724423
-0.0518920768187132
-0.0036973512516019
-0.0348187512208644
0.0452229167866493
0.125752396460505
0.037808027056824
-0.0123336812692791
-0.0450469141542643
-0.0411438595355097
-0.020477137926688
0.0451630430223188
0.0581472490669182
-0.0835395079058473
0.00455396730549838
-0.0259258513421704
-0.0267839684691679
-0.0691347584260381
-0.0330042475291959
4.38168023076346e-005
0.0286722804970384
-0.0704252467400454
-0.0325700668833525
0.0352094329869123
0.0279548147568977
-0.0579218282361891
-0.10710727883459
-0.0636997810311277
-0.016981006914215
0.0211651637816776
-0.0130697524879232
-0.019792544079548
0.0472705444452155
0.00676731504463458
-0.0232177347175776
-0.079587818050271
-0.0705561459426035
-0.0427874715622505
0.0426490564243919
0.0288137571857473
-0.0708734714878694
0.0251014030248528
0.00533338958065332
0.00228479991065721
-0.0392537842033932
6.72138726813142e-005
0.0255768664659779
0.0527272449345377
-0.0536657108068688
-0.0523499208978169
0.030633432409176
0.0363524708074017
0.0331484313004744
0.0105003809344016
-0.0176485971696054
-0.0187494401198361
0.013129214600118
-0.00164033170010823
-0.0374858510001587
0.0202735076505124
-0.0205319814944944
-0.0539775542892086
-0.111628827991866
-0.10035561364142
-0.0742527031613463
0.00608285505064981
-0.00724892201651519
-0.00871353048617849
0.0915266218007642
0.0356724574734545
0.00363940061504064
-0.0402437828509101
-0.0745429400966746
-0.0594848170894904
0.0983984944834899
0.166410660138575
-0.0759193780758839
0.00460014385964445
0.00890730447726472
-6.66101541972814e-005
-0.031619331982093
-0.053586476674718
-0.0547315168501832
-0.0255444624065062
-0.0423063053685369
0.0309314694591149
0.0514516673609376
-0.00519917909072915
-0.0242308463352267
-0.0341511770357525
-0.0265451500950657
-0.0248568958135817
0.0732907350933248
0.110564932525337
-0.033071066924859
0.0820497554826932
0.0311016645832578
-0.000526847355919277
-0.0438979680838915
-0.0762442181568556
-0.0609388922984177
0.0842969519062844
0.13518582001445
-0.0273857561310767
0.0224555077686895
-0.0309095297388209
-0.0491008513884846
0.00729540010345811
-0.0122105264704918
-0.0514178773985888
0.00916776787808509
0.00221837402574172
0.0011133415950228
0.0383895837396947
-0.00912897675627188
-0.0297551078963831
-0.0460786271260804
-0.0384832506358561
-0.0406028408464418
0.0573735130213964
0.0849000134010231
-0.0204969364547007
0.036244376228383
-0.0453796099014755
-0.0736281627137016
0.00521742010459576
0.0269661535987314
-6.77474289511579e-005
-0.0286509357271661
-0.0305112996229408
-0.0407241457397853
0.0492890554045645
-0.014459089561901
-0.0280303222194074
0.0343498702145463
0.00993892197399046
-0.0346464225735546
0.0228915105652026
0.0209232530887057
-0.0349935388484904
0.0470290793176697
-0.00972901357323608
-0.00880851419078731
0.0405310924107328
0.0206153366458737
-0.0217418354926858
0.00867661512766789
-0.0271319899239893
-0.0378973446904343
0.0572203756584851
-0.0334261632129524
-0.0579650475702051
0.0163006349999395
0.0398611791891716
0.0145434903624099
-0.0162589727192633
-0.0180624879058508
-0.0535575688788779
0.0518066226873744
-0.021142675926044
-0.0225107632305553
-0.00982013981300391
0.0134714337840792
0.000458813029799206
-0.00270537180724008
-0.0350214765479769
-0.0792006558988329
-0.0131609010849538
0.00170868235589099
0.0122806557271286
0.0455959404085028
0.0220381388949782
-0.00614235429333603
0.0259680008832312
0.00386287746769223
-0.030407145484783
0.0282844194073899
-0.00343673114320217
0.0298486128073923
0.070825302113303
0.0479155326784605
-0.0329005961620208
0.0160292706817397
0.0187406567390255
-0.0872359871178842
-0.062753128681411
-0.0565645871162595
-0.0270556941429123
0.00322650506390413
-0.0252190960648042
-0.0659084046388389
-0.0276954760056835
-0.00972332798146927
-0.044509228799011
0.0187781468598663
-0.0204774151312377
-0.0195131108842129
-0.0064861498118569
-0.0297809202488427
-0.0684234845153311
-0.00355176127648801
0.0126703100522202
-0.0211031223904232
0.0235271702828879
-0.0162558407983216
0.0138416749074101
0.053049778908031
0.0257104797421553
-0.0551162836460982
-0.00307930661058832
0.00948209965476752
0.026935906566261
0.103938907835774
0.0234110831408407
-0.0194193503052077
-0.0357392696119193
-0.0300200454228888
-0.0177030421336134
0.0424702941729256
0.0461825741638434
-0.0411151590258256
0.00344473786430292
-0.044122025586315
-0.0347635958486556
-0.0251376001544434
-0.046629261280102
-0.0826007605309496
-0.012747976565045
0.0134846813551847
0.01325387656755
0.0850597669951357
0.0132772853024722
-0.0354271437248125
-0.0876409443458911
-0.0522643011117724
-0.0352505731448952
-0.00476170526324785
0.0469629305398143
0.0461358510660023
0.122482376600629
0.0380530469721726
-0.0103938940721753
-0.029361510363461
-0.0264845088882842
-0.0145534008274078
0.0446849818901471
0.0582595981918157
-0.082627376778543
0.00594625884074342
-0.0212573483003962
-0.0185949857231973
-0.0519267245876591
-0.0172741159215957
0.00897915846627605
0.0326904682373562
-0.0629263141928344
0.0288632421936348
0.0959831923432133
0.0193436152869395
-0.026414557295806
-0.0779431037408737
-0.0439380596402091
-0.0248026358532532
0.00722660940700739
0.066057493268204
-0.100397514937669
-0.0389034950145717
-0.0418460747307918
-0.010086028422443
-0.000731050721124407
0.0662283597587287
0.0240821669219955
-0.0135354763733336
-0.118026411111175
-0.0745992894089012
0.0255108368002916
0.00553994149805376
0.00516180279457053
-0.0305571756112149
0.00421080051974458
0.0282784733123852
0.0497030839706372
-0.0525534734057001
-0.0526940536264892
0.0298032166378372
0.0323023802358703
0.0346851099192954
0.0123119729965273
-0.0117626936617143
-0.015036423740672
0.0191311145839816
0.000858127920562909
-0.0966645594402856
-0.0255830728854413
-0.0193552620438069
0.0160334451178298
0.0346143305565227
0.105784436583583
0.0517310637968726
0.00723262963862556
-0.110909759105149
-0.0887032244770378
-0.0423936966599278
-0.00246171657954051
0.0564126681411337
0.0947090425508737
0.0128621521354566
-0.0251240095399696
-0.0132995304886996
-0.0635845126790662
-0.0653440504543123
0.0186876632390537
0.018549830618969
0.0171707287339687
-0.00956010625632129
-0.0318191650713508
-0.0389089470442367
-0.0124971075782547
-0.0280844820141982
0.0294973376378434
0.0533085913007721
3.39158452201959e-008
-0.0150822450246001
-0.0164123838305978
-0.0144533238184927
-0.0244072289149055
0.0744373589217662
0.117686367742816
-0.109020552812194
-0.0631990875437777
-0.0210689822751967
0.0346771848438699
0.0604653516383646
-0.016508302514898
-0.0494001294605717
-0.0373891311852908
-0.0918507088482842
0.0399175160323778
0.030763141997826
-0.0143786017527211
-0.0196589009442967
-0.0483486408593067
-0.0760809575188387
-0.0435905662347225
0.0553676979605807
0.0840863159031414
0.0114632811389723
0.0524393375092268
0.00807987595719197
-0.00940647985317942
-0.0176982341520441
-0.0142868215205365
-0.0287288240919048
0.0639969456857572
0.100386485352069
-0.0070974708796103
0.0440018516973212
-0.0343222930924929
-0.0562561277755921
0.0283299527979765
0.0430436997857986
0.00996223911732034
-0.0178121494059094
-0.00826694363634512
0.0191220295269005
0.0208067698456841
-0.021734807614483
-0.0280971923606381
-0.0574926244704589
-0.077387496374445
-0.0446383710747419
0.054787990613853
0.0696337129525713
-0.0236808284137235
0.031754676449518
-0.0455473755202463
-0.0720910542447769
-0.0496204305966916
-0.0120473472985164
-0.0151263128662523
-0.0283803801244318
-0.0447871695861852
-0.013339306788036
0.0769394691875208
-0.00848074575991682
-0.0308249837479158
0.0522820960262687
0.0685883747761961
0.0372627865101616
0.00291521070503241
0.0102068713176848
-0.0424598534133275
0.0602850895331457
-0.00303901499368926
0.00270437927513017
0.0230549942481765
0.0377967391677411
0.0143706629710304
0.00448599847379006
-0.0252567708852683
-0.0362282341655642
0.0474534792036037
-0.0295476166191608
-0.0499114704541982
-0.0309060290193645
0.0174531082322184
0.0130335003483562
-0.00382413196102831
-0.0195922790696412
-0.0256878367233556
0.0349185890528787
-0.0466969513338207
-0.0715145456717008
-0.0473252154714261
-0.00031903245079648
-0.0133042640046961
-0.055152023278648
-0.0976504985731065
-0.0733567952870262
-0.0433522576594355
-0.0386628801805225
-0.00328755885456836
0.0316577645286063
-0.00244821394144786
-0.0519610716856336
-0.0168413489041502
0.00989186749617206
-0.0267841841687807
0.0412483573104413
-0.00622852776938587
0.00552757483791635
0.0224368367858051
-0.00648153046040932
-0.0568949718211995
0.00702595694300222
0.0389473154547499
-0.0281010223884846
-0.0527856612796978
-0.0551370390198064
-0.027008548858638
-0.0124166621719195
-0.0108529801834003
0.00573644173099514
0.00471781282448592
-0.0234379784515027
-0.0394276549165621
0.0231343085381129
-0.0308374050993433
-0.0144701684460777
0.00475176967426312
-0.00667986248747218
-0.0161903488204589
0.0253713606383484
0.0156844779694912
-0.0242207394338011
0.0211346349773918
-0.0284693708065231
-0.0151847734418771
-0.00236362427880237
-0.0266118688911762
-0.0684480078792774
-0.0024410722278019
0.0331141018710315
0.0246422002530533
0.0998670338451599
0.0247498241930489
-0.017701487135088
-0.0629280081013969
-0.033942185465082
-0.0205410616822343
0.00867867160392544
0.0718341648838775
-0.043489441168253
0.00416007478255223
-0.0563757961421072
-0.0375426506787801
-0.0202941916887408
-0.0270437705113546
-0.0365236889398899
0.00781124072415988
0.00423622428730866
0.0643337734283161
0.105085654878699
-0.0210378181310081
-0.0584396907770115
-0.034107717605571
0.0181707006023473
0.00801736536416358
0.00377882677773998
0.0633954843062423
0.0318107484599479
0.100624845842696
0.026855101050376
-0.0161473301544912
-0.0633705801249291
-0.0336249727852595
-0.0144123242584553
0.0166022218407931
0.0766198585993251
-0.0818285939274861
-0.0176976614007029
-0.0222713027754441
0.0100350889537342
0.0124926169735157
0.076224787657933
0.0425098734075682
0.00772630620571817
-0.0833192856679304
0.0645228972704783
0.106527972509644
-0.0181691847973744
-0.0547267662828613
-0.0276889121587063
0.029608094439312
0.0267971400191782
0.021643053252108
0.0708086897376502
-0.0851024970698919
-0.0537893616744236
-0.0532538942064424
-0.0870282107664072
-0.0323035703186578
0.0391859423262402
0.00655892265377663
0.00805783284513622
-0.0646857434588387
-0.0759323050492695
-0.00249664967309391
0.00228760248754661
0.0341699974615531
0.0423290845845864
0.105769231994809
0.064648077712522
0.025850509769136
-0.078189841382367
-0.0738452791088906
-0.0268319880890792
0.0134717982273252
0.0742203573312127
0.0992864409298235
0.0220189358907344
-0.010294556758113
0.00443434816572991
-0.0397723731903727
-0.073232547185202
-0.0361864115979207
-0.0197254762338504
-0.0513152299968049
0.00159333795743134
0.072195382718756
0.0315267354711324
0.024781343852767
-0.055068575709465
-0.0536785684872486
0.00849789279831337
0.0162624198613729
0.0180668349307604
0.0357694935748329
-0.022016770605279
-0.0444499220099425
7.41230573080943e-005
-0.0591762793351275
-0.0865676276290676
-0.0359365771785353
0.000987182475956844
0.0588433613783855
0.0808138108928454
0.00513526911604949
-0.0261849980363583
-0.014438536897519
-0.0569966027015008
0.052085127389798
0.0463460393923996
0.000994839899603348
-0.00517233091019212
-0.0293460714799255
-0.0552156128841201
-0.0300773184119129
0.0656888474684079
0.100908541201875
-0.0705261766908473
0.00171640822918419
0.00521024491484808
-0.00216175329831692
0.00343425822836142
-0.0528222898796603
-0.0672910621652334
-0.0193707130387333
-0.0772883328540843
0.0430174622718482
0.0766287232318402
-0.00726766435473328
0.0176558912695219
6.88784298721664e-005
-0.0609141531032843
-0.068081854015085
0.018873058648601
0.125904633305296
0.0365468257843957
0.0436210926152577
-0.00184787940026546
-0.00605702797713725
-0.0233693290236248
-0.0435303706940719
-0.0232509917066693
0.0735954144869351
0.0963360112717101
-0.0105501120715372
0.0476355875145803
-0.0342537382039648
-0.0541438687577766
-0.0197777038207924
0.0142022741944061
0.0087041192400055
-0.00870604304646079
-0.0185561257016699
0.0255881243531467
0.0711920975550918
-0.0104584294303848
0.0153652708757413
0.00530394976938037
-0.0510530884110557
-0.056408830629012
0.0267800841217297
0.1144291778968
-0.0344499139505393
0.0244374363489509
-0.0284569243380815
-0.0536606777202921
-0.0308894397054376
-0.0273180331232606
-0.0531211925825896
-0.03848361144758
-0.0511129462321374
-0.00744787061329272
0.0710539044525568
-0.0136108440602172
-0.029349810100753
0.00991078742112044
0.0514760535945153
0.0395426042019069
0.0190199003381798
0.0188584581934718
-0.00632374432006855
0.0500206632820734
-0.035046242949656
-0.0536568252057197
-0.0131586066776275
0.0328627701060876
0.00902805606644707
-0.0345743716366964
-0.0686258597731476
-0.0379716258990895
0.0482762515953744
-0.00660503088393591
-0.0251321589821187
-0.0077913424616778
-0.00202840191650124
-0.0332500569593355
-0.0236588675358587
-0.0264825019448801
-0.0170501911934113
-0.0079341567949402
-0.0172230753231457
0.000754160593118073
-0.0446737373528212
0.0155542381597346
0.00903292397560349
-0.0168557928244313
-0.0589967522963117
-0.0280046394386728
-0.0466521372769011
-0.0455940683129401
-0.00918421731912811
-0.000592686203789991
-0.000668001617353699
0.0152719397931801
0.0116078783475
-0.00832787647656886
-0.0355135062553625
0.036726335943437
-0.0229026877367995
-0.00359408090600107
0.00897800058669033
-0.000459617834398308
-0.00951061416697364
0.0378962512875925
0.0351255946741727
-0.0569607140722299
-0.0135308376246841
-0.0566435711060611
-0.0115116240001723
0.00645622980397598
-0.0374349452088986
-0.0246202643731758
-0.0345836069959639
-0.00789342141211939
-0.0633477907792049
0.011068261084778
-0.0291151454715344
0.00496176485491931
0.0273375312235929
-0.00433542552732513
-0.0381256034250315
-0.0306076418065044
-0.00180320189587401
-0.0333884397809215
0.0212044181032161
-0.0468424675096642
-0.0293612447494184
-0.0122673556739192
-0.0153196611187151
-0.0249667119606815
0.0221174680094502
0.0234106487694459
0.0723929634839086
0.112658051595243
-0.0139814229705052
-0.0527403739353844
-0.0282470159717391
0.0179261214252874
0.0108257328822234
0.0136666246241455
0.0833049010682516
-0.0585731430763491
-0.0114071282471996
-0.0522202081442224
-0.0266243323020964
-0.00286778327285978
-0.0305209344023577
-0.0606142830685129
-0.0455719007344923
-0.0132812647846625
-0.000915543372284981
0.0795221113513138
-0.0440660555165172
-0.0502954663462797
0.00621343180508939
-0.0186395916702454
-0.0453828904946894
-0.0283363081538113
0.0540200806694895
0.0676080175498416
0.109442078740134
-0.0110776254872481
-0.0480968960284354
-0.0208729103735345
0.0307000198416392
0.0298504096605523
0.0292908711878912
0.082389833681402
-0.0768444799335312
-0.0417876578040899
-0.0359936943169165
-0.0730782058116145
-0.0302391436716492
0.0338901752468364
0.00805420263824146
0.015007700372436
-0.0474574700868114
0.00174062327033121
0.0825654164550085
-0.0354308213538792
-0.0507478454880365
-0.00315252224791118
-0.0202762555123212
-0.0447721130778303
-0.0224264919477424
0.0470957781360306
-0.00498437489641947
0.0601078903445929
-0.0137050483256107
-0.0940865829241565
-0.0776384558010559
-0.0627923573667925
-0.0408142872354812
0.0209489778618577
0.0470208252499176
-0.0611696450152669
-0.0216688637243369
-0.00857617218739445
-0.0443625509406816
-0.00280511870813845
0.0596807262697468
0.0301626549148901
0.0331111922785497
-0.0370058142170127
-0.0442776939315931
0.0201475722069854
0.0262974870610598
0.018247817716133
0.0240498543624923
-0.0263435511194973
-0.0383190997788882
0.010438031520175
-0.043153559083681
0.0169130178232973
0.0745489099068348
0.00808287493177735
-0.0714349339983468
-0.0588694436089204
-0.0461734239665517
-0.0245911185216584
0.038070099424426
0.0599184086879312
0.00626255619577262
0.0742612103455718
0.0249629176066257
-0.0335297999671632
-0.0495253477200826
-0.0389719918522059
-0.0511082676801111
0.0351784798206704
0.0644740003398608
-0.0557858242117584
0.0173598845500009
0.0129013902651061
-0.000690136634857258
-0.00358955904314174
-0.0535119601316968
-0.0607057733421389
-0.00809881872792209
-0.0604105325909274
0.0573118398638601
0.0913103675678791
0.000673294947981994
0.0186682750460588
0.00255442590453391
-0.0520914320339033
-0.0597327199271297
0.0278837690147853
0.135764794556256
-0.00395860967804066
0.0737074889222286
0.0121213922540772
-0.0484227653884728
-0.0637939309571485
-0.0553219697732515
-0.06658837178125
0.0206164517301636
0.04349616536862
0.00291871178723792
0.0238910092188221
-0.0573619754584912
-0.047956911068684
0.00315818211696102
-0.00185337450641407
-0.0741603481742378
-0.0205471973564978
0.102882985917486
0.0448972759735889
0.0913730416532325
0.000415225051833743
0.0185377887671947
0.00894348773915349
-0.0418473391555692
-0.0483990720455775
0.0376920296941577
0.139303329540238
-0.0202298559275487
0.0481072951122208
-0.0117565985319729
-0.0435862886716242
-0.0232819650085061
-0.0220131960962663
-0.0396113884669916
-0.0209014791859032
-0.0176748775868203
-0.00400851917939685
0.034708155275039
-0.0518447970047042
-0.0334847841825273
0.0156625071786793
0.0162587719006654
-0.06359785204382
-0.0131247504853225
0.102491647215792
-0.0690928876588059
-0.0125570506176061
-0.0720544037993389
-0.057302359691234
0.00547848724219017
0.0239907127919408
-0.056090490266478
-0.0574926891939726
-0.0495596583134122
-0.0173776923516818
0.0692511652386695
0.0084445463400999
-0.0192734212043209
0.00501589697441595
0.0086319149930819
-0.0145001452981526
-0.00338061247343705
0.00397644493467618
-0.00910525988984957
0.00577149402829578
-0.00832528668915622
0.00963081998660068
-0.0272785933183045
0.03116446486232
0.030315394319865
-0.00574987979435603
-0.0421567203451527
-0.0738746228014412
0.000788373356013908
-0.0546777140375026
-0.0290134904957791
0.0323721843929031
0.0557021425310978
-0.0300575369104738
-0.041975857959044
-0.0267991948411942
-0.0376535917784661
0.022511846792777
-0.0342584473457546
-0.0017473193954458
-0.00399031843089083
0.0158796624662267
-0.0373317264920908
-0.056379547961704
-0.0371285091067755
-0.0373628434816114
0.00865654745344278
-0.0354172309574262
0.0142676876721415
0.0247262034556099
-0.0235429143813312
-0.0112964520517399
-0.0264202318276155
0.00886936763679444
-0.0545690181745645
0.0209480883638394
-0.0160003064518891
0.0180864369237548
0.0373667656063793
0.00781643157268111
-0.0216037122821833
-0.0150087835212227
0.00775485254008126
-0.0591638671497095
-0.019022301284297
-0.0892078353209357
-0.0633971918152233
-0.0107703215464352
-0.0203936439080948
-0.0815337971267956
-0.0829982003607821
-0.0431071731542706
-0.106305426295494
0.00447891210458322
-0.0310840253676074
-0.0525230226205404
0.00237122555943801
-0.000240450183713986
0.00553281297990776
-0.0196877821419366
-0.0595461048322464
-0.0463130609211999
0.00262272165370083
-0.036307087427344
-0.00621964173423426
0.0201013069008259
-0.00617606307935015
-0.0401378800646535
-0.0300916589863032
-0.0026735068052191
0.0141707245000292
0.0962901836643139
-0.0250264060026111
-0.0281884908906576
0.0258586070641962
-0.00142659312042243
-0.0304357457896988
-0.00896783650295462
0.0772094723609841
-0.0989569147654357
-0.00712421515207864
-0.0485062721486001
-0.0721758824751422
-0.014209381450909
-0.0151970076373917
-0.00943848834002655
-0.0279901847754794
-0.0586089691021229
-0.0229522480514252
0.0921826540774203
-0.0229476239854387
-0.0541797884972261
-0.0215117051468135
-0.0145457399429269
-0.0330829696494506
-0.027017179416547
0.02829229217944
0.0025547995442852
0.0884091681310879
-0.0313059135896464
-0.0450213539556008
-0.00284408468100255
-0.0236915881106345
-0.0467055031046302
-0.0222217707669271
0.0469834730086837
-0.00311758045058473
0.0668986197217908
-0.00730147239351424
-0.0889530413245943
-0.0785118778567701
-0.0674230437433513
-0.0401695055343175
0.0228087702225848
0.0508841984045949
-0.0295610794288325
0.0871932009004543
-0.0290373853258748
-0.065907777724896
-0.0312258702438311
-0.0230262596038199
-0.0385700324424047
-0.0295769809703853
0.0179834958408691
0.03795505565255
0.163083076950217
0.0536703156281414
-0.0893417138450992
-0.110735764245487
-0.0911238160739591
-0.0553707267279573
0.00426554581566671
0.0661956926044795
0.0098349599943827
0.0714787643715261
0.00396387152815779
-0.078834530944034
-0.0685461681414724
-0.0564575566041792
-0.0282079135772949
0.0333476908422792
0.0530218654799405
0.0048578244247089
0.0739443212122586
0.0222355134390401
-0.0328002004722814
-0.0549105627000556
-0.0500546204544489
-0.0555668451940593
0.0370667753338145
0.0608228920109858
0.0503368102806329
0.172333058862742
0.0638941548815282
-0.0804256948189217
-0.0918064589969435
-0.0678522981597657
-0.0355172124473853
0.0184004407259015
0.0691167572904843
0.000942046869981965
0.0629865643042403
-0.0233601222703833
-0.0564614594579459
-0.0824413368827367
-0.0875618668811763
-0.0385699180161979
0.084954363993616
0.12117615250565
0.00699323899634191
0.0822489604774871
0.0163770002132636
-0.044275036071565
-0.0646999174778578
-0.0586726236733845
-0.0648254949452463
0.02626461147939
0.05083110677856
0.00973223061856083
0.0292122167893965
-0.0509165893602434
-0.0440123847185658
0.00344799793041545
-0.00194082725875137
-0.0725829301066733
-0.0191224446565343
0.109422748935178
0.00167655919921826
0.0713158226743015
-0.030938596601621
-0.0710638466581089
-0.096483103376098
-0.0952960852416224
-0.0456981620319825
0.0793639033554701
0.108976403422429
-0.0232450791911339
-5.51124609400477e-005
-0.0782134063685616
-0.0551253850199121
-0.0180540373682262
-0.025942386843812
-0.0627135790984432
0.00298433444010148
0.0694783853629527
0.0181869370611666
0.0506238113716058
-0.0348951259852289
-0.0228425077337379
0.0270824156961245
0.0289547227125754
-0.0517141022049593
-0.00372244462458317
0.115812538556936
-0.0534836198655391
-0.00229899486445426
-0.0628604607559962
-0.0453588093834948
0.0148764190309158
0.0317450497939704
-0.0414750555723756
-0.0450976778970723
-0.0265774539639109
-0.0143384684993995
0.0210255749737155
-0.0680804571368511
-0.0399695492181527
-0.00552073139533543
-0.0115148738570876
-0.0498476537147941
0.0151999238495559
0.0730558280303646
-0.0899411940020831
-0.0132503118644425
-0.052931573928762
-0.0293794156436588
-0.0220931274484291
-0.0267581120180914
-0.0891183636527022
-0.0412418484360288
-0.0285769255360644
-0.0532607481995918
0.016360449645829
-0.0384392850862881
-0.0146972297414264
0.0467732575862056
0.0686139592725939
-0.0119939774862704
-0.0223365908826402
-0.00305140231063281
-0.0261843088068047
0.0313548321660683
-0.0243440659631675
0.00933397543862044
0.00556607535530699
0.0304439420860918
-0.00983598421515808
-0.0378307107986918
-0.00985848493954608
-0.0971083761807088
0.00127631559397975
-0.0357075007357099
-0.00158782486088067
0.00313797819781546
-0.000172551814058177
-0.0634837748135019
-0.0212459510291077
-0.0136635244879862
-0.0358202576971179
-0.00503631146427688
-0.0749068910249861
-0.0494636898577828
-0.0302867071742208
-0.0290194014216023
-0.0969198634203625
-0.0666991962375528
-0.0392666862330662
-0.0417137827482951
-0.00391273449576983
-0.0761646185103253
-0.048336016131503
0.00703032094872119
-0.00454296744009457
-0.06728772346984
-0.0693301205504514
-0.0226964269339893
-0.087933802614491
0.0196250388465199
-0.0176051189905993
-0.032152858970441
0.022668446148329
0.0204804327294956
0.0315917210744116
0.00672410802448997
-0.033611191406719
-0.0740327389962346
-0.0465148022712201
-0.0514470301816599
-0.00990244029864796
-0.0145822454872767
-0.0443777204611455
-0.0709153047774807
-0.0695684851466911
-0.0571582993702301
-0.096284249214615
-0.0116725723566918
-0.0334740172835575
0.0160947216019479
0.0521070994801934
0.00863568572431879
-0.0406988430837171
-0.00547259253109582
-0.0491297008883358
-0.0860612674604404
0.00485329863142289
-0.0372802205089923
-0.0585568947191466
-0.00320730550600112
-0.00438673696269736
0.00438506405246891
-0.0139891105884096
-0.0461143384782137
-0.00911498454945194
0.105487770132553
-0.00897855701692537
-0.0372610161270476
-0.0015462246994833
0.0069525105424017
-0.0138664727117977
-0.00930951714445022
0.0585329236603718
-0.096165439396867
-0.0287056984099157
-0.0557625667486564
-0.00643199998309302
0.0350654924303262
-0.00950551676459318
-0.0560107405834887
-0.0238968652810239
-0.0607686886258489
0.0171666711840908
0.0590722474822706
-0.00640912931713301
-0.0078121069678312
0.00401047948079622
-0.0489245279860791
-0.067100158749216
-0.0164550541473966
0.025778138850059
-0.0315401441417024
0.0846171224286727
-0.0293837667132984
-0.0683875615863409
-0.0375111019852563
-0.0268581871037036
-0.0401726225035786
-0.0350486774097527
0.0178509913240188
0.0413828370040619
0.171086620877865
0.0589543231011345
-0.0830041860526843
-0.105564280047626
-0.087899882565398
-0.0557482529361666
0.00300905189758249
0.078439517422134
-0.00802797349479556
0.0321833597961705
-0.0390448581271815
-0.0393576442891954
-0.0247047242237697
-0.0747986215009997
-0.0862699146857907
-0.0335388533751854
-0.000560240118531398
0.0692050929049623
0.131631090629454
0.0193316430768001
-0.077901084799451
-0.0709074525963124
-0.10977865859707
-0.0737562012641961
-0.00317262228824423
0.123646822710349
0.0378458668258932
0.161420428828374
0.0521208268270996
-0.0902956845451414
-0.105252342454703
-0.082966606141342
-0.049859938016654
0.00579518788771015
0.0624157823274716
-0.0157477381308399
0.0502010769052578
-0.0370037489555212
-0.0679433533641575
-0.0945678955925467
-0.102940453046298
-0.0494617011328381
0.0750624577515317
0.110590009637584
0.0683198654605377
0.131225017513491
0.0259035621439088
-0.0729066273386169
-0.0562813193575157
-0.0951504748298353
-0.0645998195542119
0.0018107148467121
0.108679405071628
0.0238388588420466
0.0727929301665447
-0.0237140037709792
-0.0415952260551847
-0.0716867061038067
-0.0779644395623228
-0.0752078572958376
0.037443075110455
0.107527273347286
0.00236304935982907
0.0758104839579058
-0.0299102883414694
-0.0664313326775332
-0.0908558795510333
-0.0939492115154726
-0.0418080091122551
0.0853264889849457
0.118545926116884
-0.0256427346450826
-0.00139978089707451
-0.0824996808012859
-0.0553167523724727
-0.0202064072082187
-0.0283029142581495
-0.0604836605616039
0.0035386348342164
0.0685081801618691
0.039590141131003
0.0922531403840675
-0.0178209848120201
-0.0439390047209991
-0.072584995949004
-0.0757554410345745
-0.0660308494792097
0.0452851203053813
0.116285686572941
-0.0598908696133334
0.0194871020786493
-0.0486947966752207
-0.0781450678182779
-0.0308532755996784
0.014672279010071
-0.0277861808803708
-0.0290308812502896
0.0205307162269738
0.00262459773674244
0.0361891439780697
-0.0596915740363226
-0.0267733853179765
0.012557205346297
0.00483966287607909
-0.0394616247055514
0.0208399002186079
0.0844268010649805
-0.0814685815453226
-0.00886462756488749
-0.0467441461634966
-0.0202079687743388
-0.0122704012311255
-0.0163019618118308
-0.0813247776918892
-0.033060157479629
-0.0153828012737958
-0.0427510583141512
0.0474316251083465
-0.0292759417060404
-0.0554192217122618
-0.00720360442143883
0.0411808662935108
0.00514990856926546
0.000831850562078466
0.0413171818282912
-0.0801134695340609
-0.0220289591177897
-0.0452267689355297
-0.0624873303972515
-0.0278160018439154
0.0145063350197241
-0.0364959987943766
-0.0603212546307249
-0.0542331665797538
-0.0646693642407707
0.0245414996592539
-0.00681241653493016
0.0262732936639629
0.0345137568616762
0.0296638548338246
-0.0436664609276452
-0.00115727872011353
0.0103725453497643
-0.0187743571389804
0.00792137774324681
-0.0580209936783176
-0.0297406433116907
-0.00807073542294615
-0.0116256722274834
-0.0830189397742615
-0.0505245402636762
-0.0167223793633881
-0.0719362920587038
0.00900098057771602
-0.011214183425514
-0.0277660999720132
0.00765048924037514
0.0510233672300192
0.00149807015528924
-0.0254982654817023
-0.020624693067265
-0.0349783396623321
-0.0184954732423178
-0.0805830769893665
-0.0703526409574555
-0.0479120916469789
-0.023130640137926
-0.0480331968723652
-0.0693492975964667
-0.0960131966802466
-0.055209078551794
-0.0291834979565594
-0.0332999583166604
0.00934099758533436
-0.00389912009485446
-0.0265639726512937
-0.0555277591453445
-0.0611005510946585
-0.0416228837063832
-0.0816715955211698
0.00721045269789209
-0.0204882714008961
0.0342320740692564
0.0739580155025016
0.0307122715440465
-0.0204592526732024
0.0220586888065524
-0.01884797180251
-0.0851608612697004
-0.0466508074067779
-0.0452207357803985
-0.0195383881998418
-0.0312267025685813
-0.041959488056036
-0.0743340952325568
-0.0463091803382774
-0.047886406352345
-0.0424485044335753
0.0203936505291629
-0.00351109777183776
-0.015614091095701
-0.0132101935755641
-0.0153842331508727
-0.00429771728171617
-0.00582655857240669
-0.00401338931453735
-0.0857614486423528
-0.0111453809311429
-0.0428234695539711
0.00668796303856742
0.0389774244449308
-0.00507450799811287
-0.0452835248786825
-0.00498999647213606
-0.0384756312887718
0.0225132837241152
0.0598607354942187
-0.00887746169742424
-0.0044738172089289
0.0199070331109243
-0.032218790219796
-0.0544448281226931
-0.00187287228867564
0.0471431528655824
-0.0514716881061742
0.00447962691322858
-0.0284532055296904
-0.0384515706295985
-0.0466048299264281
-0.0489057581485238
-0.0311733746690429
-0.0268029931938466
-0.0187189993353549
0.00709299949173
0.095366064347606
0.0432432611515867
0.0103712860879401
-0.0109231856287879
-0.017210117187583
-0.0227087727662932
0.0244264141437358
0.0528682950443104
-0.0161925645442022
0.0243919544969519
-0.0405794265513855
-0.0362650765639557
-0.017794754122047
-0.0681430538979409
-0.0840680920905645
-0.0367672349195308
-0.00700138391102518
0.0697414066331569
0.133209385819269
0.0198024875626325
-0.0792140740282493
-0.0744289553454538
-0.109945678712981
-0.0744039316323893
-0.00363034660087611
0.132633208861029
-0.0334986515903796
0.0541862496997768
0.00818136564406132
-0.0285767612633818
-0.0554568383170471
-0.0640296288491826
-0.0591720695448683
-0.0112239077444227
0.000549748652450225
0.0285719735122996
0.148957683233666
0.0850138838261544
0.0148637081213969
-0.0270277036408365
-0.0418637334651447
-0.00264989008416427
0.0785593596552057
0.121336851566242
0.0482275428990041
0.117984941213142
0.0157985868805191
-0.0855756627355733
-0.0727063022668796
-0.109350509796978
-0.0807358007658359
-0.0171866114029638
0.0794953020932097
0.000382190287509919
0.0527580894588195
-0.0379265717778702
-0.0559826619319158
-0.0897522287993398
-0.0946712421646845
-0.0936579257265738
0.0187622186425341
0.0834332225554222
0.00762123081476539
0.129052239081976
0.0732421974096424
0.00062610541264056
-0.0384778776631354
-0.0482646640287733
-0.00727833452693417
0.0644322377767414
0.0775482472354616
-0.00900439143545476
0.0817333859401902
0.0212575479850059
-0.0255362265508706
-0.0533579016094959
-0.0261336399043522
0.00880688399413081
0.0867279980398864
0.0914709473941322
0.0472049472708923
0.105983343021341
-0.0103038352657496
-0.0383780906810731
-0.0733053150106052
-0.0780561984900754
-0.0729753829726674
0.0385242567995548
0.116530509663318
-0.0653589863837167
0.0180806093698112
-0.0501279181265415
-0.0751089537125082
-0.0285981873836412
0.0167934460496756
-0.0283532209643194
-0.0347610774808074
0.00556303938417508
0.0272161158678588
0.122094418040487
0.042552098131423
-0.00984680646716576
-0.0369590670833824
-0.00930037419411712
0.0292758488903806
0.108040986345742
0.12804841008737
-0.0833513179490797
0.0023801418892272
-0.0245886744599218
-0.0606473868816787
-0.0413394896726606
-0.030195580100182
-0.0178795342060613
-0.00375368815496969
0.019595496232511
-0.02084213226914
0.0721596007547601
-0.0118430488735358
-0.0372333673305863
0.0109929671052417
0.0557382768323323
0.00584765400603562
-0.00307496000191786
0.0497881886654596
-0.068485174737568
-0.00741723253385913
-0.0303787468863654
-0.0460654426754739
-0.0129151209990301
0.0316517429319104
-0.0220949599813771
-0.0425803243649709
-0.0303196362141663
-0.0494004623740461
0.0533578779562943
0.0188243780994635
-0.0175241124824101
0.00625390193929671
0.00978716237340647
0.0202694947884303
0.0287022451728033
0.0622433684957337
-0.0606951237955732
-0.0318602377132093
-0.0365354379398805
-0.0436456089043558
-0.0676948960259548
-0.0416528745754504
-0.0387814420256607
-0.0346455568464869
-0.0197418862231342
-0.0524946491470019
0.027952735305244
0.0163561187227687
-0.0010091587202373
0.0393373530292175
0.0782511650714551
0.0132798683003376
-0.0119704818442865
-0.00815719427763342
-0.0225026392588349
-0.0121998521937791
-0.0755402999081254
-0.0520462864980628
-0.0283506889845994
-0.0100703363026825
-0.0362533778094645
-0.0553646253422522
-0.081425545488622
-0.0518377991534858
-0.00393069165891894
-0.000388543257381491
0.00285752237468348
-0.0126248330697547
0.00452319669841999
-0.00302786642746908
-0.00470161978192337
-0.00302047443757618
-0.0788293385767397
-0.0321177513537605
-0.036629155916336
-0.0291968261755138
-0.0181805488022611
-0.00613166112743747
-0.031309905184238
-0.0386970476586372
-0.0923606395807015
-0.0636122391324775
-0.0207389157804135
-0.0180077465151901
0.00490638453859127
0.00143877702226495
-0.00603303357705738
-0.0459809450491914
-0.0261334824446976
-0.0238761602615836
-0.0119529098368413
0.05796590272809
0.026100805548986
0.0167123304239922
0.0181029884812444
0.00763737740888634
0.0175132257406891
0.0219226907686237
0.0331455209675919
-0.0837636822974476
-0.0598708879328984
-0.0462019606185958
-0.0463485190873118
-0.0293500525810734
-0.0229249030998878
-0.0189500351674877
0.00655689008129638
-0.0294363757852936
-0.0760307226663395
-0.0407153735428728
-0.031347193078049
-0.00609152500579985
-0.0321980340931984
0.00276090825224569
0.0183046741511592
-0.00518756212801912
-0.00920047135974478
-0.0325670939234533
0.0294395639333897
-0.00362862050168927
-0.00969511958236786
-0.023326296412663
-0.0288316057640507
-0.00700190752866511
0.000245338629244087
0.00872331641062551
0.0262369898015977
0.112965217624818
0.0590534398097132
0.0303238820568916
0.00652288745740878
-0.00289020537392609
-0.00524687024768754
0.0454466262599372
0.0863154173782842
-0.089725555953994
-0.0626046792780997
-0.0582329480593387
-0.032447621195735
-0.0745594418212408
-0.0446313403865901
-0.0148842083289701
-0.0252914207137734
-0.025808060476794
-0.0875667923168176
-0.00527068155161262
0.0359377188093319
0.0514891929393625
0.0459914425267697
0.0555875610818476
0.0360885813263538
0.0249398108471198
-0.0297782373540587
-0.0322223570594408
0.0580436337440646
0.0175474092743328
-0.0181002808787103
-0.0503353124334942
-0.0544205134713811
-0.042329625196824
0.0054276193321662
0.0104189072457177
0.0227669311036007
0.15511633473587
0.099283264014405
0.0256912915199089
-0.0245516326239911
-0.0372140258247869
0.00752552778533905
0.0846945734759765
0.12641323017045
-0.133022874636022
-0.0576950590895675
-0.0156716983790538
-0.00405055605333892
-0.0249321737423702
-0.00995170478913376
-0.00866518423548305
-0.0162098291192059
-0.0892744491426133
-0.0703652925196255
0.0399817527230608
0.0533152314260206
0.0551398159747922
0.104396975045392
0.101251160111274
0.0712712113769657
0.0297391253229556
-0.0282836776357147
0.000964233683901389
0.127442248105383
0.0768271831058564
0.0026878601619305
-0.0379445893011001
-0.0450988822702635
-0.000553105390246877
0.0692562503311816
0.0748008683247465
-0.0198290018132788
0.0829659547206417
0.0240075123645288
-0.0247144494497364
-0.061572280148641
-0.0282208731294632
0.012061762652349
0.084634785922654
0.0807857956762631
-0.091784438675279
0.00877017924767909
0.0261894494934906
0.0233119371838531
0.0717073936982002
0.0750816627017142
0.051692269102373
0.00806259536154118
-0.0648024568837771
-0.0999529246156253
-0.0298190337548406
0.0288293548250324
0.0439644564994279
0.0508180660886995
0.052097963302893
0.00604410412107659
0.00642527041679524
-0.0699243296651457
0.0394408133702297
0.142336382128424
0.0604714488750753
0.00820883686340163
-0.0262677907668972
0.00788181130456613
0.0501251768091743
0.126701716226603
0.143788733019278
-0.075577910622965
0.0166995501607825
-0.0114347948423458
-0.0514337203689559
-0.0371332332005968
-0.0192152259328868
-0.00556581082950781
0.0091457645583077
0.0383960438802385
-0.0619014013265054
0.0101341585982508
0.0597207183524274
0.0710687469431259
0.0893659568188603
0.0930373370665545
0.0447781845156604
0.046973318658253
-0.0231499930174197
-0.106962422070795
-0.0497717332966285
0.0116097273495357
0.00252054025830763
-0.0188902628808326
-0.0428038698650118
-0.0456771803268964
-0.0657031607603482
-0.0989633841103737
-0.00564140460057765
0.100647626630073
0.0549180162147714
0.00959306087602913
0.0369037102285954
0.0502172326709227
0.0530570968633987
0.0620881007057307
0.118949602430795
-0.0282351577213531
-0.0005361745754629
-0.00821853282608519
-0.0164190197585158
-0.035695455513986
-0.00460260694354992
-0.000759220433611681
0.00429998023397341
0.0244147544794017
-0.0603445528359392
0.00865012221246936
0.0657929477398876
0.0628875420839142
0.0642314515084258
0.0323985045170022
0.0115740497015008
-0.0160206061972503
-0.0430821074437748
-0.0263511426329394
-0.0443306234250788
-0.0685174918832203
-0.055765021293124
-0.0747234753198968
-0.0624226799902748
-0.0512217605775331
-0.056026332012344
-0.0840507646717054
-0.0102561877604393
0.0340771735291181
0.0324416244225709
0.0289210334030903
0.0243734148753575
0.0498506917912062
0.0363363176710344
0.0347594424922681
0.0440358357468046
-0.0438918428909434
-0.0106114059736374
-0.0162486136025362
-0.00719751480971242
0.016105659863245
0.0284537205735867
-0.00458109542667751
-0.0114765032029347
-0.0643395185656698
-0.00770874426333189
-0.0191123319613691
-0.0379690086638081
-0.0146770545970481
-0.02039578061401
-0.016535610485192
-0.0227968325513334
-0.035530309476789
-0.0746504560448871
-0.0570356529140451
-0.0151937173035565
-0.0317139711386106
-0.0179000686369867
-0.0186321810881561
-0.028682871196623
-0.0286488479205946
-0.0401987989994574
-0.0768333895182053
-0.0549470357544143
-0.024899056915408
-0.015998388840129
-0.0227594617263215
-0.0103006082011724
-0.0039671662993454
-0.00350771959072839
0.025273763361945
0.0070751796302085
-0.0417522747348856
-0.00683422146912029
-0.00598493273061222
0.0231974909810401
-0.0157539005364254
0.0176112008183552
0.0419477806013161
0.024745048406388
0.0389253061899267
-0.000375954789583767
-0.0470162131099854
-0.0386628712331602
-0.0108770488809703
-0.0285997181336762
-0.0617610505156265
-0.0291162349026919
-0.00783382365560985
-0.0209090648691758
-0.0290857803672789
-0.0814556009752865
-0.0226759895952174
-0.000949069295376521
-0.0450046054273042
-0.037244228567503
-0.0172777471946029
-0.0193517870218863
-0.0238967586096837
-0.0413843889813883
-0.0100296431815424
-0.0160956723562172
0.0146392201115193
-0.0242284405571499
0.00730189859660206
0.0344878781079653
0.0252123386777502
0.0423205241676475
-0.0418582119201314
0.0474016487983372
0.0801731544617601
0.0941848056595519
0.0883940490077293
0.103076421441351
0.080755585076978
0.0652057914440221
0.0230694066151097
-0.0361595269376426
-0.0835365233970523
-0.030829982805068
-0.011760105024106
-0.0575797097614581
-0.0546089463208203
-0.022903314543971
-0.0178880285749068
-0.0217370091925776
-0.0904802858567022
-0.081650194427883
-0.0408280685432017
-0.038511587898711
-0.0550677938706935
-0.0228825207321801
-0.0214467195778615
-0.0166790218022826
-0.0884127711980408
-0.0634879342595559
0.0257610109639583
0.0637475356038661
0.0703466420121302
0.0559550676983802
0.0722709642866716
0.0672992667519513
0.0547565677405261
-0.00462904629229043
-0.00595116858349279
0.126949100758488
0.132250818259079
0.130634156148011
0.197133002728863
0.18928518038299
0.147609837661627
0.103729511629486
0.0560570713615461
-0.115390524777335
-0.108926905270832
-0.0719695461797273
-0.0675816300856979
-0.0902124522748041
-0.057347806496965
-0.0443065902774063
-0.0349055034253764
-0.116590792223171
-0.111840025461876
-0.097994087581729
-0.07208949412676
-0.0499533918013705
-0.0463280755264949
-0.0163548741577406
-0.0142016220683578
-0.0529214461419935
-0.110672261935155
-0.0199131369413539
0.0988326032073328
0.10786998215581
0.107806846603633
0.177236478809083
0.173881415175385
0.139838121336552
0.095142091889916
0.0329417231357115
-0.0294151842130956
0.0563311285180453
0.110190056376682
0.12862772294593
0.146907653122468
0.142240290066658
0.0799047675563355
0.0863791749244852
0.02376187480982
-0.116493298240867
-0.115624050316446
-0.0847395409640485
-0.0636822308043239
-0.0669211514008113
-0.0366458410028652
-0.0247144816251384
-0.0592261218250332
-0.123162655327409
-0.0896176926456373
-0.0856829884687031
-0.0536232380193215
-0.0299536002026287
-0.0433633907856864
-0.0654770685608853
-0.0699603400622824
-0.0757441629844686
-0.140377074501892
-1.69597841041771e-005
0.0832587826712578
0.129368778161113
0.147288329747927
0.181870456787888
0.177897648205294
0.114584085335384
0.123223706449216
0.0664755992784972
-0.0535185108466318
0.0158001440296002
0.0759578061577767
0.068779003588502
0.046669230674162
0.0216188314643184
0.0187507724783388
0.00382048539117621
-0.0162012429758526
-0.078722595832049
-0.0735074538893036
-0.0437571286704575
-0.0144171969246162
-0.0139107710145079
-0.0387605220268495
-0.0498692176466612
-0.0531411038580374
-0.115474934790824
-0.0516490165115212
-0.0514951772289448
-0.0473213067790812
-0.0384459294945199
-0.0407660799036041
-0.0692306057580221
-0.0633207807139029
-0.0439530879569066
-0.131960142986839
-0.0152146838478315
0.0571037364510848
0.111104055260774
0.109438644160505
0.11294871048724
0.0805862992772529
0.0616403009035406
0.0389177615715182
0.0186905839812152
0.0125172325407092
0.00309513897438341
-0.0249961004193799
-0.0115899488594817
-0.0309810817106356
-0.0145666334224945
-0.00663112962966461
-0.016749179430978
-0.0316965688366488
-0.0240872935679369
-0.0197809208890447
-0.014480283004421
0.00119497359464577
0.0143155475684386
-0.0223061642320731
-0.0244028772108201
-0.0084013817321934
-0.101167165899349
0.0131534047189776
-0.0206635612875324
-0.0397000238842381
-0.0320774905334901
-0.0407631637510636
-0.0284616633390222
-0.00471271399349859
-0.0179047162478057
-0.0842433898922308
0.0255620976986943
0.0163302111875633
-0.0098662562508117
0.00922494081874306
0.000258497249198752
0.0149039889287313
0.0124195925133226
-0.00224585047942247
-0.0276525061337824
-0.0396518476381522
0.00166051004810303
-0.0162852862618298
-0.000350940553146203
-0.00324026019796978
-0.00791061282043975
-0.0114810799211999
-0.0216101476704499
-0.0513659392789766
0.0324894046717609
-0.0128943072575159
-0.0325961182958514
-0.017039888073599
-0.0198256199307805
-0.0090533547873348
0.0120437977837509
-0.00575247160860809
-0.0899965995206594
0.0448964870292262
0.00493925720300347
0.0181497008737392
-0.0252538621800383
-0.0398836601464308
-0.0237273607910434
0.00111009758491324
0.000818001456707151
-0.0470789233292163
0.0332021549798313
-0.0198679320278104
-0.0190206521684522
-0.0020805893139459
-0.0370601015167517
-0.0667712865070558
-0.0248805504751369
0.00436146749011116
0.00599163653267819
0.0030786288520893
-0.0671782195346248
-0.00215952736692247
0.0132904158881084
-0.0492032187503949
-0.0306907295482406
-0.00187870994753548
0.000861714630852476
0.00262390650411835
0.0694628413236956
0.00421941514128676
0.00861312818448061
0.00552726842862481
-0.0502596500171622
-0.0484562423227554
-0.0080588657555634
-0.0162480422433323
-0.00349302982319347
0.0313823937951467
-0.0840591667982496
-0.041410097592016
-0.0273421499808954
-0.083149450564132
-0.0840593232384705
-0.0284702769985759
-0.0281473083360104
-0.113521088895234
0.0252602025221549
-0.0353769593433073
0.0255286950070134
0.0422499787520419
-0.00542135446402357
0.00342511785334776
0.0273488339239825
0.0325294187066729
0.0378977066849705
-0.0500191930884268
-0.0396997783664317
0.00543611943553089
0.00479442971964041
-0.0153876845574985
0.027622781996406
0.0226036964892829
0.0242816372211693
-0.0458492670165475
0.0567736831131258
-0.0667174682804609
-0.0306064154347185
-0.0128120013558933
-0.0504709556532242
-0.0497271221188502
0.000682522490784177
-0.00236532086525623
-0.0816234851109728
0.00171569809716014
-0.0971682026513165
-0.0383296232620142
-0.0208871438150131
-0.0483143419041634
-0.0324070828174704
0.0044727892499608
-0.0157668640572361
-0.112397334974076
-0.0448522055936925
-0.039339107130777
-0.000908107393234636
0.00499285096487763
-0.00936537214487864
0.0339895021434794
0.0340920636402459
0.0351281029484053
-0.0427292593351028
-0.0556337503712569
-0.0265679381515592
0.00107229144174434
0.0264939694969908
0.0448443544337791
0.0835096215547469
0.0727181091016982
0.0175377357040907
-0.041250273056552
0.00504382200941331
-0.0928235415031486
-0.0391749529683737
-0.0240352371413465
-0.0435907505119599
-0.0258887713263114
0.00782744632278056
-0.0134724749860281
-0.117728546261956
0.0646935019275748
-0.0223606492940229
-0.000690668241106926
-0.00871268928519741
-0.0322737411594719
-0.0166862710506458
0.0178501198990098
0.0348232239791059
-0.0528971024731318
-0.0650408198663568
-0.0465349286564228
-0.0206061721738415
0.00884259605781145
0.0166856547644538
0.0537648937233586
0.061063150924246
0.0147032390932911
-0.0506467149436526
-0.0359441018558434
-0.0177571740872145
0.019179602072538
0.0565277915865577
0.0427467046600843
0.00798518502775535
-0.00427602716479125
-0.0120745776944128
-0.076123069117211
0.0494567030084984
-0.0384531135236945
-0.0166639249012892
-0.0194571338587807
-0.0455387107334242
-0.0342536506620184
0.0117270162312215
0.0306094526649821
-0.0667472662212915
0.0387003342066005
-0.0189844870109517
0.0348226756866228
0.00968767957387385
-0.00741662095684212
-0.0132112907955726
-0.0293620635489156
-0.021422767486603
-0.0720666915399629
-0.0327355302483044
-0.0155187240474242
0.0170711079085888
0.0652065422322144
0.0680059103959698
0.0297866531064141
0.01217353243929
0.0059866119643273
-0.0625707277951592
0.00970061963286081
0.00310816694063954
0.00579222571868621
0.0198664778289225
0.0185809368027096
-0.0217938350113046
-0.00518623995828364
0.0185351492190395
-0.0681810735344631
0.0485960270329639
-0.0105824742528147
0.0365250488070418
0.0125207419267718
-0.00104179648109528
-0.00722186034216324
-0.018064530989977
-0.00909926902836803
-0.0604006633416981
0.0345270876641192
-0.0800484562373249
-0.012133463615192
0.00116427630582629
-0.0234457458758724
-0.0138388217462119
-0.0254419183352106
-0.0131182025534794
-0.108553911785094
0.0104769799646811
0.00980472843653392
0.0114297151337467
0.0304380039827675
0.0478095417266743
0.00330701747896825
0.00923371642860658
0.0275573723497931
-0.0697962037969934
0.048064202660192
0.00778424480181548
-0.0164047567855003
-0.00996409868816717
-0.023930377862812
-0.0122786404109436
0.0216618666488522
0.0137166443345254
-0.0523570980992847
0.0348790303532543
-0.073460046961328
-0.000374427850563188
0.012620060831753
-0.0121497825893702
-0.00383431539962986
-0.0104335733033172
-0.00375842557185471
-0.1105435362796
0.0567642677759722
-0.0249154982665272
0.0011822728438155
-0.00913814719378532
-0.0622092238579585
-0.0473327427120026
-0.00899721301046986
-0.00217043689294036
-0.0582240051471672
0.0589157895965632
0.00354258004029956
-0.0240855263321487
-0.0131222684364991
-0.0233287947955667
-0.0153311107172774
0.0215134059351506
0.0115990574252046
-0.0742831560398645
0.0656601678553606
0.0142006515121008
0.025673255258308
-0.0253734256010872
-0.0529549242348811
-0.0423701565525659
-0.00305063983359597
0.0141206853658912
-0.0211031388072437
0.0603195482552337
-0.0379504925136022
-0.00640035734710404
-0.0149170367078031
-0.0771393807467086
-0.0621565635195985
-0.0157557797676888
-0.00412318981318419
-0.0666382986222468
0.0932082039977029
-0.0141689653989106
-0.00441211322056354
0.000790101900754694
-0.0561500796379788
-0.00777070929021252
0.0325460872221324
0.0295831856437115
-0.0401165175494935
1.3934131000
