4644
0.0760723228206682
-0.0980671925880023
-0.150634306624985
0.0467047607934076
0.134075763796808
0.0842886937937466
0.0527460907514624
-0.076086210632013
-0.0293675216463821
0.0795968574565644
-0.00245007231090001
-0.0897656037702389
0.0581725765017681
0.0816745718299582
0.0523650221281061
0.0319349613448152
-0.117953431622929
0.0479326365810179
0.0447378414895927
-0.00163277050070482
-0.0532276962540997
0.0657056842396958
0.0108971328554043
0.0302777559020673
0.102171633294541
-0.00393218823671629
0.0488721084595452
0.0191397493193555
0.0163040187392799
-0.00692628909503556
0.0521248601947116
0.0255635723124267
0.0224880573084627
0.0211254525145583
-0.0127750244142648
0.0325661345968785
0.0861666260252348
0.00351363141137886
-0.0897316552461214
0.0597742277340442
0.10146816414173
0.0591971797045903
0.0265415779251576
-0.108739804715067
0.0435762810007054
0.0773066671274603
-0.0454488436056654
-0.100212102004689
-0.00605348041787659
0.0480782847737882
0.0143245599532229
0.0327005858526172
-0.0320643776790772
-0.065410156097776
0.0406098016217438
0.0250299021966514
0.00302500096979598
0.0796463221026113
0.0369788705910975
0.0308446313672047
0.0255143594911845
-0.00733334864227536
0.0337649852393445
0.0234145841452452
-0.0289113707855924
-0.0386057309294994
0.0434824773803281
-0.0120328425044759
-0.0212879994982228
-0.00715645518475699
-0.0411037628693197
0.000597124262589665
0.0817663846135168
-0.0297327340345295
-0.0720962075804809
0.0250033144053988
0.0907892687135184
0.0528257797634588
0.0545093326624658
-0.0124891472629556
-0.0579478264918354
0.0809390241403492
-0.0635526128653222
-0.0881576145888583
0.0765747961224195
-0.0714699734033629
-0.0062890531337195
0.0854785029553107
-0.113581516300579
0.0452190374485954
0.0384440987102146
-0.00891779275363514
-0.0132020420113912
0.0755815187737258
0.00561843329314012
-0.0192949373563488
-0.0113922710162291
-0.0328943248679318
-0.00375196411116743
-0.0309005078936571
-0.0925387898573253
-0.0272742128180327
0.104075070414686
0.139220689354803
0.0489984291189865
0.0109366213910604
-0.0808861179432974
-0.00783179281881264
0.0935209130462683
-0.0512529471275683
-0.0764473900162332
0.074614558295737
-0.0650142008765244
-0.0110173841466677
0.0717281362860704
-0.120398188155227
0.0155116870206641
0.106324585288577
-0.0460651409959467
-0.152317366375668
0.0556552662034546
-0.0305202616127475
-0.0177542761386126
0.0580012133061955
-0.0896030480342749
-0.00894722586726236
-0.0106528277931708
-0.0667641044928117
-0.0121703166509845
0.112820303888248
0.146035687107881
0.0229891042401268
-0.0123852432207684
-0.0935619562755463
-0.0286527830772551
0.0154301925242864
-0.0519839046948925
-0.114996613966364
-0.00593131762279137
0.0490615993380261
0.113547896800725
0.0785630614367417
-0.0217170635985323
-0.0451967733260603
0.136007902152334
-0.0347420312464827
-0.151438578143998
0.0722406881407055
-0.033185479407018
-0.00848159826767885
0.0720890693921683
-0.0860633521675129
0.00482287551309102
0.0284896876798282
-0.0486761074091526
-0.0640862310579787
0.0759579780789492
0.0533577466083452
0.0717935813717808
0.0226640137888239
-0.0696037801547159
-0.0222409590583008
0.0128178385150844
-0.0383303211828152
-0.0900574957924767
0.031455012263062
0.0697480947290876
0.117778484410953
0.0779763460928322
-0.042670189811057
-0.0599779001330831
0.000884898349802073
-0.0014522893252125
-0.0461044444537318
-0.00963678510097432
-0.0282005778408939
-0.0368099971841765
0.0358816376444609
-0.00260906655455124
0.014531600425412
0.0266982771765743
-0.0609284302795368
-0.0851995066804452
0.0599514976219899
0.0258255976212428
0.0587053782058572
0.0206216824823189
-0.0678916129606806
-0.0184106375042133
0.0583008744427693
-0.034615984865969
-0.127678560410703
0.0600567993389421
0.0195199730395556
0.0949702154765135
0.0317383264447524
-0.0473464971989104
0.077951052243038
-0.0230271689600417
-0.0135214181549529
-0.064119608702706
-0.0320186576328877
-0.0382220352419516
-0.0576018386605745
0.000199565958417979
-0.0163300721476974
0.00343593046848503
0.0818674971076849
0.02618073051564
-0.0465892904439992
0.0395320444769554
0.0192205946065258
0.0303158603921692
0.131471821485486
0.03918927531311
0.0454631177215226
0.0621494552742518
-0.0442223820787933
-0.152116379313669
0.0423716157524576
0.00490506823065603
0.0766946145396797
0.0261049571897554
-0.0399305390830534
0.0607538412824179
0.0251228561765336
-0.09940003242678
-0.11595398325934
-0.0107482189875641
0.068577571070026
0.0873735733793396
0.0833272732777735
-0.0770514200234816
0.0375461978945564
0.0589400447294839
0.0130327873590016
-0.0733024108438545
-0.00629292121739491
-0.0154373024465933
-0.0069342840216016
0.091911902733085
0.0137000662149752
0.0184128560668542
0.0483253617494717
0.0342453018451452
-0.0573393826847073
0.0559139328465396
-0.0241127123141923
-0.0120063757993402
0.0845053679425502
-0.0144037658591234
0.0322215456237232
0.0598424940616261
-0.0362742582748411
-0.0502872228826806
0.0778682896915683
0.0163383351910526
0.0497754235743891
0.0849437526217556
-0.0418203070433265
0.0125113745971977
0.0291777845722469
0.0217007865686163
-0.0373594553663853
0.0710880974228032
0.0356104005974441
0.0175264219617003
-0.00544256608159321
-0.0239655660711077
0.00993737726332922
0.00173556028665666
-0.000249538417182851
-0.0107810630757665
0.0547534130618745
0.0722223632705583
0.0705667642964298
0.0433148553013479
0.0826844043860647
0.0216323256357296
0.036377874435704
-0.0248370378123267
-0.0597801626349535
-0.0430241358323876
0.0269704602885599
-0.00755646114523245
0.0278505091213906
0.0106838720567588
-0.0200380020413269
0.0463887987028167
0.0291479433550483
-0.0320933507122157
0.0876949621648853
0.0654418794459154
0.0531114833575221
0.0218786830414189
-0.00782626544627427
0.0249059180229434
0.0387501233681408
-0.0249826158383662
-0.0344843052555045
0.0486528455602162
0.0374518062581465
0.00935628485834481
-0.00317045728733514
-0.0411667002332013
-0.0266858179616145
0.057635144505047
-0.000750606840653319
-0.0458316690281331
-0.0154607941221584
0.0486259650712554
0.0195118043201263
0.0522813882572725
0.0367907858923993
0.0258499168477774
0.022289944658539
0.0654188012468253
-0.0433880380477337
0.0118044300572286
0.0355344626416919
-0.0264412149928814
-0.0199928964705612
0.0174278282603467
0.0957276541801044
0.0292761964234171
-0.0397203683114711
-0.0498862001505134
0.0157210695091369
-0.0024999423772077
-0.0261638517515656
-0.0270966959423709
-0.0387533721460372
-0.0470639272242176
0.00197659809033367
-0.0978002813866868
-0.0171880332887747
0.122752223598395
0.138261303833518
0.0354569269777616
-0.0542056332880439
-0.108299971208627
-0.0248981275802081
0.0316781944529365
0.0749460335634196
-0.0385420998625421
-0.013334060708879
-0.00147081774391574
-0.0899110043491889
-0.0767899079615771
-0.0181874632972813
0.0495883376114484
-0.0105907356834769
0.262365335773396
0.14844969725802
0.148698683183575
0.140996949439181
0.0323664689398785
0.0514920151677134
0.053064428847501
0.105138534418251
-0.00709311930325081
-0.121606687787709
-0.0593060200087808
0.0669691138033496
0.0977334119746308
0.00241338168216983
-0.0682406993538209
-0.113783321087092
-0.046313466936743
0.0470539947703998
-0.0759963159177376
-0.1305212433313
-0.0546855654154516
0.0509005202911988
0.067753766676019
0.0202291732322028
-0.0674730659431279
-0.10932630162338
-0.0402973159863499
0.21409781601069
0.114811352556588
0.0891944596864309
0.0805833734684189
-0.0325426690418632
0.00277965944130666
0.0267523019577395
0.0648376005056931
-0.0387906988514529
0.0751018036469613
-0.0331470001130539
-0.0472754401157198
-0.014130199691532
0.0760351576136024
0.0947740234431161
0.206947549051442
0.153570986468842
0.0671257095214498
-0.0618612037629391
-0.115290260340471
-0.0130908734346334
0.102551012526146
0.129100516965624
0.0766465096910803
-0.0353102605986801
-0.0821416423237152
-0.000849304461981278
-0.0317093820161741
-0.0799539740090533
-0.0355252380747725
-0.0230398637394664
-0.0225272525193763
-0.0118649087616717
-0.0505085883343906
-0.0310189187051448
-0.0100499998853084
0.115065799475646
0.00548074417373495
0.0141102353264355
0.0468187459036948
0.136431497738413
0.143274781344415
0.23455699804724
0.20241024669408
0.0299151726419235
0.0269890707774622
-0.0940948691799636
-0.0127594876330565
-0.0588838447144852
-0.010668875606797
-0.00770576108162731
0.00883068980339016
0.0651425849996772
0.000136027237697169
-0.0372125383348839
-0.0829865763089843
-0.0208929813393266
0.0131019728480849
0.0279877700967101
0.026907384189598
-0.0258111946789528
-0.00881694184021257
0.0760071382535044
0.0226377401377817
-0.0360705385733163
0.0718764858132495
0.0374795694645705
0.0514020534746475
0.0822084262314627
-0.0201682108160044
0.0142234911816649
0.0280521510283271
0.0509603617212708
-0.0715394895356242
0.0272812115537859
-0.0228478251294236
0.0174280408099708
0.00938160957247704
0.0303037337133892
0.0714410693055982
0.0295990695520936
-0.0252873651576971
-0.0263329965727116
0.0726350124181951
0.0261188514261273
0.00605912905728583
-0.0147866180916858
-0.0263105818254296
0.00565954879952149
0.0626323099089165
0.00787807838142979
-0.0590118460935475
0.0411733754650008
0.0141236112533912
0.0360122930932818
0.0739281486527647
-0.0231331872879759
0.0218745664921105
0.0472974788555185
0.0171254341014994
-0.0660859624300669
0.0865415764690091
0.0152423048563089
-0.00873418252049728
0.072620105655791
-0.0392944236000298
-0.0279093946910651
0.0143732789266122
-0.0494780232374258
-0.045202444220887
0.0508421345118811
0.00440861663741033
-0.016833276292742
-0.0354174585499091
-0.0419371658428026
-0.00620773570272497
0.0150650977067432
0.0142180848324996
-0.00469913460412962
0.0254042047901763
0.0625306500516565
0.0485145436081803
0.0486535252764238
-0.0309329451022582
0.0487057137533743
0.0156933687294595
-0.0305576934459876
-0.0158060634094408
0.0274316797292016
0.0657149999649939
0.0850388223897232
0.0420755608934425
0.0728222187168778
0.0203505317687373
0.037419738513632
-0.0277409341508614
-0.0504248705441849
-0.0362439504279451
0.0571857739489889
-0.0156167675239969
-0.00476657499452665
-0.00336097984375137
-0.0323996126586807
-0.00213079147763954
0.0286981885430686
-0.000568841361404104
-0.0088414056980803
0.044560418379196
0.0943227062092459
0.0845075878299955
-0.0169878568069933
0.00304265054509256
-0.0537118581179223
-0.051948110348788
-0.045316577284454
-0.0322926307250343
-0.0285687283001437
-0.0215244585884006
0.0637625511248149
0.0233208875113565
-0.00487772314261489
0.0474625995733212
-0.0112944500258279
-0.0383189119471285
-0.0162122068286501
0.0842211472706422
0.0268727538437863
0.0285751297332058
0.0365574160805573
0.0130267019131328
0.0248882402803271
0.076836733518534
-0.00157489230323886
0.0355297941422985
0.0656349477901245
-0.00876378744824135
0.00480157419316407
-0.00891581569955098
0.0612819613493858
-0.0216221202073842
-0.0110209970809702
-0.00855385674726974
0.0157268192850394
0.00815218204431434
0.0127420313967179
0.0783792051414476
0.0334325669629809
0.017911069563405
-0.0954840903151707
-0.118767585268283
-0.023566392122194
0.0453613043357199
0.0263196299864081
0.0172197026587812
-0.0433113732540708
0.023067533351719
0.0418785615105125
0.0151974761700613
0.0567368393937284
-0.0281773740375039
-0.0184631585275928
0.0212249666222614
-0.0588033367682961
-0.0393321436034681
-0.0325644989478842
0.0116541361191736
-0.0449305786694969
0.237218192375156
0.194578512545855
0.154419331429577
0.121975613016899
0.0421724963189249
0.066560427181309
0.0403964275241354
0.00113984201566905
-0.0790957714337947
-0.07981921573869
-0.00215238239525259
0.0146899201986651
-0.00605989737828532
-0.0185253879281956
-0.0809969796069683
-0.0107364510127062
-0.00928563139470037
-0.208785587334283
-0.0813212260263587
0.108886267660273
0.150960903204656
0.133380903326778
0.0482210796362696
0.0337952119256186
0.182950511860803
0.033731767105221
-0.0684944157117144
0.179174645018955
0.135965040407946
0.0970510061727413
0.0795901900751226
0.014658772505921
0.0638192045916428
0.0458888817871448
-0.0189042906848776
-0.0833978838126544
0.0413129542649515
0.0342604135025093
0.0372097924175644
0.009349654598341
0.0770049463426224
0.0882561358559927
0.195011947799713
0.0673381554163151
-0.202184631546518
-0.0790930470271636
0.0895080247384089
0.101041997172653
0.0778112814290067
-0.00401711859915703
-0.00991261071601861
0.147621636039287
-0.00696193217726804
-0.1615420602606
0.11571341508188
0.0945037174359789
-0.064596809726517
0.0121050447481739
0.0449074581831691
0.0960557007756634
0.0812233030619464
-0.136684591067651
-0.0652925203458878
0.0552027524975581
0.0392840421752183
0.064609869120834
0.0493265502696687
0.140467597912725
0.15720801893683
0.257432517835624
0.130056034764289
0.0284330988504982
0.025462305213825
-0.0764656138025958
0.0023020897004898
-0.029763270863796
-0.00743011517654004
-0.0239646019126721
-0.00271189358004882
0.0103892517174318
-0.141380913282948
0.168178573414334
0.148226357679256
0.001538331496459
0.0777264092801571
0.104166837492402
0.148790958136979
0.0953569860235119
-0.132430460546632
-0.0686174376401852
0.0135129939570488
-0.00875558692980171
-0.0480640172699362
0.00147032085433818
-0.0314850175572246
-0.0224487079970724
-0.0100958613818621
-0.0867662390984955
0.0351641882095149
0.0447601632230423
-0.060382356586738
0.0475212877112097
0.0245577443349846
0.0511605342108736
0.0302658155131272
0.0376043655406379
0.0408821893119306
0.0382517268470545
0.00528535291975715
-0.00484964825609149
0.0789724591317697
0.0533253493449689
0.0510695281315346
0.00780852357757001
-0.0201501010586244
-0.0158028439154511
-0.0613175717912131
0.0468093857462336
0.00914855883025785
-0.0107178399063644
0.062824741807204
0.0237604278775604
0.019468904450379
-0.0298822742109572
-0.126438457605241
-0.0141956254022195
0.0461060095518453
0.0441368408785028
0.090162005235736
0.00837486372468992
-0.0294330965569668
0.0120106896434464
-0.0108930662630449
-0.0239547226381347
-0.00166796944948476
-0.0476249874211059
-0.0454257295809872
0.0416784326294594
0.0207157570361087
0.0359176519569537
0.00315417648574041
-0.0141760936712427
0.000311279726295638
0.0370115771146531
0.0410994123801813
-0.00281734359255994
0.0557053533472787
0.0692269624888574
0.0371626818132612
0.0267888159462186
-0.0538601877039124
0.0198508533168641
-0.0503051734109312
0.00115300114356629
0.00986609589818627
0.0453799601681979
-0.0405672785148014
-0.0786185457662728
-0.018756217164032
-0.0266476652116744
-0.0462478822710568
-0.0135758095799294
0.0630902982529675
-0.02976268954837
0.0781396385192634
0.0699883820467032
0.049740630451006
0.0332230737338181
0.0123683209642562
0.0297277940437037
0.00767716501200211
0.0371406602068483
-0.0049576115843454
0.0119541166301991
0.0679690742462113
0.0734795786861091
0.0749522122758388
0.00504662230054542
0.0173864767015247
-0.0552145541194958
-0.0501653481706622
-0.0271956724189775
-0.026574633111925
-0.0429367584155504
-0.0299485826936115
0.037799909443602
0.0207730816673712
-0.0103458778318237
-0.0808874249111576
-0.0126623434031132
-0.069115454539969
-0.10953575885302
-0.000246190969913332
-0.00280195821713563
-0.0496160319352306
-0.03553315563177
-0.0183498878038992
-0.0181846032450548
0.0214856280081144
-0.0454581728710948
-0.0449988316082772
-0.0262382809839048
-0.0228550073770002
-0.0188488636200635
-0.0285418134401279
-0.00953075159603523
-0.0351453202805385
-0.0229063384851599
-0.00751749564411864
-0.00573836279552922
-0.0204122288183149
-0.00691960305285089
0.0494508572237204
0.0237343549404777
-0.0175594130795198
-0.0662184753021965
-0.0495521261968013
0.0430215915515951
0.0769797372352401
0.0478772468565786
-0.0411993229545928
-0.0778230365577784
0.0499358345934218
0.068152778463937
0.00834521544540237
0.0497653223327546
-0.0189755272416048
-0.0186409746360992
0.00482620106065497
-0.0190855052607439
-0.0279900341755356
-0.0396535622721952
-0.0237509269976113
-0.0454177529671993
0.19514892837097
0.102688128934817
0.0149884352754509
-0.0412710373744261
-0.0978146251705481
-0.0695817597620638
-0.051428731517985
-0.00494535026096266
-0.0403922291209647
-0.00462950592751695
0.0736003629569831
0.0905527621503411
0.0638425749402993
-0.0231445590500438
-0.0684957992814775
0.0581528474934792
0.0386160883708406
-0.18029746206647
-0.0244068265210731
0.156528790425542
0.175655602826528
0.164709277497412
0.040243014804897
0.0125810799547982
0.176092180178964
0.0269994219076964
-0.0389382154513831
0.225704560458955
0.132771721933233
0.0237212117982442
-0.0174710219903766
-0.0802617256935173
-0.0752315197014568
-0.0559179599017265
-0.0415023425849556
-0.176937734759709
-0.00800599634182303
0.0228077055035124
-0.0874712085583619
-0.0405644531533514
-0.112582698579829
-0.0757173658630572
-0.0166301332325686
-0.163871263723883
-0.176784255592594
-0.0188916497504136
0.167417961914829
0.203262062602006
0.205067212660094
0.0913013077875668
0.0604769046447343
0.222505747902016
0.0364056144613986
-0.142332309827359
0.157194151257024
0.175835555806105
0.0283851657811676
0.105572542522958
0.160961313769365
0.191791846927112
0.14475078013934
-0.100719561077448
-0.188914168603976
-0.0379710961294237
0.00892626028338574
-0.0952154961959339
-0.0343540777302428
-0.0996475338559054
-0.0654043943389886
0.00237445144707376
-0.16110569329418
-0.168880802592592
-0.0785821071119453
-0.00915851690826186
-0.15770184718845
-0.0976823105864726
-0.0565567493098981
-0.0647941303547863
0.0597331334395967
-0.0944218732982864
-0.138094014373816
0.149032729197551
0.150422140125516
0.00566294642630743
0.0717594208730567
0.138232852133967
0.194207012237038
0.143693700273019
-0.102891797806735
-0.0522212422665571
0.0351445115460528
0.0431674911396102
-0.0561729182022008
0.0273605503656471
0.0497278922824752
0.0569945304017367
0.049819277740274
-0.0410050188296652
-0.15972714212616
-0.0717346740821179
-0.00741909548042802
-0.148136766228827
-0.100214129810236
-0.0509764981145322
-0.0494015328563846
0.0839309441735252
-0.0549749647224232
-0.0654258327951388
-0.0286751877271323
-0.0539807184990882
-0.102800401594683
-0.0431233685502578
-0.0233404643630957
0.0175217026246585
0.212227952374932
0.129902776281984
-0.0464177376367341
0.0395607608028077
0.0315468479507631
-0.0595783111444639
0.0346486879009291
0.0527272253008792
0.0605550360651741
0.0254758681991023
-0.075278916245877
-0.0128710251833789
0.0285618060170867
0.0283972917634273
0.0502688092670945
-0.00113939102247961
-0.0579412911128327
-0.0167330791627651
-0.0149316809064288
-0.0445704487540239
-0.0618050068107185
-0.00919608141500056
-0.0480289056929798
-0.0964465383708942
-0.0477893559785609
-0.0374246000938244
-0.0014568962054097
0.169201566558756
0.0837465240829904
-0.00399815399997213
0.0563506512185097
-0.00562081798194205
-0.00810716238061832
-0.00293612734770633
0.0104656758536213
0.024692823584597
-0.00569050923789406
0.0299663288651402
-0.0502403667129846
-0.0146112065856918
-0.0119883775649695
0.0103501836877226
-0.033887382853083
-0.0759200834473806
-0.0125879987695533
-0.00810447402211812
-0.0485675582091163
-0.0291191853308707
0.0376845009165031
-0.0305220120075634
0.0523282102786932
0.0424140935131766
0.0385174782345108
0.00854733557977137
-0.00847583180098847
0.0291073754916044
-0.055251217679331
0.0202402003650741
-0.0394819407243716
-0.0519746723580174
-0.0265105376026064
-0.024112303857602
-0.00138522533550022
-0.0157096172534061
0.00366810264136967
-0.0923851281400514
0.0243575896766072
-0.00345475090303855
-0.038248973704932
0.0245783709392915
-0.00294542756926026
-0.0644996595499413
0.0140023177215851
0.00851062959707538
-0.0759146352358517
0.0120544238635711
-0.0429183109549982
-0.0790574867901407
0.0441314836319053
0.0550921800660988
-0.00347476662154329
0.0212848650046565
-0.00234894341151269
-0.0387828193282682
0.00687159421237978
-0.0158321246654411
-0.0247094927978272
0.0417187435856572
0.050636558121299
0.0240780504728129
-0.0142001615381638
0.000389887331846244
-0.0707358433880335
-0.0302987009410366
-0.123767446668996
-0.112914081309728
-0.014109473180963
0.0493075858475538
-0.0312526560689635
0.0117621893719124
0.0214279895690802
-0.0206988194858932
0.0419589811115628
-0.107494027725505
-0.0907188088335871
-0.0397296599710033
0.00473877479571016
-0.00497268581626188
-0.0117094598506296
-0.0212792677144913
-0.00863673958863818
0.0420031409897539
-0.00449140582825201
-0.0301613336064479
0.0366215351295008
0.0196464190711161
-0.0103231649313908
-0.0292346773831306
-0.0215606371967785
-0.0734566655195022
0.201826274034987
0.114174499765803
0.0403678905927962
-0.0341744365967934
-0.0465110502314224
0.00826638089237389
-0.000777621120991096
0.0183422420636988
0.0195109463541616
0.0962241323275906
-0.0931852457808031
-0.0817960783067318
-0.0370006250535116
-0.01377096534244
-0.0236207714175756
-0.0280064475162439
-0.0375695997659936
-0.06633302554322
0.0835614157694776
-0.0317498005230504
-0.0237199127184992
-0.114514613615231
-0.00997828816819393
0.0212979909763257
0.0234999171141888
-0.0364253611371073
-0.0551579960541101
0.283353086754312
0.201001765591145
0.107088199073609
0.0311628718742006
0.0002251230785478
0.0298037085264093
0.0273045476143865
0.0106386610128266
-0.202170864640142
0.0127904220635562
0.0620172693956202
-0.0858821761795302
-0.0655257433639116
-0.0783950921582684
-0.0423111569085793
0.0215307817448157
-0.119060776702256
-0.00693346244731221
0.190370627557499
0.0418229894078136
0.0428449281085823
-0.0661928115422611
0.0216859120139943
0.0564997708214594
0.0288637966429199
-0.0342983676320213
-0.00910084580144827
-0.00316844768633933
-0.134054611385039
-0.0823166269958476
-0.142083460799494
-0.0717496830743421
-0.0490422309628008
-0.0115538937002671
0.00410287334812358
-0.21454531137319
0.00147684945270238
0.0872232688099877
-0.0346247937499213
0.00962631264635644
0.00386113444204633
0.0277635591377261
0.081490750029692
-0.110620871153269
-0.189787943567578
-0.0143673884909838
0.0701707049331469
-0.0516612752373469
-0.030350153061432
-0.00851724809972035
-0.00179829346549714
0.134765515037575
-0.048940510528263
-0.00538662451222151
0.064477838963455
-0.051950966204557
0.00181809465377395
-0.064944251357189
0.00718234232634183
0.0211849917046942
0.0491940487580323
0.0372859693056986
-0.00739430203657845
0.0982401546524864
0.00269218220662945
0.0336727876437517
-0.0408555113296901
-0.0337922453065638
-0.0135069332166432
-0.0369185630512463
-0.00120007413916021
-0.174122276778572
-0.0185737825296174
0.038854372116551
-0.0980370110056813
-0.0941290244560506
-0.067278593237571
-0.0421323886673428
0.118277468402303
-0.0391202781947766
-0.0808468958487274
0.00708532447512062
0.015732380654604
-0.0176292770927705
-0.00201823255898875
0.044546081199614
0.098526536400139
0.291862135379902
0.166349324544556
-0.0161029105227474
0.0810204832495312
-0.0345030191877281
-0.0142297111000565
-0.0967935485995298
-0.0931033484015838
-0.0822439214313242
-0.0877871085280102
-0.0256547849650926
0.00729925637317637
0.00785349569977341
0.00407455775792348
0.0253179563440754
-0.000617781721347701
0.00111696067797093
0.00539113304110599
0.118718173242307
0.109166361202841
-0.0659175933656967
0.0114366984591161
0.00234290006416293
-0.0389228110122753
-0.0367375668534009
-0.0141114655271945
0.0328014773287123
0.205418094474417
0.0832237117763966
0.0163555003775316
0.0624149509199285
-0.0097237491227002
0.0148493695688525
0.0202486859460828
0.014310688273854
-0.0109960253512989
-0.0161152129843072
0.0303049678117972
-0.00117105787451273
0.00244701324101128
-0.00255208303769839
-0.0104335756324167
-0.0224982792316308
-0.0595095930269613
-0.0692015710521784
0.0391828239864105
-0.00020266666436278
-0.0590030515868731
0.0218257510698781
-0.0476062726408012
0.0217057094909253
-0.00747968851353304
-0.00214243761554547
-0.0688682271077381
0.00941358067765979
0.0692372114312235
-0.0341475010644867
0.023127152593614
-0.0289067948952261
-0.000220604168912837
0.0347790929123636
0.0212087807240372
-0.00256356350940882
-0.00798766725388459
0.00962367467009257
-0.0932685055704275
0.0408260737274568
0.0348062632298577
-0.000907356969490091
0.0450305770231118
0.010348125714786
-0.0729173707328609
0.0103752937813302
0.0116104835465128
-0.0965767676263971
-0.0011142141049907
-0.0600083128398732
0.00450838061653749
-0.0166420159710518
-0.0319927678635236
-0.104121134222322
-0.010973907776349
0.00345680032104298
-0.0258060386530772
0.0445024154277149
-0.0568416596025727
-0.0388274003296459
-0.00192663407878246
-0.0166917156208959
-0.0609457372838532
-0.0392184819252562
-0.0755389486071564
-0.0741032497873834
-0.0173654722566385
-0.105271710753053
-0.0891720222282787
0.0573516800005833
0.10314198003945
0.0041816269717491
0.03803433066952
0.0129055366459207
-0.0152554334693083
0.066844887188993
-0.0766428401212544
-0.0324562030691871
0.0268743242204717
0.0914868911008216
0.0307376980363064
0.0298597850011896
-0.0101305317118905
-0.0867554018076691
-0.0247232212239467
-0.141702982719164
-0.0689920084385026
0.0136636851433835
-0.018391779184287
-0.0150144030484276
-0.0254787671896696
0.0445884472751051
-0.0633636307392132
-0.0406614005902643
-0.0555783659844405
0.0217725224425438
-0.0136896496380698
-0.0151386325045799
-0.0319741575414232
-0.0106662283342965
0.00479204126439168
0.0136151063558388
0.100708674613768
-0.0655506948510197
-0.0389314431266535
0.00564793031581168
0.0509741570338016
-0.00435404491236776
0.013329052203333
-0.0242387680075984
-0.0316670709132939
0.0917402075475109
-0.0231801276029158
0.00859697119760515
-0.0511034148117096
0.0661256738000823
0.0801988547615361
0.0594654248463582
-0.00687251859281105
-0.01352438297126
0.0175434539528447
-0.0307302798262276
0.0290612294098461
-0.0310727868398455
-0.0488769165177385
-0.0566327344895022
-0.0358629808381021
-0.00801583671799437
-0.0551493055195252
0.0909372161702494
-0.00226151618238641
0.0242743263695944
-0.0322441853581886
-0.058457566698797
-0.0217679328535172
0.0329169158359748
0.0193082209532722
0.0255086452624915
0.170614505324186
0.0203357706481794
0.0497648414830991
-0.0366228235260272
0.0727239046510927
0.0962049426479074
0.0566640777533802
-0.0123120936969175
-0.00093225415872953
0.0272304882711431
-0.103363339981121
-0.0362339491954872
-0.0925160647753733
-0.0360412305226406
-0.0224356869547405
-0.00374811360607306
0.0177602609376874
-0.0115288662604311
0.171392845784905
0.0510177045403545
0.0725462133860504
0.00817041646014763
-0.0198334152608831
0.0101401613729966
0.0527740742259229
0.0127400049907029
-0.0541410444469508
-0.00243445249121059
-0.0471749767740625
-0.0102456287272957
-0.111424634229189
-0.0674476778739064
-0.0247157180745765
0.0132689880805966
-0.119915127032783
-0.0199536616086228
0.0611846607525946
-0.0484793740561479
0.0096326135615243
-0.0480620171054563
0.00767286996242935
0.00828833268472901
0.0285350238623297
0.0201818056158008
-0.0118189131446915
0.0974106836738706
0.00350324637155732
0.0351423774370419
-0.0301979297444219
-0.00828281072089814
-0.0201831130030528
-0.0340477314735481
0.00338633729155215
-0.0798137277925776
0.0231684521784843
0.0113258916002136
0.044227934216146
-0.0503062587690833
-0.0120127232216039
0.00403591371351567
0.039125390990934
-0.128060083365475
-0.116494945140162
-0.025387934085047
-0.012603004277654
0.00887799013733574
-0.0178543262477804
0.00856754087009815
0.0361631122286398
0.00527960868387355
-0.0582260272788204
-0.00661918757949644
0.0929268704742465
-0.0196378970160767
0.0142312838973632
-0.0639626614766539
-0.0475861704793711
-0.0601742969498897
-0.0658148615217459
-0.00667680160535363
-0.0108730889415656
0.0360829623024378
0.0510721359278257
0.088155847523355
0.0393969474785157
0.0156254013428517
-0.00229071887592726
0.0862797902934732
0.107129640026863
-0.107597082134406
-0.0200691883098406
-0.0235111113071081
-0.0184997876955803
-0.0617769802803065
-0.040295040944009
-0.00888942082699225
-0.0242176870634593
-0.0687529073869124
0.00163902118615335
0.0877946303575879
-0.013339698359154
0.019614979848001
-0.0430166432270839
0.0293045855031863
0.0382203627801057
0.14587814501947
0.100120687099995
-0.00256920929888492
0.0336118343563579
0.049161626447896
0.062839754754198
0.0285801447693158
-0.0177797144263029
-0.0468540103495365
0.0485873996487887
0.0258413402739149
-0.056304750507759
0.061249724759558
-0.0106411683608723
0.0568111232009267
0.0466441449225657
0.0242345042134673
-0.0682442849368048
0.0145523875182735
0.0894495391790808
-0.0173272169994586
0.0803739669777925
-0.0234650488171626
-0.0197192039751025
-0.0682941671199131
-0.0165956939193762
-0.0118524162683583
0.113032503678712
0.0415584083816968
-0.025832099793526
0.00955349566370417
-0.0519116375822736
-0.00584971956465457
-0.0195600499459053
0.0372564676687731
-0.00158975201167151
-0.0269047334195177
-0.034534106999811
-0.0966397313475478
0.0233667364574313
-0.0379917507345857
0.0518541371515988
0.0730269654792304
0.0361975587845581
-0.0594647217221706
0.0307491691795429
0.0746501340811559
-0.0437358468516424
0.0525649888169884
-0.0298751994951253
-0.0176229282706844
0.0586909978866408
0.0675146648358472
-0.0342236397299145
-0.0478003042640614
-0.0487524850486172
-0.0669530273286275
-0.0161689920554311
-0.066445534858317
-0.025880517754183
-0.01091084240052
0.0404926758598702
-0.0150819342936455
-0.0445398044418511
-0.0851192398719208
-0.0225300581568465
0.0456702322061597
-0.056405159268056
-0.0101936402664373
-0.00181330476571257
0.00938921716003752
-0.0743889841473454
-0.112688443813466
-0.0479680937091557
-0.100166837857968
-0.0485483782979686
-0.107492035332371
-0.0199004923311698
0.0751800434058885
0.0278346323257062
-0.00203946182479597
-0.0436122033085484
0.0332298057520723
-0.0360010081540426
0.0195720904179158
-0.0326214724665325
0.0444207433784148
0.0584781719322519
0.0593444599910811
-0.0172366949898321
-0.0351234262578049
0.0194611740842402
-0.0827326975998293
-0.0545791369003058
-0.0997457148774221
-0.0226669718744873
0.0629451883301784
-0.0158655288125477
-0.0443225670958432
-0.0597068156902905
0.0272152967034348
-0.0504640672935838
-0.0467100259657748
-0.0298179712142024
-0.0162177307910348
-0.0330701897877472
-0.0108909612895857
-0.0501697789116037
-0.0229025214777496
0.0167802711386802
-0.00118817044155376
0.0552056277304932
-0.0121140868399005
0.0431663103288976
0.0340266025323085
0.00937872752805521
-0.0625596876049864
-0.0573116263005534
-0.00650973419963362
-0.0427280758904249
0.114363021745844
0.0365638066918078
0.0536209184195768
0.0104612299347438
0.00906730932548268
0.0232448634036645
0.0837251879523835
0.0156084493084303
-0.0064338765579439
-0.0332348856480015
-0.0278765696967027
-0.00691593058874089
-0.0705394865210255
-0.0590378351002251
-0.0696411521988097
-0.0189856203393394
0.0312860672994738
-0.00693867039726622
0.133201131526035
-0.0119101217522817
0.00545616015710722
-0.0526063548667983
-0.00611617520778707
-0.05861329166541
-0.0010120368886482
0.0545372816688364
-0.0120965118534173
0.143700669707525
0.0433895426005997
0.057213688388398
0.00624694806389097
0.0187090039672294
0.0285072659546041
0.0762539836166642
-0.00947782169760313
-0.0183969641262319
0.0241916339960575
-0.0305199045878494
0.0105204972728317
-0.0710770129924357
-0.0302930878221114
0.00756439267878648
0.024941418413875
-0.0896222809614878
0.0210459692821417
0.172812992237736
0.00284650645554595
0.0409364531928867
-0.0197670034316207
0.0303932216204954
-0.0413456794890171
-0.001953896520788
0.0703488018340512
-0.103440869242995
-0.0358111759669159
-0.0560119851449601
-0.0340881333809797
-0.0361152372203287
0.0144168908160447
-0.0680552116442365
-0.00342351233404348
-0.160373897730306
-0.0478805835714849
0.035645679314667
0.00836820581866009
0.0497054520987207
-0.0160922017191341
0.0285829245121902
0.0398822904339333
0.0532779998886441
-0.0865473847167813
-0.0953830170468691
-0.0132460920119397
-0.00914878366024961
0.0278723350348262
0.00882240897230598
0.0256463231364929
0.0154556458690807
-0.012374160599584
-0.0281941399774806
-0.132383037470644
-0.0196926039304628
-0.0128774562668813
0.017148914157853
0.0227878023270573
0.0737505999257102
-0.038571365236301
0.0183144335533476
-0.154920824236155
-0.112503284578276
-0.100783881870648
0.00127413505822686
-0.000551344302787772
0.0704454782536912
0.0701694287076077
-0.0334537907398201
-0.00211879582910587
-0.118656027349643
-0.0889937854083586
-0.00995573961890891
-0.0181821309740811
0.0130071606307011
-0.0235370512180777
-0.0104021077679869
-0.00808370247065273
-0.0219524839626352
-0.0288459464614578
-0.0091512033540998
0.0848694920930046
0.0105473756895616
0.0670195946191365
-0.0211241191774268
0.0094428720069768
-0.00084122395904953
0.112922403510414
0.0747347153816787
-0.107386371520988
-0.0985054119646377
-0.00272201209532323
-0.024811504579097
0.039860569627189
0.023701760698977
-0.0725368133833525
-0.0244876971354223
-0.121341108779863
0.0275658473852695
0.0740977012362043
-0.0124287749871025
0.0323980004166328
-0.0136792082586367
0.0108469316443756
0.0126013715579009
0.096960438600211
0.0968423430483936
-0.0311262886050726
0.0841798508032754
0.00974650561739672
0.0394798114366033
-0.0236849442881794
-0.00313826376311672
-0.012896219340028
0.111534628743007
0.038396543134263
-0.025557271756322
0.0305365803390899
-0.0691566029730257
0.00340003699776371
0.0460389496096158
0.065911475688984
-0.00255862384085128
-0.0186998600998686
0.00129437258433707
-0.0147785434087424
0.0462895298728988
-0.0238929366499248
-0.00663581303875978
-0.0370147704055182
-0.015132206585532
-0.0247429417751027
0.0814634754161557
0.0587746386026102
0.0194666495721617
0.071610981318326
-0.0382347972411638
0.0211515827693762
-0.0422282038127048
-0.0277254574558855
-0.00901182498723434
-0.0126867033699018
0.00172781972694308
-0.0644168824648782
0.0110669868480708
-0.0773601969527631
0.0077642969377648
0.0793637828495339
0.096189598115239
0.0234007987845393
-0.000469736789724182
-0.00391107799730218
-0.0452382718935177
0.0464639809460701
-0.0395066026324578
0.00159462875519789
0.047284245897863
0.0642127035087526
-0.067995437538101
-0.110808537733444
-0.0627963301055923
-0.0300260377808717
0.0292056236433334
-0.0741071810960333
0.00187518419666685
-0.0216880113021511
-0.00137816645464813
-0.0184722921555181
-0.000713577013306427
-0.0169349741729374
-0.0496752794518985
0.0504647964820676
-0.0445299356811902
-0.0708681405353065
-0.0589481641616587
0.00686548792623788
-0.0870873492229219
-0.132012297531508
-0.0875917710175196
-0.069480462845252
-0.0347076138811737
-0.0985907254287268
-0.0169887526478412
0.113939018547924
0.0317906974097548
-0.0161309499878744
-0.0450824180837534
0.00206717444343311
-0.0174892826943946
0.00879650250083054
0.00725315248093301
0.0512663373808211
0.0239040484024767
0.0176880052037954
-0.0345999102854976
-0.0282843682461949
-0.00856117936083626
-0.0793731079901918
-0.0479922343435327
-0.0576982239753256
-0.0615365120241677
0.0268301157688206
-0.00711947033148828
-0.036581355297365
0.00744207608903922
0.0377765054321498
-0.0766092444661061
-0.0425846261959111
-0.0678205285207423
0.00324119246856591
-0.0197810561037651
-0.00388807333164237
0.0303640690794728
0.0104075130482159
-0.0675827720089277
0.000161644085146223
-0.00556201914161574
-0.00984328464688813
0.0328895587362802
-0.0252552652218651
-0.0238600920723691
-0.0403828905955987
-0.0161999607372099
0.0216172641009068
0.032299543121161
0.163376456073142
0.0100750978155725
0.0638887263890343
-0.00181084187777394
0.0446213419227283
-0.00618490793690071
0.0133886955108017
0.0506152234632692
-0.0308800165363983
-0.0225027106583229
-0.0590112283964643
0.0182034196802261
-0.0370123481895873
-0.0152170308423954
0.0209894887640937
0.0130657301559308
-0.0158799884564713
-0.000369251612152559
0.0676754826439058
-0.0214184178491374
-0.0114278265763784
0.00388816185282132
-0.00469918119976315
0.00611325725634454
0.0407494104509179
0.0181669770642667
0.0306571211075434
0.156753726834995
-0.000965407035226657
0.0543778057796435
-0.00522837659254486
0.0481286136800527
0.00168186818638573
0.0239703538650431
0.0418153272791414
-0.0944729736601778
-0.00107987820571036
-0.00981154042916846
0.012614458665939
0.00111201893009565
0.0592619170776977
0.0135526245538535
0.0522576750934427
-0.141459226874731
0.0323149697701188
0.0854309048128933
-0.0174908731093898
0.00758196486109402
0.0152284230444846
0.00668378760896388
0.0196468385812937
0.0637075807939752
0.0650737058194911
-0.124245126983191
-0.0619926535503817
-0.0354510567039202
-0.104158332483712
-0.05821829597623
-0.00589801697639937
-0.0777185088614409
0.0169999336763143
-0.0463920774727294
-0.125813329627489
0.00368712722857941
0.0177875039663633
0.0423627972839912
0.039432403369839
0.0959251813722056
0.0369397390670019
0.0658910777396759
-0.158962646540469
-0.11742821693102
-0.0737174393477944
0.0452781266116492
0.0440946982403563
0.0938714993508481
0.0810740371835225
-0.0112862013577723
0.0388025428206251
-0.0998148424600479
-0.11652655786882
-0.0233251033926622
0.0171792791172968
-0.0441209869756062
0.00433171799035362
0.052780593307629
-0.0351060002904626
0.0205911555141496
-0.069806487771376
-0.0788555382591591
0.0211961475301844
0.0374131383869434
-0.0554809744178619
-0.000615361364500812
-0.0327015108009382
-0.0776496413943506
0.00957697940470085
-0.104266686971017
-0.118186589329382
-0.0768309891281305
0.0271737997400904
0.0086067328090132
0.0478939250184568
0.0334703005822357
-0.0412255265011039
0.0189326343593159
-0.0896495715471386
0.0334385304103782
0.0800243866428797
-0.00318198240210122
0.0492540345588057
-0.014133864318693
0.0188110101667246
0.0157480555098318
0.0661582466067524
0.10289769056779
-0.0989755979120707
0.0129183475061594
0.0171628643907078
-0.100261665852653
-0.0486022293838104
-0.0864268779125693
-0.122871198924322
-0.0254068739003084
-0.139262091186555
0.0220311699104026
0.100049094205263
0.0355845059241053
0.0123714131561365
0.00464591573353241
0.00283881753439958
0.0195045364858944
0.0234521977698768
0.0529853609931483
-0.00360479673436256
0.0594476495233872
-0.0114479109339654
0.0316530944907885
0.00226547347316143
0.0296173037598834
0.00555940486820461
0.0783506452697237
0.0848864896958786
-0.0103562057077953
0.0589437347005212
-0.0486375050484586
0.0195302192990723
-0.0483863038764628
-0.0125116714986459
0.0228472267524619
-0.000795215857225044
0.0164016295316819
-0.012026073010405
0.0475075759579552
0.00147377209964207
-0.0231520564541533
-0.0256607253249994
-0.0246111876144972
-0.0104990929651172
0.018053818909317
0.0159409219870104
-0.027863641343117
0.0173095764905584
0.000232235321707582
0.00341440726143615
-0.0128867383793433
-0.00720374520780581
-0.0108735410822157
-0.0375982228768637
-0.0388583474493576
-0.0561321978865689
0.0229791477431988
-0.0616309095962498
0.0296497173749472
-0.00340708825722129
0.0439802624968364
0.0559574713674776
0.0440726690049305
0.0379628299997558
-0.0414492001586924
0.0268399188249593
-0.0344965826125608
-0.0410956945396555
-0.00897523581807391
0.0212843771468075
-0.09434456971162
-0.123876516589257
-0.0678591629695062
-0.0891575204936838
-0.0248335873154745
0.00723747709994315
0.00645614806291335
0.0129597130186502
0.0197347806691718
-0.00513290659984831
-0.0250069497472899
-0.0753468466513683
-0.0271567358066517
0.0389794169333923
-0.0170041178589979
-0.0541051538246143
0.00161635536555145
0.0232202131586408
-0.0420502707027863
-0.0374574235371907
-0.0968637154730095
-0.0683598458011199
-0.029427645737016
-0.034785585340133
-0.00399410426518947
0.0780942922008398
0.0394981067108642
-0.00567426206082203
0.0250299631479764
0.0675858189708541
-0.0693641544041813
-0.0360815582347488
-0.0868569651289945
0.0410056180167338
0.0266406147770502
0.0594043569440173
0.0656724704207157
-0.00985533050084703
-0.0639760107208783
-0.0753081749816326
0.00840297337314634
-0.0694121860226338
0.0052137489570253
-0.0158695275279991
0.00415068661455949
-0.0264136293462496
-0.0163700719752111
-0.00591581965341589
-0.0758437615943591
-0.00931379752733248
0.00221183817810844
0.00253212864923705
-0.00727778195745063
-0.055991994789307
-0.020466935008928
-0.00610820582225498
-0.0333069724005096
-0.0240096377441334
-0.0289851396840077
-0.104405119148659
0.0139693446898989
-0.0309563401135939
0.000474197689305766
0.0247677698477147
-0.0122931972055638
-0.0253800759698194
0.0321451075277455
0.100928985717809
-0.0467475885894529
-0.00428617190604968
0.0325813378686486
0.0463345112277585
0.0539094372701433
0.045963554176325
0.041048949217369
-0.0439880646848669
-0.0210433480690863
-0.0226168714457689
-0.0240677621342817
-0.0668775346535385
-0.0999406826212303
-0.0570560966259261
-0.0150596863415412
0.00396867125204325
-0.0351265793677775
0.0627277730848354
-0.0588508163421044
-0.0341068757179266
0.0411973882770931
0.00286306370936991
-0.0463929408559917
-0.0258368959383106
0.05904079895956
0.0214495393402956
0.0791457928869011
-0.0518133871390906
-0.0195618273556284
0.0327128997739715
0.0449393355245279
0.0386547293861908
0.0667017156019923
0.0487830677562351
-0.106586301568942
-0.0424250164479937
-0.00775618497378085
-0.0656601792729497
-0.0465803851701858
-0.0114777552497444
-0.0449898327018188
0.0382017297502291
-0.00821209349806436
-0.0249219520604529
0.0429481572043297
-0.0634172671283154
-0.0419277571073862
0.0278937960652133
-0.00376143460934763
-0.0513360338558382
-0.00410256584830049
0.0775720533111031
-0.0339322827783601
0.0797571521753272
-0.0172942202013204
-0.00468870266303608
-0.0848682174483942
-0.0193574892580693
-0.073808708347742
0.00652225053811946
0.087209839432758
-0.110335264847891
-0.0172959325416765
0.0384721443051577
-0.0182788938648298
0.0117506435809312
0.0287769778938814
-0.0121414135925656
0.0457585940992368
-0.0542541592829427
-0.0901380267041088
0.0362525549668317
0.0640612914940118
-0.023767267028758
-0.0165688070622414
-0.00957894954834849
-0.0503643300217519
0.0420254515792029
-0.0840964503815363
-0.00868354341451118
0.138878793786151
0.0358305353699829
0.0415541367068588
-0.0359772057930627
0.0172423851648653
-0.0543453031978794
0.00588149122591242
0.0572885298020237
0.00452035815753732
0.1327265509236
-0.0143760036901
-0.0515082721469157
-0.0586545160478571
0.0102123161218294
-0.0469081674601811
0.0749387337016018
0.0729537943431221
-0.086681839812705
0.0382458949862578
0.0334339492525891
-0.0670845487694667
-0.0717017942902219
-0.0714019509946541
-0.0968974087548029
0.00418689200840372
-0.103745347678681
0.0145198815957876
0.098037155396512
0.0280524412621306
0.0510400087259216
0.0165917403257953
0.00451874015567582
-0.00190128243307348
0.00376854193609614
0.0531453483756179
-0.00261675778440615
0.128803140329744
-0.0353185136303026
-0.0890217064238108
-0.0878868402458246
-0.0259539882707265
-0.0700261538976047
0.0495489227432441
0.0450307580666722
0.0117922690006124
0.120177496151952
-0.10195170279366
-0.0482198574299847
0.00541979941532646
0.0208267482244606
-0.0326295592958829
-0.0303269030154373
0.00426059703578704
-0.00137088895899674
0.0710116642079718
0.00793313291432747
0.0409229366850349
-0.011521843093053
-0.003348192546949
0.00710023444565355
0.0127256685330928
0.0668167323830992
-0.0275230879089062
0.020816134792098
-0.0313063090753102
-0.0165902733476983
-0.0371151394162998
0.00940918218068137
-0.00378605956478149
-0.0823638255623108
-0.0250881523227514
-0.014461703992723
0.0890726425393744
-0.123981074235668
-0.0518607697101861
0.0152097472831539
0.0237887659209661
-0.0360901643244571
-0.0336907654658216
0.0177068857557633
-0.0520779416008911
0.00619867677814697
-0.0502524893222218
-0.0533641656407404
-0.0416320935351347
-0.0656482000262026
-0.0217452077570482
-0.0584297072718877
-0.0216576739001215
-0.0792731135914658
0.0058594246892521
0.0092635632648343
0.0402452127626083
0.0390660976915342
0.071463089170467
0.0306469647320701
-0.0470538419716266
-0.0400774883587036
-0.020850360410487
0.0590944032458064
-0.010821383604297
0.00571140456999389
0.0422087644253642
0.0388825002045371
-0.0145592596331733
-0.0312422961510991
-0.0859904470143152
-0.0933316779202631
-0.0320171281923698
-0.035773765233291
-0.0222423230452939
0.00211891989790138
-0.0192424011121819
0.0126498712784959
-0.0263206834515282
-0.0212086367363663
-0.0449473369230282
0.075570121136684
-0.0726796015532106
0.00339592651889276
-0.00661521080538126
-0.0107775906211512
0.00187957823285076
-0.0805729379543748
-0.0359614730199002
-0.0670742354239226
0.025781963132585
-0.037754844080718
0.0293565832072337
-0.0113473521270841
0.0428071074240987
0.0195364234024678
-0.0244140347374283
0.0104022880726113
-0.0961849910403066
-0.0327598561972841
-0.0334323074888435
0.016247015731433
0.0297576581341431
-0.0181829363734858
0.00998287252956889
-0.0446216758209876
-0.0612142705931282
-0.0710082769766178
-0.00176754866550526
-0.0572214116436518
-0.051725780662515
0.00190771989805261
-0.00622238563253761
-0.0705046680755266
-0.0408749253124398
0.0271686382256128
-0.092489243788912
0.0113956045052214
-0.0405873944525267
-0.0137539488794046
0.00774575280737288
0.0331667578479632
0.0108887170464177
-0.0248595168244455
-0.0785126255441484
-0.0438523696985576
-0.0220850510633663
-0.0381767627470671
0.00404786548069331
-0.0190618404524975
-0.0570718738179276
-0.0211183330098834
-0.035382547622874
-0.0113518436715854
-0.0880619811959522
0.0565125978733061
-0.0688185578465283
0.00428954965959566
0.0567312477404957
0.0106761368764307
-0.0453445196916346
-0.0277328063397343
0.0698811447959084
-0.0816511741578339
-0.00076720269700016
-0.0677937889359191
-0.0448958994368071
-0.0430299149286881
-0.0141283884485118
-0.00343824026383657
-0.0222660494374743
-0.0335097472874222
-0.058113516145653
0.100585931195017
-0.0248129940988815
0.0220459900348455
-0.0115621506059312
0.00516417805208595
-0.0355444280813112
-0.0658058858731167
-0.0299304504214918
-0.0694972260128417
0.0420770843768406
-0.0684738187738541
-0.0117880415256039
0.0281417711751585
-0.00918612588140411
-0.0655511845115174
-0.00106307577024197
0.0692345644147391
-0.028195252258916
0.120202522812619
-0.0106503598139865
0.0123046802961609
-0.0778450010859784
-0.0033353347830312
-0.0478873416779734
0.030331147434266
0.114210455328863
-0.0439714717674077
0.0872933848529913
-0.0434096170589567
0.00866320280631032
-0.0238151825476822
0.00514323439340755
-0.0425512563804274
-0.0422637201341648
-0.00696663142497725
-0.0443364980182686
0.158649760695308
0.0013031879878353
0.0280477028537127
-0.077146227321056
-0.00365671215608223
-0.0112706066895596
0.0127566934195908
0.0105107029869576
-0.0366329454802329
0.128963330447244
0.0213118761323193
0.0344322603203345
-0.0284707944018661
0.0279555898211576
-0.0314186904775473
0.0437058310640969
0.0565908471220141
-0.020704922406882
0.13122429261551
-0.00766313501879547
-0.0444207750294643
-0.0189760347693448
0.0461395400235527
-0.0174469923903437
0.0769539973103126
0.0525299941282832
-0.0556119404014762
0.195995999946116
0.0472314943826344
0.0610350179277312
-0.0437280328541246
0.0274005058649833
0.000400871995715396
0.0255726680800873
-0.0158988908097462
-0.0228205951060775
0.0655404020552671
-0.0126420682869401
0.0430697720839446
-0.016102006000739
-0.00757868583179738
-0.0260781377071744
0.119667651559742
0.11298578237354
0.00401950887553985
0.133102952417405
-0.0408672440565352
-0.0786015507236131
-0.0593706291728163
0.00339778501013488
-0.0316374227286699
0.0629681492876194
0.0438349598372109
0.000337758951398552
0.0849890764681878
-0.094128908251166
-0.0636848645060172
0.00148866684749408
0.0365179879419942
0.0084626913434954
-0.030920320602098
-0.00130012034252645
-0.00842243429614936
0.067948251218912
-0.031374025422486
0.021135453570644
-0.0573238738733787
-0.0429190981296078
-0.0524979041667182
0.0773428921257555
0.0901154524044808
-0.0474737111290983
0.019177383589174
-0.104125287407422
0.0271324538258917
-0.0198367259775794
-0.0219195312541309
-0.0149669991719442
0.0124895630971765
0.0728363770856866
-0.0132186655650584
0.0649240306585187
-0.119793154825264
-0.0448408353597596
0.0339714168355933
0.0580539808620677
0.0203544468152155
-0.0330735171487151
0.00939848074601677
-0.0439962133577834
0.00160738136024202
-0.0636584336403801
-0.0251687028751531
-0.0117540194695745
-0.0234573333664271
0.0199333443903805
-0.0829006527708303
0.00240915589857265
-0.0620186522836299
0.00970128374933797
-0.124281245946833
0.0335962842405915
-0.0215281474358272
-0.0159860600181482
-0.00900648901349387
0.0173088173114245
0.0732441939060674
-0.0692517660154712
0.0128173163220301
-0.0757989504808897
0.0239222082950397
-0.0498420481570837
-0.0438924880685674
-0.0289652289458525
-0.0481554866066486
-0.0343104426936044
-0.0948258997225617
-0.0658987448575296
-0.0748647458988616
-0.00624938190113086
0.0383284277213259
0.0280341841335728
0.0576727243266727
-0.0396317773404804
0.0189632054001672
-0.0518843963643246
0.0698775988515658
-0.0717863901507346
0.0561638648216743
0.0337980004611075
-0.0147071761925699
-0.00264270382353844
-0.0892409072586852
0.0155211639460186
-0.10224894092082
0.00080028037132284
-0.0582072551628629
0.0581124588164676
0.00856095052977906
-0.0104738159167007
-0.00308693652619857
-0.0226019750081475
-0.0272688666033098
-0.107370759138442
0.0287848824166481
-0.0986832222559374
-0.00599946060640671
-0.0054473966117517
0.0264242263103198
-0.0289763145206961
-0.133785255091275
-0.0248863064271596
-0.0800023508785058
0.0169495676372302
-0.0466464079861541
-0.0452469155773069
0.0235571404054431
0.025274561911259
-0.0559060911041013
-0.0352565098760801
0.0409449415135986
-0.0985926572255048
-0.00694031265464427
-0.0321640512415584
-0.0190212989933124
0.0103076714522863
0.045831760289478
0.025143405523981
-0.0589517052707979
-0.0876627057737251
-0.122475247117539
-0.0512016786178089
-0.0751675304657797
-0.0527607443522261
-0.0240305903420277
0.0227842661441559
-0.0403904869159063
-0.051596948774714
0.0542184679816738
-0.0947833365975567
-0.0141827525242128
-0.0482535077051722
0.0479351436638547
0.0101214132157484
-0.0138561833919695
-0.0227232559999607
-0.0210285332742306
-0.0433938937641638
-0.0863659378081642
-0.00771629379225133
-0.0553822166212408
-0.0537283524552992
-0.0477296394959301
0.00821436070273142
0.00978790479042203
-0.0507095638144068
-0.0442735197998476
-0.0336548802523507
0.0956112015389179
-0.0530549953654123
0.0142104731318013
-0.00371954738556292
0.0272808777268743
-0.0311061734414545
-0.0782487873854645
-0.0178062637027969
-0.0857618640787177
-0.0370482730132212
-0.0802405200677127
0.0114997269547293
-0.0250812899964583
-0.0359518627832716
-0.0512829429285462
-0.0382010064658342
-0.026161844021797
-0.0612993536805364
0.0642735985483529
-0.012073403346746
0.0389402323121702
0.043959870228655
0.032680782121095
-0.0616057869124712
-0.0914306442565197
-0.0230824583859104
-0.0397297914749958
0.0817087144452012
-0.0652742390925529
-0.0118761235037882
-0.0122593854132037
0.0232056461207713
-0.036891720665577
-0.0497107662751849
-0.0183946221841952
-0.0474783065564102
0.164473537756886
0.0210228588626507
0.0303240263703113
-0.0715426067857248
0.046937126473449
0.0162049232762047
-0.0132829287599924
0.0120650800551512
-0.0646268715272687
0.0361720236503198
-0.0464611941887557
0.0181251401480972
0.0469695780315737
0.0385816390966477
-0.0575550208974303
-0.0766477886988327
-0.0152155928048215
0.027978454887043
0.158123537966019
-0.0433370008725862
-0.0135993036044369
-0.0944167869661916
-0.0623938081684825
-0.0168704131775889
0.00517560726190294
0.129701415259635
-0.0519905258168938
0.181277170162551
0.0465216944107826
0.0379972746609221
-0.0618619585648002
0.046497728846142
0.0102211258424127
0.00290979957937048
-0.0215548423543435
-0.0311979993614043
0.0520922879699345
-0.0310691070028403
0.0150846647700544
-0.0302733237652044
-0.0273625831008365
-0.0319985835162771
0.143744354564658
0.116783128077983
0.039625373740102
0.181235516705308
-0.031400520781474
0.00169785491083586
-0.0666270563946252
-0.0372931442614073
-0.000247635399288256
0.00742256898475188
0.103047361356495
0.0568818807527137
0.0697028377878256
-0.0254873826104764
0.0183749568293328
-0.0968504257045985
0.00250249501754723
-0.0511309442676358
0.0106908255707645
0.142405850154272
-0.0158353116936106
0.0571048383786032
-0.0489471596911279
0.00827575546772151
-0.0496739686074204
-0.0365837863421235
-0.0417286952185688
0.128280078538346
0.110972452886929
-0.0631940175308439
0.00608882512839969
-0.105734918729642
0.0366220504716417
-0.00740675166984229
-0.0224600379513241
-0.00825342296779439
0.00500501064189344
0.0428853597770492
0.0825909125415388
0.0904618958478109
-0.042800211717073
0.0101672046973029
-0.12375707458112
-0.0192985430043577
-0.0643755835845038
-0.00800954063349238
0.116003148474861
-0.0750027402402375
-0.00997573594741823
-0.10959675903197
-0.0396604513149538
0.0348070027265486
0.0117925351306681
0.011753639932127
-0.00801174829431975
-0.0206048552716636
-0.0576445350068433
0.00263189083532754
-0.138335030894219
0.0568160109068574
0.0105686705375601
-0.00480042118538713
0.0213683767260994
0.015567835367266
0.0628148845629312
-0.0616543457178973
0.0288692698857474
-0.068842998728163
0.0514036262989824
-0.015946080800766
-0.029451058071518
-0.0280037306254988
-0.0477997199213353
-0.0374252909670169
-0.0694005003116529
-0.00423574643113493
-0.108096734522693
-0.0246606113329531
0.0645288203921668
0.0321838081748714
0.0381847979362226
-0.00382356363525212
-0.0386809051077597
-0.0801744183727971
-0.0171013931877027
-0.0733366336719816
-0.00191285657463167
-0.0312710695692783
-0.0554726875406648
0.0115692140415265
-0.00681538050951777
-0.0378038407877875
-0.109711862362331
-0.0194849774362268
-0.0853308083650459
0.0553977637631057
0.0269077290695869
0.00682352121433128
-0.000156080474342286
-0.0214043444022323
-0.0306703777987325
-0.134874128431308
0.045151175197867
-0.0801064165798133
0.0233911777335667
0.0187616076196455
0.0446486969692988
-0.00831153223448262
-0.152505131366865
-0.0221308686359621
-0.0966177763174255
-0.00543863305298937
-0.0495326444554146
0.0326670638399371
0.00737541059453558
-0.0209071897643078
0.0453159108139566
0.0221135674633134
-0.0171266398156758
-0.0565146373105949
0.0613361440877193
-0.0983928014056703
-0.0379277657765141
0.0220371600928453
-0.0399922608962237
-0.0717053803938804
-0.0725512665411637
-0.122829901750917
-0.124878155203524
-0.0429701856316793
-0.0819219802610598
-0.0437306312687966
0.0192134754807696
0.038286971347105
-0.0254996549868558
-0.0532894589251219
0.0313657414350458
-0.122598057086297
-0.0477243359125858
-0.0476287459654421
0.0512208742328038
0.0564094483083353
0.0174710240423577
-0.0113797979347275
-0.0393450411910943
-0.031870295802907
-0.0921984652721181
0.0257300494357084
-0.0368582795385492
0.023867008912022
-0.046601078038388
-0.050700769370514
-0.0587976015496015
-0.0399867400631893
-0.0269494637980973
-0.10844615388842
0.0265203192012414
-0.0303475283586307
-0.0135651730663311
0.00867270273496147
-0.0416953859845125
-0.0106071589156756
-0.0406784130063996
-0.0270819417356094
-0.0848035629658088
-0.0412756622358116
-0.0753674503035268
0.0163927836406656
-0.00499463101413518
-0.0326940788699286
-0.0481803865651023
-0.0525742581585622
-0.0104725134701932
-0.0494355028138839
0.0251821397281899
-0.04125212491092
0.0337939665108125
0.0567868615117089
0.0475423044861022
-0.0668673070574989
-0.122134404562539
-0.024980973304702
-0.0939694633766643
0.0202590397147511
-0.0605954545822379
-0.0576482368660574
-0.058469253603835
-0.102626987869114
-0.0325140805697638
-0.0374308973028826
-0.010377999056233
-0.104311546675418
0.116916640489759
-0.0108931246438238
0.0247456364299848
0.0413400088627545
-0.0477989303062331
-0.0602840926261852
0.0115654118932028
-0.0172388410015345
-0.0628213216185061
0.0186076874748686
-0.0556016982478169
-0.00183667636015159
0.0396205111138457
0.0282630156539494
-0.0855222540551735
-0.100265739719437
-0.0219414165838253
0.00795531932907438
0.110939454174103
-0.0477677755338931
-0.0207371068366599
-0.102892897002583
-0.0522253190999334
-0.0319925740035082
-0.00903898379232003
0.143377388400553
-0.0921808486223464
0.104763481814357
-0.0436816662661494
-0.0304753254071103
-0.00010203729979893
-0.076415726226107
-0.0853400047134394
-0.0119040666433564
-0.0308361360666714
0.00742406562442701
0.100517942074764
-0.0210922179308018
0.0854353492383772
-0.0236761521798313
-0.0015234607449919
0.0463929828560434
0.0354922577440513
0.184102419646782
0.0146152380684798
0.128043333811005
-0.052029792778431
-0.0362734710071838
-0.100149093763731
-0.0569350652056877
-0.0390694136257786
-0.0159442515399753
0.075095531601989
0.0309901729254841
0.0245534612515153
-0.0484106119677311
-0.00425093306428206
-0.0935241060728575
-0.0170481288230042
-0.0628822193833092
0.00144222408317451
0.118985292793243
0.01947444902356
0.112809181160099
-0.0234249066350308
0.0654940697531834
-0.0404485295630233
-0.0158026658952263
0.0325813024019532
0.0309318891404678
0.150097962148054
0.0438954071370941
0.127150219579492
-0.0283843931345674
0.0590113731177956
-0.0484065963631459
0.00113925031111549
0.0423636955398764
0.0798777715633666
0.0930070339171094
0.082164746954817
0.0732456820404093
-0.053673598009291
-0.00351818878320243
-0.113497024906761
-0.0331497016672877
-0.0613767154971206
-0.00634014315428215
0.0901106398136568
-0.0682199235790929
-0.00834699818896371
-0.13737887215341
-0.0598241703050968
0.0411331572647464
-0.0196600809431338
-0.00164489918987298
-0.0170707363564325
-0.0226919542129874
0.0700277013697477
0.169536178677001
-0.0174991963119434
0.0742045286332684
-0.039398570777539
0.00913511726746232
0.0610876191339527
0.0751700002444521
0.0821084717045334
-0.0666954606328461
0.0518578787124438
-0.0798957091088005
-0.0488113980755871
-0.033608233367105
-0.0426448661423701
-0.0338607416923096
0.0190203879053321
0.0461110080068166
-0.0434672793770952
0.00276280192116592
-0.139071324337893
-0.0118455713039306
0.0913683723455334
0.0249597560695758
0.0415009874140937
-0.010385736269234
-0.00935918137949426
-0.0554994441532168
0.0174169848935681
-0.0479422333787602
0.0314220165709761
0.0128385894923033
-0.0171323787603651
0.0383937013930278
0.0265729233816575
-0.0436738818544463
-0.088692925290889
0.0890614875237251
-0.0384674759599224
0.0154029673293322
0.0549056563434853
0.0250487495421818
0.0267562931854988
0.0387986908665325
0.0314035783936591
-0.0376884810017104
0.0160157668630676
-0.0992674008110093
-0.0429661642511056
-0.0630853902250035
-0.0299747151377783
-0.00677058017648402
0.0185965139505696
-0.0409909907051677
-0.116960919501183
-0.0286394007038815
-0.0692931227979708
0.0422573557349467
0.0622904075025257
0.0146054811885652
0.0562296711201021
0.0410944604717594
-0.062908479032449
-0.0611651427753652
0.0363977808297108
-0.093107040675132
-0.00817570297986314
0.0695438179051349
0.0101332858633603
-0.0533801883468993
-0.0810767313415722
-0.0683887449828667
-0.0851092925830857
-0.00142016994440772
-0.102857422560454
-0.0267543560567669
0.00583579135454712
0.021459601081706
0.0070159485048183
0.00682290288503511
-0.0593194695370615
-0.0540416328472126
0.0404270426600045
-0.0298687063542124
0.0268981424311773
-0.0386093235337836
-0.0496859559057871
-0.0327396338706303
-0.0377271219805538
0.00364545183116457
-0.103712119651216
0.0237793214226692
-0.0212698236935903
0.0384005436744898
0.00821082899398214
-0.00102724921398822
-0.0638326838206467
-0.0500919235307091
-0.0210045591189162
-0.111955584024089
0.0215853061220515
-0.0443620474817849
0.044576047984411
0.0384458583891981
0.0168531806494245
0.0225368369860171
-0.0372849902683759
-0.045345578175324
-0.161106549787323
-0.0615186923390151
-0.030360916128462
0.0141685877918967
-0.0064918184887821
0.00422941194466709
-0.0125425192643376
-0.0219759790243123
-0.0165883072030388
-0.0905977216328933
-0.0245019417925894
-0.0394753900183218
0.0348863551989375
0.0211788586461887
0.0405980516077657
0.0212480504309351
-0.0187496666368346
-0.0144604856100632
-0.0828849883714778
0.0284682991482812
-0.0588982651279756
0.0171321750222433
-0.0202272676480043
-0.0392442454067951
0.0125327540286241
-0.0155096228346724
-0.0225703997528136
-0.10615118617564
0.130455923213507
-0.0285598715610536
0.0196853111664991
0.0720271577367013
-0.00617154231101166
-0.0260673084064804
-0.0133257446582453
-0.0250637525030726
-0.065360192209709
-0.0197702117447026
-0.0531174596665836
-0.00192357457760139
-0.0634860468927623
-0.0465906394000853
-0.0104146596253757
-0.0258970484058589
-0.00121027131827693
-0.0981941640744996
-0.0384916773272905
-0.0503875748249478
0.0585820299607851
0.0102156000952489
0.066005449815493
0.0494231838163711
0.0357560096315831
-0.0189903006741591
-0.126527321157228
0.0896273035893099
-0.0675519271762343
-0.0743651531901638
-0.00515074139911065
-0.0661182703483317
-0.0759130767213881
-0.0249049124387014
-0.0742633428075967
-0.0440900177237908
0.0811240140272682
-0.00457611539945112
0.109673003516197
0.0175840351238532
-0.00144962301072213
0.0468625106311818
-0.0146111430163574
0.125028254469124
-0.101957894599791
-0.0642013818909504
-0.0837460493017567
-0.0318390187273748
-0.0928380014419254
-0.0235470060969601
-0.00465599519164833
0.0126654902938195
-0.0327101145790682
-0.116298174107062
0.0535726127132585
-0.00405968866385438
0.116222969000449
0.162373594253964
0.15621537625293
0.094540130263571
0.00801916050242073
-0.00549531955308411
-0.0532062120197682
0.0492957668008541
-0.0554171425912606
0.0446060181963238
-0.0228742986900448
-0.0234743914287993
0.0280092270300377
-0.00492815595379139
0.0695688658967532
0.00335539605748284
0.0607190691134156
-0.07073901944429
0.0232816029678725
-0.0524652193672217
0.00774773757370404
0.0147447138808106
0.04541674245098
0.0022539559590015
-0.120213500030943
0.0298711885238757
-0.0260528821046886
0.0581088212089429
0.0855147412341798
0.0941607979963369
0.0637297487960569
0.010150163533523
-0.0178010867937372
-0.101654379951934
-0.023782691112233
0.00227538045959861
0.103963871701718
0.148438290522515
0.0616537381958406
0.0395200254188481
0.0140118762543412
-0.0464534925219559
0.0535205205350854
0.116341491408497
-0.0620225307897049
0.0631565196339596
-0.0226024975051229
0.0475374167967106
0.0723484239965302
0.0685565036443038
0.0168875618925538
-0.0975884997088252
0.00584758509585658
-0.0628052059439606
-0.023501442564357
-0.0349546522553151
-0.0554831718009872
-0.0625066307710571
0.0129202389374493
-0.0332594105737173
-0.0854134817965954
-0.00363622392924416
0.010231901451723
0.134516155480368
0.195682559141766
0.112464699946785
0.0760651010045045
0.0287322298605089
-0.0329039227007137
-0.110380584464893
-0.0553406233137883
-0.0130720828844992
-0.00355510420626168
-0.00791941231613789
-0.121495880283973
-0.0597786304039566
-0.0399895691392259
-0.0826687056858132
-0.0855141207220954
0.049152507523652
-0.0457634245237638
0.0533182707566202
0.0588938303982013
0.0376564967830707
0.0363388646667161
0.0524805088019009
0.00296032283768505
-0.0350546607788921
0.0240050862603041
-0.0641962256371853
0.0120251670968461
-0.0301132618368417
-0.0147304918415496
0.0508225685705611
0.0158521704899551
-0.039173960715001
-0.127000620010458
-0.0297732750915062
0.0272397254894964
0.0862193227313234
0.119999904351763
0.00256527343646745
0.0178407231054609
-0.0260293824413947
-0.0669147170338043
-0.010142683038758
0.00266123578727202
-0.0388514043450858
0.00826095495654219
-0.0348517860342343
0.00482773728996771
-0.0394188373164121
-0.0556550045324431
-0.0172339639344983
-0.0935354547280934
-0.0250324241199345
-0.0923753623334052
0.015916985134969
0.0323476839207743
0.0295636351797733
0.0672991924047715
0.00211226361692172
-0.0627555816610281
-0.0363645535022817
0.0720694545566243
-0.0296265092563987
0.0231630975736244
0.0199920549741823
-0.00944874132019526
-0.0262998869490283
-0.0177449059790961
0.0166390273527069
-0.0458322918137446
-0.0188663867186586
-0.0438361094303476
0.0248819069983936
0.0279200609709147
0.0350900682303756
-0.0430734829746162
-0.0646382535059485
-0.0309772943538262
-0.0905399187192057
0.0285774347994164
-0.0330966609795912
0.0138781889668388
0.0579884287106772
0.0416883962639412
0.0166750721742473
-0.00795280944761665
-0.019854995775093
-0.171834509979357
-0.0718517916949947
-0.0191185165270335
0.0241436836357105
-0.0237568706624404
-0.00365965468849665
-0.00533051347715469
-0.0103493046163547
-0.0180548506880638
-0.0934933651430888
-0.0160695857978269
-0.052050677079175
0.0326339116322317
-0.00253359746156169
-0.00360331337209611
0.0458733437964143
-0.0131329365202156
-0.0295661259766417
-0.0134606732002854
-0.0444372426611575
-0.000692414258310113
0.0855069219129227
0.063597751031627
0.0384045575501226
0.00957808847167783
-0.00950173251332448
0.0316920580746598
-0.0466209772325513
-0.0801213635524275
0.0263657081068163
0.0805443003619152
0.0289847159102754
0.0307388450924053
-0.00426255435538115
-0.0278555341222069
0.0202834800501478
-0.0693007237720158
-0.0029265864518845
-0.0632697428948436
0.00768416126713574
-0.0572263054119887
-0.0429143724062495
0.0351646928408544
0.0026658256629339
-0.00714935665356462
-0.0829505534039248
0.0204891030721227
-0.00471353224628426
0.0882160739277488
0.0367999535395286
0.0469961801101983
0.0462638027780227
-0.00895423550510847
-0.0277644417246425
-0.0429521129341993
-0.0550675720801474
0.0242337336745245
0.0520926303808154
-0.013489085615357
-0.00906138338894516
-0.0139051348882238
-0.0187568132463679
0.0194997543726629
-0.0440729713586495
-0.107161772915226
0.00776707992477838
-0.0331936813460064
0.00134540062706133
0.0329180743658377
-0.00825491848010819
-0.0439715291489876
-0.00948500303098436
-0.0834921906526633
0.000786464764857263
-0.0322071389268606
0.00687481822512458
-0.05763995866305
-0.00153197723889019
0.0292170456794507
0.0150849639509225
-0.0216749069482318
-0.0995228055272486
0.112652642259429
0.0419633612047715
0.158965504806189
0.172967001703969
0.187173469517524
0.142693217233157
0.0086740371854575
-0.00550384513805135
-0.0411482254267107
-0.122232346183428
-0.0271633137508788
-0.0750411338174716
-0.0584522019073265
-0.0144171252988213
-0.0204820455097143
-0.030075413965529
0.00585181280158792
-0.0578927718716235
-0.118533625804977
-0.0718680651904585
-0.0739911273121745
0.0188377931211484
-0.0063939407544402
-0.0757406906706844
-0.0775781711288344
-0.103674372641952
-0.103805967994867
0.0817132031801277
0.00269201906499509
0.080942324484673
0.100453209729528
0.147997236527292
0.141512910999545
0.0482867657293396
0.00633772279526259
-0.0662212912291693
0.00784928798312783
0.0465617477803866
0.14537189883272
0.161588497955483
0.0951724888757568
0.076179682028392
0.0446129074271728
-0.00224697016743856
-0.0573498684519587
-0.125253102093176
-0.0803480025761502
-0.0941478717773652
-0.0186104948710283
-0.0248918485868528
-0.0772837701296828
-0.0683740896497898
-0.0874703414090735
-0.0243164401204544
-0.0963535260392635
-0.0561742163077332
-0.0598693871531419
0.0222350458253917
-0.0560384987568305
-0.0874742740074599
-0.0754395750450063
-0.0966240201182059
-0.0417660368250872
0.0112003785583353
0.00957940523260329
0.135151608801233
0.166896128675725
0.139026830056961
0.143293322556916
0.0964228323448396
0.0338101578711395
-0.105067434869148
-0.0194509133129106
0.0269749088881901
0.0381922590278088
-0.0105690309368055
-0.0923093578875194
-0.0166159989452759
0.00146666652873901
-0.0189365404232787
-0.0317701794971667
-0.106470934400083
-0.0529022712133481
-0.0601555939421406
0.0274015471343749
-0.0383312962544297
-0.0666774997966351
-0.0519066273388697
-0.0813475774999618
-0.00196760554587701
-0.0302068091250757
-0.024721354637316
0.0202035703091613
-0.0121560614302014
-0.0992562273487507
-0.0876550138100456
-0.0474544607673794
-0.0934590294639723
-0.123534945878793
-0.0302630046195919
0.00484809404373583
0.0645036928582532
0.0589995066845626
0.00755071314082363
0.0576693680387139
0.0268644750539095
0.0031298378058792
-0.0197154407986973
0.0167091421718202
-0.0316461221908907
0.0070488632446092
-0.0956373055291534
-0.0105786566172321
-0.0285752970885553
-0.0462989527280994
0.00813806949588707
-0.0175186937062748
-0.0310774505288195
-0.0256847407719872
0.0525369910021278
0.0524914831283367
-0.0315816861796735
-0.0383876343706927
-0.0267337912698542
-0.0921879272784764
0.00780887357010573
-0.0163490399008253
0.00191190428371687
0.0328055618870063
0.0185665560208148
-0.000576747633342468
0.0177897535706482
0.0120336319824933
-0.0167387539262338
-0.0446281870889752
-0.00392003688244992
-0.0458028254436486
0.00604224006075387
-0.0846921465815007
0.00389868698488455
-0.0243169949381584
-0.0398022566041442
-0.0152265685790652
-0.0857420426134071
0.0626616593244049
-0.0414004004542303
-0.0228516005284453
-0.0244440723785051
0.018054745194996
0.0424752866836936
0.00243015190038307
-0.0254077432116513
0.021733209607197
-0.0119370728238874
-0.000357747599059677
0.0381848443194052
0.0179409207422138
-0.0120392646566603
0.00100435597539222
-0.0232088687110241
-0.0584230138862554
-0.0117436885495644
0.0173225909656838
0.00674252067334069
0.0424037070596619
0.0889526204434157
0.0677378996129597
0.0331831919671744
-0.0266498051094208
-0.0035478903424294
-0.0330124000423545
-0.0609166419003881
-0.0266424300862842
0.0343813861480855
-0.0403848456095161
-0.00584555285915023
-0.00685038728456601
-0.0134131150631037
0.06849554845746
-0.0764406411730655
-0.060973607209365
0.0151839741487279
0.0232721946411026
-0.0920277153121858
-0.0298492578598942
-0.0228966581552628
-0.0516793564674753
0.054707792260268
0.174214746321682
-0.0491836403003355
-0.0326123609650021
0.00598733082156279
0.0200437649098562
-0.067577913250564
-0.0294691754684187
-0.0174100935819896
-0.0376874437597201
0.115508556034452
-0.100428058849619
0.00562762185769814
-0.007708425389318
-0.0919730855798165
-0.108485282036063
-0.0389078074683939
0.000170084927781916
-0.0318367374628357
-0.0668625718726358
-0.0289865771875906
0.0375077534345925
0.0348354786162818
-0.097891827142426
-0.0143482233196092
0.00118748942452175
-0.0265690053658973
0.0771967284245463
-0.018781729626262
-0.0803398545129551
0.0198460089869287
-0.038933877462777
-0.0247325063741823
0.012370530503215
-0.0154190845040622
-0.0505253730931193
-0.0326677984175332
0.121069524393178
-0.0767940085163836
0.0292410523034956
0.0202273268677923
-0.0626009143981563
-0.0688737147139734
-0.000408482038423401
0.0258588487654081
-0.0165691283091632
0.0941121422768173
-0.152741934533397
-0.00534107857627058
-0.025159622845803
-0.0319139470725452
-0.0949103484585912
-0.00476534011500677
-0.0465670656985529
-0.0927351539568808
-0.0161273430977499
-0.0766167630766934
0.0197242896445231
-0.0429606100270086
-0.0448445423970812
0.0247418196181923
0.0376656912939543
-0.00285012161672049
0.00779872804498037
-0.0721082875416773
-0.112974341664684
-0.0277246749040014
-0.0441596616905768
0.0372348948564859
0.0652849029156523
-0.00436796597320992
-0.0247825450187601
-0.0843366984764573
0.0738385071577539
-0.136126466540179
0.0105713846157728
-6.00214706440682e-005
0.0028296487033709
-0.0541339707981024
0.0282220938283866
-0.0172922640124763
-0.0722369903118843
0.082924981478496
-0.123849093459581
-0.0456466289414762
-0.0699627976094056
0.0157844362988846
-0.000722358703306845
0.0140408309488125
-0.0259671514764696
-0.082403565454633
-0.0768947396507801
-0.126515569008768
-0.0549718847866296
-0.0803199052823531
-0.0110112709460758
0.0565176383977517
0.0283680991329901
0.0057812308225234
-0.0538344845511429
-0.0584680658316262
-0.0609092888650109
-0.0024810059745086
0.0380550076740394
0.048573005680176
-0.0156304148062883
-0.0207590603312869
-0.0740082594003472
-0.0793303029673671
0.0668061460906195
-0.122594733420917
-0.0377504453423302
-0.053199555504509
0.0165747955579105
0.00313946580512843
0.0252778021319241
-0.00909678093138561
-0.0560450013874099
0.0893514567891673
-0.0345182200075299
0.025422856931238
-0.000597569026788824
0.049391490613413
-0.0349220653442647
-0.00613739349694122
-0.0127178676758266
-0.11273900867679
-0.0558542098914436
-0.0936162122569374
-0.0412881822221548
-0.0214147902478878
0.0308547660025426
0.00408019928895961
0.00306350557043608
-0.0403633159349063
-0.0749094296567545
-0.0169161546239515
-0.0183078696221525
-0.00460242075904164
0.00840415078804181
-0.00546746677792036
-0.0518351485669283
-0.0380039309767848
-0.0147670405112613
-0.0621909734069682
0.0811559813666147
-0.056130838936362
-0.00393883178517715
-0.0303736248318954
0.0219616039119189
-0.0663561976098606
-0.0389623713919841
-0.0277838737807702
-0.118891394549282
0.0958014312318862
-0.105373790416649
-0.00555008635210057
-0.000870148890028599
0.0186435871827029
0.0506942194354635
0.0586915804141008
-0.0224592199710972
-0.113760241422283
-0.0372423036890572
-0.0478140929654956
-0.0425265638729172
-0.0294515923847671
-0.00259348894858147
-0.0292534293636453
-0.0277460825647746
-0.0114412887796546
-0.078173037970217
0.00417941121796974
0.00181869407105431
-0.00644532499305287
0.0138533054017568
-0.0386027218224719
-0.0559008169975134
0.0285178687692313
-0.00568885495421209
-0.0180760618824257
0.0895302104499005
-0.111210600650347
-0.0202158200743161
-0.0298301923833809
-0.0172546662396891
0.0143173194205577
0.0361697141182468
-0.0437878911794134
-0.143113113099036
0.0829501434745125
-0.0889357310213953
-0.035383514509905
-0.0125689337228719
0.0136149647805211
0.00694043390469796
0.0435510371294829
0.0259328086652718
-0.0203841059190734
0.0017362607836543
-0.0249400474753668
-0.0473651683582686
-0.0414539189877949
-0.0931392357597611
-0.0984981327979078
-0.00831733906170124
-0.0341266843282906
-0.0535854520468552
0.00544479220759924
0.0295229490815466
-0.0372614978978197
-0.030222978841757
-0.0130424985331093
-0.0299032908380837
-0.0046601074945853
-0.0252592301427912
0.00529920680029806
0.0931179366034868
-0.0980392842820707
-0.068750660801894
-0.0760825170263628
-0.0558447734392104
-0.0582019747761533
-0.0113792901848417
-0.0249306722780412
-0.0535627824918797
0.153498241609218
-0.0222281945597842
-0.0192429489510863
-0.0303994325355968
0.0361995401432456
0.0239593946147123
0.0131787813203391
0.0127718040859978
0.00375328125897522
0.167810247209258
0.0320508032882319
-0.0351298706074265
0.0880809569075047
0.0871301740030491
0.0374064249472182
0.0242907260930476
-0.0410223710672478
0.0547774496697692
0.125372789082655
-0.0192946533759066
-0.014769861157617
0.0923156984439194
0.075620116884443
0.00653091548669635
-0.0177896637618628
-0.0790606407696774
0.00238213354753667
0.113799526564386
0.106386630908707
0.0597074910656369
0.0423232501889754
0.0778694165678773
0.0694621339539628
0.0982699203511112
0.116556285389136
0.0918415123504645
0.0171390569694534
0.107852920632922
0.128886170909957
0.139200193911498
0.144375517809687
0.0748411025377705
0.0505013849818537
0.161165405052374
0.16989957678225
0.121679206094938
-0.0216597110371503
-0.0130387202017589
0.08993747507277
0.0832252044435981
0.00832775790947631
-0.020689946635517
-0.0755437631853398
-0.00573857110236468
0.126301994991487
-0.00333213548830169
-0.077550405880059
0.0303470315936068
0.0493309608855574
0.0365183204006361
0.009119332344155
-0.0531130682290236
-0.0236213712811497
0.0316510271528127
0.14336430617118
0.160064207284545
0.156635680273219
0.155824363904192
0.0755945345591667
0.0477217398659067
0.157317454715883
0.150490587599268
0.0431666142333097
0.20988708481076
0.107917430229184
0.0552953610501324
0.0834500390964167
0.104577575490885
0.115082887913676
0.178958812509738
0.0846024570666508
0.125933471523645
-0.0072545080949203
-0.0700684347510812
0.0485205607214528
0.0652851853371997
0.0521239951431274
0.0201789425097285
-0.04928615989
-0.0207487718968581
0.157417044345472
0.0339155595377779
-0.0213689178985259
0.105000831002406
0.0599490926851422
0.0504224150109008
0.0411206447735358
-0.0346000628637914
0.0365199682023738
0.0536192761887065
0.233721752197128
0.129629998699779
0.0782712489310213
0.108138731518957
0.110482363173528
0.110884362729872
0.157593352148567
0.0477913335592261
0.099485658534049
0.108507887281745
0.0942405262263558
0.140284321586318
0.0827320640212412
0.0287463995748
0.0162650673090702
0.0294669215707841
0.0685436861726467
0.102158342341123
0.091314756353299
0.0589792135229036
0.0409099414395994
0.086949962848999
0.0655454543519408
0.0700032055487283
0.102467302114191
0.0732089147310338
-0.000821869830046238
0.125026775852244
0.15527562570976
0.150712066115443
0.145527148002278
0.0607253732795381
0.0332988069015301
0.135551768659182
0.123125110919215
0.0693670586772774
0.136251466795459
0.00661734809078871
-0.0368274055922691
0.0380034323515009
0.0550477488154309
0.0156442701025378
0.0476262874251859
0.0879118491091314
0.0222929256848765
0.1735409519485
0.0540006091710586
0.00938312414514856
-0.026442717622891
-0.00911707721924701
0.00984909259314249
0.0541662206179441
0.0567134009165298
0.0156142689846532
0.153738317070404
0.172330075732882
0.16532447683199
0.174737866275495
0.0956984432536785
0.0603042819160688
0.155305662680644
0.112548879592244
0.0383398781723281
0.186153809109876
0.123780748148254
0.0673454262251823
0.0970137966434719
0.127638978662411
0.120749932043171
0.176256288198847
0.0752329784326128
0.0339379256254232
0.200566784880459
0.0773178645592422
0.0171283342411028
-0.0141755836118618
-0.00260262737738051
0.00620655303311782
0.0444866329751579
0.0330675461690728
0.0294323292580664
0.0691746854135473
0.0196626791280159
-0.0381896698664593
-0.0301576478947668
-0.0253134999582197
-0.0219751057542253
0.138709228036931
0.150803328019852
0.038016031274016
0.179911311277051
0.112652598415879
0.054924017575558
0.0863678886784842
0.119074479318886
0.124285607093707
0.175959663074931
0.0522480783606595
0.096670641702926
0.0947343474685469
0.0751383844058422
0.114894731042125
0.0744928630955684
0.0252043640080758
0.00883199120047683
0.0240595940783817
0.0646861096397689
0.0331991096289277
0.0921403840035342
0.0406848996025359
-0.0273967438632198
-0.0268096590814302
-0.0270409776127224
-0.0247566009679299
0.128989901995793
0.147980453535263
0.0651752591566011
0.124248444058272
0.0438087951102223
0.0459055698029384
0.0563879661092866
0.0207813549405516
-0.0364240115133689
0.0578696294780695
0.0914687903049185
0.0890496874005092
0.170197142649622
0.050687825022398
0.0187644611656813
0.111151010123136
0.121802813270548
0.0641533494381129
0.0869134925767298
0.109397342026846
0.0359981570280629
0.233351837066099
0.119130663521554
0.0642136019790584
0.0234334621321458
0.0546403629590912
0.0589327344164983
0.0988302822337367
0.105575105385456
0.0582752353654568
0.0735985477227195
-0.0389376932736118
-0.000109153326318829
0.0121414178446936
-0.0289373133175223
-0.0317727024204721
0.00643082384887476
0.125850130771489
0.00815806130417073
0.128856872281097
-0.00755899865553021
0.0185998753315524
-0.0184061515366691
0.0317722610899662
-0.00400158360634085
0.0874006837277592
0.0826240639382813
0.0488753483487492
0.260317892112701
0.143105781630975
0.0818260054198851
0.0475920101897939
0.0766911308900532
0.0694589828392152
0.0997152332572461
0.0852324793932526
0.0454511902107534
0.132936199471667
0.0855472963045177
0.0439419937864062
0.0427473073305399
0.0403693251570189
0.0324402376586714
0.195496332161868
0.196864685238055
0.0461990967549874
0.190961640795443
0.036296592955765
0.0618039691642518
0.0251174942519575
0.064856623671561
0.0120078447744727
0.0816835289063561
0.0573468471639863
0.0341435005215772
0.0731079538412012
0.0210043135259339
0.0438914782158368
0.0375331304504535
0.0331646049943242
0.00759648183834446
0.0928221883099896
0.111779110782758
0.037744058738346
0.13520727723428
0.0859986344297384
0.0306622603390441
0.0293738718805393
0.0228652560188176
0.0208866863430191
0.191470641308588
0.184138998672607
0.0745303840830776
0.151283952887594
0.0794223769630909
0.0938599935157672
0.106888169105068
0.0695241399541336
-0.0108271814376992
0.0813982639666434
0.129454994968758
0.0193099134308978
0.0833388380678277
0.0244014698427757
0.0242756755528552
0.0276055086711943
0.0096679588068174
-0.0188215037743405
0.0777211863953997
0.066877093120405
0.0796172588758612
0.142567060513975
-0.012831302130847
-0.00253217028039313
-0.00387364258629982
0.0199986986245027
-0.0434714471656722
-0.0445420389264481
0.0428179652451072
0.0765994519528556
0.105016333277861
-0.0113755143569686
0.0421066049008362
0.070703881437569
0.0328163458683367
-0.0028835880751076
0.0178571370788038
0.142349588081849
0.0572524279081301
0.192132294081273
0.0464325541625766
0.104375830713203
0.072238114432974
0.109404690899505
0.0657917384733289
0.11905107763327
0.103118548379335
0.0344998155856753
0.0804647709597076
-0.0347814105350213
-0.0225324861205388
-0.0502312524914569
-0.0621773502984337
-0.031605672907176
0.0315708011266432
0.097439242409389
0.0234545434206253
0.112982462368233
-0.010777555830269
-0.0219281525275305
0.0418658044048033
0.0487319626704139
-0.017167630798337
0.0920377990421786
0.158743886423348
0.0603975253721293
0.199884427784146
0.0528574990664147
0.100274878332776
0.0787653398007323
0.110419789001316
0.0583726976469517
0.108983295324821
0.0652511181557861
0.0481909664688132
0.100777378742178
0.053869865677283
0.0951149722933297
0.0849124944306668
0.080697604366572
0.0323434700933871
0.101776630562433
0.138531454888401
0.033380049596415
0.125529882896927
0.00121029347299522
-0.0128861243090645
0.054706408588987
0.0553154790212518
-0.0239323702337095
0.0803995893893023
0.137539979309633
0.07674113680752
0.163874347382257
0.0133126508147531
-0.0222506724625949
0.0446062335416847
0.029500231594313
-0.0358402667847351
0.0636300596595766
0.0858134772832981
0.0449100863395687
0.119146187623896
0.0657723696165875
0.102776988137059
0.0997798427286714
0.0900051825127146
0.0388000219006902
0.121260453348187
0.132554755456032
0.0879252158330979
0.152955434758447
0.00698903374820112
0.0377532076783125
0.0575974654169174
0.0619306735020435
-0.0172958681763659
-0.0256330101273944
0.0812447926536742
0.0604475819754849
0.157875584606817
0.0182203843521377
-0.0310463223752373
0.0385235523208977
0.0258460733150341
-0.0467995369748949
0.0650365600515913
0.0568207977990449
0.0709928538806437
0.119137889394246
-0.00922735192900861
-0.0141837306133697
-0.0202752711502631
-0.0254467114605649
-0.0239476879930198
-0.0162937931225295
0.0454767154569472
0.047809545204679
0.10369747952728
-0.0230312794109407
0.0156328794230465
-0.0121784802536095
-0.0215144800774287
0.00487678240903953
0.032225106729848
0.112942556251256
0.0408888161517362
0.162144595630673
0.0170793995497394
0.0253120620514045
0.0722819308537893
0.0786749802343954
0.0182105142149379
0.118189880638869
0.203426268715955
0.0253351309153938
0.11156254311378
-0.0400092155850108
-0.0457631395356292
-0.0664782950549009
-0.0401527291692243
-0.0591594986060707
-0.00539398799977182
0.0971521733766777
0.0500405901291535
0.208175293690706
0.0228024972727174
0.0396862868618264
-0.000853832225024913
0.036355889442358
-0.0202258657395807
0.0245367204116324
0.147819257647709
0.0408679219340504
0.149204552047072
0.0182624862970516
0.0199879964090981
0.0728498577848108
0.0783982550801865
0.0119934957353382
0.116215370455556
0.174542413227899
0.0791040707307226
0.182626974984919
0.0378040008961741
0.0189518863367693
0.0697472719595794
0.0645914673061571
-0.00139093070460426
0.0838608639417911
0.119932426611178
0.0671097173317223
0.201968713778791
0.0061852325504732
0.0328046246852635
-0.00560627540287976
0.0306505902071145
-0.0208115463467873
0.0290183809477593
0.143637855289789
0.0871225959278
0.133531813001322
-0.0300148798474421
0.0430057109992114
0.00972031916244061
0.0219146225202569
0.00271711694764438
0.0788099812539077
0.159131950898236
0.0706262382492439
0.177333894001263
0.0370946501597994
0.0192257711190835
0.080866365799628
0.0817354160859557
0.00412805279874557
0.0956420122291777
0.107349409894849
0.077038512625043
0.126318140436513
-0.005961242927727
0.0233688256989729
0.00634415094767079
0.00692652816187029
0.00681197942890015
-0.0165091020146116
0.0789483343303866
0.102382994201833
0.147924776650476
-0.0307546039536847
0.0539936144859461
0.0191298601182738
0.0290295072811748
0.00967005930339204
0.0986194698162136
0.149449784061998
0.0115754273824593
0.101121574052991
-0.079003144847378
-0.0237220389324643
-0.0467209941193152
-0.0475432201549238
-0.0270001781960274
-0.0195170243177295
0.0580623239813177
0.0375334372156497
0.129968176519748
-0.0216733873895011
-0.0159122727484984
-0.0231534744166023
0.00285614974330098
-0.0212182330077856
0.0132752495674167
0.116887407438243
0.0523877550249592
0.21685380564996
0.0311178707418952
0.0474371096101253
0.0195137333050041
0.0644476407294271
-0.00372350034721079
0.0236345589634709
0.143593486070223
-0.00619620792588109
0.0860046064381152
-0.0327165927577984
-0.0265927077069388
-0.0679767851894617
-0.0617322472287098
-0.0424617081125213
0.0111314241756792
0.0580717759471434
-0.00710716183139653
0.188981052215709
0.0592998689620354
0.128652915772028
0.144555592738863
0.130238246665607
0.0887801550767897
0.0758478620103699
0.102431281653852
0.0600419679956881
0.191112772381321
0.00578974176034294
0.0175670640007481
-0.0104155426228098
0.0387232999211364
-0.0179096268106407
0.0264061137917914
0.13229980952303
0.0696362670074406
0.123979931873606
-0.0360916975301687
0.0336495768015813
0.0182566689905826
0.0120955533486757
0.00336816712824676
0.0946350408807362
0.146396814062557
-0.002836214368209
0.163629569380823
0.0234241523422468
0.0808435238249848
0.090085176873897
0.0869854570065907
0.0688413119213234
0.0769737859849124
0.100809973423592
0.0159245383267362
0.124189634569558
0.0241689225223318
0.108495857260233
0.116211642178493
0.0674099263379168
0.0596697223377623
0.099928328389155
0.0758340918975334
0.100523945067386
0.135165310751536
-0.0459292790987879
0.0602262159839048
0.0413221774012872
0.0404022047900491
0.0311437387718969
0.11978780387829
0.161599348163823
0.00589465357260639
0.125575087196708
-0.0529973140618186
0.018481518437458
-0.0123621077397437
-0.0142093203197764
0.00848666412617121
-0.00105574712165146
0.0759553343553086
0.0275940301095037
0.141399678599839
0.0323336898183406
0.139862265136826
0.173407446738443
0.124750530710128
0.100775570944822
0.120110023505508
0.0853157990173479
0.0265700537632687
0.0827797933442605
-0.0454878086740988
-0.0284662092721329
-0.05610151817337
-0.0470750179609684
-0.052758027476977
0.00187956795764011
0.057244800967751
0.0154373681898978
0.126800845295245
-0.0154414982585989
0.00911198401190478
-0.0697392530795337
-0.0448451402730803
-0.00538137606877785
0.0450229840984297
0.0971322322249143
0.00579368083416911
0.273577273078253
0.122354847056551
0.184664330256896
0.186273251186414
0.156864116937048
0.135767656060828
0.102954645660235
0.141294386728787
0.117693697376221
-0.00974443175788405
-0.0031060393467087
0.0108833158966166
-0.027988541630726
-0.0572872261070984
-0.0445464998995024
-0.00815018010660786
0.0341417823037076
0.0530411714071085
-0.12528697430379
-0.0735527174002601
-0.0915964431827886
-0.0164504152421118
-0.0558152706847347
-0.0925676304017692
-0.0610581866246152
-0.0475196368479668
0.0111763021653189
0.229871503622037
0.0613478305281016
0.112135334856913
0.109054577814952
0.115352640731469
0.125554749607825
0.130326941388222
0.158249155410439
0.046693951010901
0.188415059998246
0.0696273282118547
0.161483252447866
0.142103623967471
0.104094963837148
0.108111018592269
0.166963469638243
0.128640812495517
0.0523338772960999
-0.125075222513097
-0.0850385196576169
-0.107033988274242
-0.0416075130425424
-0.062167866373935
-0.0779763354162045
-0.0409711960339971
-0.0218791459663029
0.0996926931858222
-0.0322706474812475
-0.0369451135600988
-0.0490533823310224
-0.00521798053315228
-0.0785001615514767
-0.0988952114606335
-0.0847348379979092
-0.111611870426486
0.0508855832935799
0.17240337217618
0.0332015767116238
0.165254472354159
0.175923577045001
0.166038157271338
0.16316055027149
0.20874438127742
0.156331330816621
0.0712050922408585
0.150398904417744
-0.0150843317210795
-0.000156096479043555
-0.0746765594361433
-0.0492228309713545
-0.0139475225614556
0.0356622913634626
0.0875218716315141
0.0968155886190006
-0.0378433410871923
-0.0406178785023125
-0.0554401530070304
0.00425426273177981
-0.0622528466618984
-0.08247645051764
-0.0674944386713884
-0.106198453438518
0.107681280176704
0.024702261432294
0.000738964575238403
-0.0126260978035601
0.00890572041838968
-0.0438452563926983
-0.0639488376036936
-0.0170405830052571
0.00728410516259265
0.150285418999455
0.0707437698272108
0.0741149336492163
0.122982130192346
0.145680332866677
0.0673546816948776
0.0348076231712843
0.0575810097437651
0.0838481782260139
0.153632839792747
0.0970721119107973
0.0473897308573185
0.0917713705597104
0.0826053722943742
0.0524446983843943
0.0208227100806438
0.01928266074807
0.0231680694101319
0.0865662038962653
0.182092158336167
0.0313082079111438
0.0279031685488852
0.0450542837972993
0.0466965989436317
0.0121544551252477
0.0684959716513365
0.112062423293152
0.0878025695974639
0.143959556206599
0.0407575457536253
0.0276267131102121
0.0415883643202322
0.0199256612778196
-0.0382804586597065
0.0569473133074193
0.120941678633925
0.11470428173542
0.231723656576298
0.0832123906321808
0.0953952466573703
0.113137670947837
0.115614058167766
0.0692682527602506
0.105934163525846
0.155570812430805
0.108905635914231
0.181100173744102
0.0894701900443313
0.0962200419064088
0.108606914784017
0.0815650972183405
0.00926291743958009
0.0981907130841117
0.185485861976003
0.0768640516797441
0.17989403212185
-0.0143627749773327
-0.0315660238526155
-0.0546216429042889
-0.0399931776229168
-0.0606086283677286
0.0369728779410285
0.160586855601944
0.112376160709396
0.171684527482593
-0.0298932038611657
-0.0224359917031677
-0.0240794081241228
-0.0346287772458212
-0.0539084107032108
0.0268464623978066
0.109420624456981
0.13679726833238
0.272093741892759
0.0396256144975256
0.0531381175226411
0.017447360571952
0.0431525147633119
0.0180859767436559
0.0959844883050944
0.264944553009361
0.158476836052265
0.252264610721841
0.0232207864616105
0.066262564043136
0.0466823646279713
0.0443602051950554
0.0241556295465578
0.0883359148100177
0.205542137540976
0.116675952556874
0.110764896717555
-0.0253607039351206
-0.00854761644331927
-0.00970857922229155
-0.0264074747818016
-0.0278810116274928
0.0178661863181135
0.107585814460389
0.151812177888479
0.112874071787387
-0.0157425868410956
-0.000790543427750518
-0.00423207003521756
-0.0445826123895893
-0.0468338611209523
0.01787894765015
0.0714386221335573
9.3677199000
