4644
0.0115587908919472
-0.0456199921210453
-0.0155550798119069
0.0502079217862443
0.0387571821657183
0.0299068332456979
0.0231561456591284
-0.0453531599717135
0.0132117344426048
0.0188812167058579
-0.00523368031092749
-0.0348843717620299
0.012305391906953
0.0342515470389569
0.031091920912404
0.0130869947837589
-0.0561241371319592
0.0143960588586659
0.00832583780490469
0.0163004877477363
-0.0188779042464078
0.0515513190112352
0.00202007746386893
0.00987803207260762
0.0318245853323059
-0.0240069357597997
0.0362833520338516
0.00383094224816443
-0.0148377182124027
-0.0329986821975175
0.0082909792567658
-0.0113297396899792
0.00408959625035198
0.00355435185814302
-0.0404511856297323
0.047454955834432
0.0399954079239917
0.00743043596769159
-0.0275979489972713
0.0294935470194699
0.0441278773449056
0.0434615667679351
0.0304292274856662
-0.0458206253985233
0.0311197282698394
0.0139923612025689
-0.0271687905155254
-0.0555593531386723
-0.00689956259659587
0.019860800630806
0.0144195983408155
0.0112607804562169
-0.0466406875706216
-0.0312223843742521
0.0152891052597901
-0.00671845964547797
-0.0200111017185993
0.0246770331627366
-0.00154609246837395
0.0194333071258501
0.0202953900737687
-0.0363054171844078
0.0589442704057265
-0.0407948272194004
-0.0100903048516144
-0.00731311641987764
-0.000404065640668089
0.00655070713732534
-0.0108508121120617
-0.00797338015957512
-0.0266457853816715
-0.0211852151349041
0.0262551306247909
-0.0228702093491285
-0.0497655083689737
-0.00600454428314505
0.0177444857341064
0.0232469095586437
0.0161546825782385
-0.0368499163990067
-0.0264478128997961
0.0479630704565414
-0.0206800808950086
-0.0329447753211577
0.0290635333841979
-0.0308939487110079
0.0052538009389397
0.0560291335788958
-0.0397436187234255
0.0446169725031407
-0.0236042912623702
-0.00108559227706927
0.00304758553360372
0.0105600297882319
0.0068134721270636
-0.0109131815097129
-0.0145910370411935
-0.0333326494386248
-0.0194155757165711
-0.0129755669402981
-0.0593254093145984
-0.0102252935128693
0.0723312046721431
0.109470931447334
0.0343704141381043
0.0243417397407607
-0.0411093469943454
-0.010109098798933
0.0463024602677682
-0.0174369809829144
-0.0344778280048749
0.0218556108546807
-0.0251877846050547
0.0106284270799642
0.049927744916283
-0.0404447499470386
0.0386407153907816
0.0305218347490043
-0.00272613687366359
-0.0795585557308691
0.00651819237580404
-0.0212233300194044
-0.00428554170923998
0.0108485574572698
-0.0311417713697589
-0.0287062614117627
-0.00543391907884603
-0.0440008455426417
0.00540679565409827
0.076089200802966
0.113117314682611
0.0386873801472108
0.0235576347650687
-0.0371196098001022
-0.00354990824457437
-0.00423433364783728
-0.0353921976780259
-0.0530230516362727
-0.0321889584352599
0.0359557367885248
0.0735763735349988
0.0520500683105517
-0.00427906409485735
-0.0589333684312598
0.03922002009506
0.00620761753273691
-0.0717278213121941
0.0249232923563
-0.00429940678530175
0.0136281170979755
0.0270056556026738
-0.0267541018273502
-0.0168647548874787
0.0053510691029083
-0.0301439325129745
-0.052581078383352
-0.0156692493370261
0.00204612858821613
0.0268192242848292
0.00643723752972339
-0.0479479363999896
-0.00857309518659019
0.00206785741984905
-0.0259305889287571
-0.0323675869643258
-0.000651712780312564
0.0702214121135662
0.104130199839553
0.0787714037410241
0.00517637784669799
-0.0532885523747714
-0.00698315293517869
-0.00181756077394496
-0.0265092982148033
-0.00268391311181524
0.00127627994989868
0.0152494924120674
0.0349635172731395
-0.00567123014706625
-0.00514459917782001
-0.000842883802301878
-0.0366749180324599
-0.062936930223513
-0.0281887582320188
-0.0099921410708951
0.022398573703722
0.00130466800276997
-0.0509847203906508
-0.0138476242958266
0.0049051183327716
-0.0319790810179005
-0.0651043277626455
0.0332512982589641
0.0395189577681539
0.056097940336969
0.0392188854462958
-0.0405288654261955
0.0574917773552825
-0.0178355682530454
-0.00120404739389377
-0.0289572077738127
-0.00224825160182653
0.00500439379187803
0.011668549109177
0.0290448106453005
-0.00686647171182235
-0.00632076767176556
0.0159848264274164
0.000798935766504693
-0.0164000874193229
0.0454016015106163
0.0417425316024205
0.00814205941741905
0.0427137761892848
-0.0224491428851924
0.0166817403681643
-0.0183741034302314
-0.0614654863924029
-0.0912633042015399
-0.00532896662923433
0.0138485824054148
0.0230530430170646
0.00909983427299041
-0.0558030592789884
0.0338364444491789
0.019561185474849
0.00183760639860116
-0.0310897877158
0.0604156441956975
0.0571175903534693
0.0394694325130818
0.065743069411389
-0.0429260121145265
0.0547536904460635
-0.0129617470853368
-0.029645674715859
-0.042863499811228
0.00253688758069414
0.00825676131712282
-0.0292236123790598
0.00666187379472722
-0.0469658580541431
-0.0087148818085823
0.017745472873333
-0.0121517140931436
-0.0486310679894094
0.0408239730616617
0.0322462424130617
0.00667934432042774
0.0682157417688524
-0.0143886753743865
0.0110211868828987
0.00436796933031954
0.00902731143437025
-0.0192250526580645
0.0498695015545056
0.00593813793399516
0.0223944280168069
0.0312366977873298
-0.0189902581084349
0.0323838012713782
-0.00291866607843948
-0.012219187473503
-0.0229742178943251
0.0111730138541786
-0.00247598169496425
0.0112854410440121
0.000177352012402512
-0.0417509859092954
0.0395328244353078
0.00840826526851855
-0.00996658626996272
-0.0077441584525682
0.0170283005628538
0.00868696847331299
0.0185557024213453
0.0366898134192972
0.0352001585935473
0.0337644767998878
9.95544671611241e-005
-0.0114818644116009
-0.0403813649324835
-0.0154433644885127
-0.00793227909387451
-0.00282584730535206
0.0328969913718353
-0.00444678707808198
0.0341297526196463
0.0144945309212072
-0.00759037958630932
-0.0166775941552978
0.0198708545928557
0.00272990159049132
0.0269212537966881
0.0203357597962904
-0.0326462101632812
0.052281930758485
-0.035694983819695
-0.0164361122715367
-0.00728885796241638
0.00500501287642716
0.0206946383520676
0.00520969674349385
-0.0102957586112007
-0.0334661306376311
-0.0315155045534588
0.0229297920154227
-0.00601273067168145
-0.0299179402573204
0.00480989081063203
0.0052409931185197
0.00944887063600167
0.0427458340236803
0.00439764274254395
0.0437410331697223
0.0100981925058507
0.0491045443261307
0.00871400924597299
0.0129485474799251
0.0183387714097335
0.0085100892324951
0.0163370178250122
0.00329936172203358
0.0279087639911957
-0.0258440372310686
-0.0224049331460184
-0.0197773396981894
-0.0163660097341883
-0.0116814620787856
-0.0187357209780012
-0.0248232155164043
-0.0385901533282192
-0.033779948667709
-0.0108763221735061
-0.0568946160615127
-0.0159752289591928
0.0481508806672799
0.0793733258825845
0.0144809050897036
0.00316393933922849
-0.053914030604389
-0.0165556237961658
0.0152618581594522
0.04703421670052
0.00928715985471473
0.00493793808329324
-0.00133819377162262
-0.0166433512862144
-0.0089536898082343
-0.0100779506011886
0.0163056997903748
-0.0065113820537994
0.143090859268922
0.132340996572982
0.104592523428183
0.066185499039435
0.00681080242686728
0.0361515243746842
0.0388121301932502
0.0354281685921625
-0.0108967814998497
-0.0617053128695598
-0.0224253894439057
0.0305322098114351
0.0695767408577018
0.0108533674787717
-0.00234761830100937
-0.0544058025845537
-0.0236323590725784
-0.00334470074488495
-0.0419962118148706
-0.0630593371685162
-0.0515217946124712
0.00624053738069739
0.0313069107253675
0.0126280974819555
-0.0319033512427473
-0.0786203562559681
-0.0166173967075194
0.124150145329935
0.126960681231594
0.0938701300828081
0.0572454761073017
-0.00473275586504273
0.0240652047461732
0.0291741842403158
0.0271125807377585
-0.0307917622265305
0.0227338036215711
-0.00279676291122411
-0.0256141833007989
0.00210028529620317
0.0431502447066268
0.0943894765039303
0.14789349581748
0.083144099483677
0.000616834872289619
-0.0344145554840448
-0.0490431915945755
-0.025869062895367
0.0385540153117482
0.0642761079727849
0.0391641737644803
-0.0168527908866796
-0.0685845502047032
-0.0143088552789358
-0.0137484091849302
-0.0347829521347749
-0.0142873589591028
-0.00448779209190778
-0.00387201272924203
0.00178932994105152
-0.0334601632734809
-0.0260724488209217
-0.0232267738158328
0.0426092214235351
0.0261411611267597
0.0126362292454682
0.0364636028306474
0.0757150682725285
0.120876814508218
0.163265753711675
0.102776565111084
-0.011160665238357
0.00820243849661616
-0.0284300023338548
0.00445946193699825
-0.00867806093340347
-0.00789442041405384
0.0076634723754564
0.0248889197737574
0.021800078027979
-0.01627863076689
-0.0133763020209357
-0.0414994459506772
-0.0109840743753884
0.00820168554208216
0.0140906518985285
0.0204979745404488
-0.0182190597193343
-0.0189485452094211
0.0126122081934459
-0.00560464289989639
-0.0212773312001846
0.0368559783890683
0.0398242221219936
0.00627555386066348
0.0278447901382971
-0.028785066158179
0.00519810733706948
-0.0124412910363451
0.0134931505051104
-0.0233115998460073
0.0203317902900963
0.00597348359019436
0.00665400954771942
0.025968727768055
0.037332314057896
0.0265731919463532
-0.00098352440250422
-0.00739201933726014
-0.00161599443984556
0.0402466074308304
0.013252494007503
0.00828478782945105
0.0127542597104938
-0.033400427038735
0.00854399454069988
-0.0128848960543834
-0.033231812787502
-0.0392530593070675
0.0118653940733183
0.0294189195774079
-0.00563806816041346
0.0153753673059766
-0.0355505758321744
-0.00627942613900431
0.0203522038739484
-0.00480057665848595
-0.0391062103512188
0.0455573807431693
0.045624581242021
0.0139492106719321
0.0588604565219157
-0.0220522025098721
-0.00382145930753377
-0.0186555065752114
-0.025341172362669
-0.020483769556433
0.0190917262519142
-0.00653128889691248
-0.0117415445689377
-0.00131449287608712
-0.0361543274477795
0.00601314095837236
-0.00870709825178505
0.0309524817145028
-0.000535562613637153
0.023017351582988
0.0279556513365785
0.0172451948421382
0.0354817828572644
-0.00998722200534974
0.0124609871455702
0.0059626342006654
-0.0181970704644604
-0.0114105716855284
0.0194189336582783
0.0222474963722001
0.0406216354135813
0.0471101211107192
0.0343700191455775
0.0236731274341291
-0.0105640469955251
-0.0142283653249767
-0.0309184637412753
-0.00707160147215128
0.00584010283657392
0.00606190219386111
0.0307619238240066
-0.00453662966132036
0.0242976358482504
-0.013249911502216
0.000455744536056519
-0.0195048631416544
-0.0107815990120953
-0.00785370786897408
0.0419757841209994
0.0200131312001953
0.0219104665446081
0.0101946998374683
-0.0467931715475821
-0.0231178540249357
-0.00926762461881843
-0.0305363160760096
-0.00968507911064828
-0.0133575386594621
0.00504923664016126
0.018004912036517
-0.0194917455191835
0.00929999673681457
-0.0168835189140738
-0.0296105695813389
-0.0001002093209215
0.00664948824831472
0.00876690177656388
0.0313487301216401
-0.000735769795023291
0.0305453245956801
0.0076928671573991
0.0431897021186977
0.0158499241027665
0.0242656081552467
0.0270247714887937
0.0106818426257661
0.00557549383970102
-0.00449359608162021
0.014831510996515
-0.0293290510991866
-0.0126841435141199
-0.00336066308212319
-0.015064698602738
0.00364112659466508
0.00370459275931471
0.0190934789472679
0.0200755851648215
-0.0100963157661326
-0.0545918785906703
0.0043789848342937
0.0472212140575563
0.0450458287539354
0.01986444730819
-0.0158844767718095
0.0027901687426925
0.0329101263339009
0.00542433543236409
0.00554967823577531
0.0267992195922119
-0.00551799223970687
-0.0060288501737939
-0.00572706451470659
-0.0207440854316829
-0.0190713387264623
-0.0159334646845042
0.00231107752739092
-0.0200551763564182
0.115644486446957
0.118511789551753
0.0927127435456766
0.0578029990453427
-0.00501094192793469
0.0142862019096688
0.0212019428520832
0.016844685458418
-0.0577316455628404
-0.00247837382626992
0.0347536548502306
0.0169797276329074
-0.00649798887836459
-0.0462692638005632
-0.0250336856983415
0.010387009824191
-0.00903439278685751
-0.109411546047395
0.00476861666491416
0.100214845565082
0.0503991182396672
0.0541767637666452
0.00320291382763712
0.0230464387718621
0.104524207645104
-0.00299325285796091
-0.0298287597118017
0.0940199723863789
0.0997511533123507
0.0688180066543925
0.0428063959743156
-0.0189637835242364
0.00728155035744055
0.0153876911068106
0.00693409036217343
-0.0358596633102231
0.0120288972763313
-0.010581296533742
-0.0347506531307608
-0.00597027055995909
0.0240214736459889
0.0658476120458012
0.121691627021364
0.0564185087140319
-0.109898055737637
-0.000469841165358469
0.095336812744659
0.0328615808039037
0.0363763741628651
-0.0140407842405825
0.00209578279347557
0.0846321712329692
-0.0216598015260861
-0.0854395624540051
0.0480068233173086
0.0650621783184365
-0.0353757615025826
0.0396056575000343
0.0235000060244493
0.0608849210761091
0.0900842045980577
-0.0843592839140353
-0.0325602423360819
0.0201018445358702
-0.00356261433910956
-0.0153621106641676
0.0202131157594452
0.0580473901248322
0.0979273358886752
0.143407887597621
0.0769792811638886
-0.0195110259454541
-0.0050960426212203
-0.0402640225030697
-0.0169327162930126
-0.0184145192401513
-0.0254912302518108
-0.01681891452861
0.00294768818942794
-0.0016203736412833
-0.0814269231898386
0.0749310912028048
0.0979978161738508
-9.63314831214914e-005
0.0772900913931439
0.0576392416862523
0.0909313070877843
0.107224358818663
-0.0781724182943554
-0.0427995582968088
0.00717101513209571
0.00221009298817575
-0.0537532734651844
-0.0175625291229163
-0.0207000765536656
0.0221063412315547
0.0554188036549785
-0.0627410006098861
-0.0126915697591741
0.00562850881794188
-0.0302173866264593
0.0106840656576322
0.0137303255236782
0.011685572437812
0.0200890218068025
0.0314926011150052
0.0106817085609216
-0.00792283271962357
-0.013466601619619
-0.00513796317444189
0.0301712713457648
0.0207937970879577
0.00577056068695029
-0.00406854250590028
-0.0441835442299287
-0.0113978998645314
-0.0366795006302788
0.0232638109389149
0.0187343172463316
-0.0313600765186465
0.0184589821179612
0.0131994589361575
0.0526802439681762
0.0657578671527654
-0.0608719028877927
-0.00653045525461188
0.0179627246098244
0.00656340503984399
0.0327851395103662
-0.00575216820069182
-0.0331291628478359
-0.00215899628971019
-0.00511658872675734
-0.0265850824006816
-0.018848958879227
-0.0233470320739781
-0.0102215779925938
0.0293884576905264
0.0199884582024031
0.00996864686049597
0.00573699486204591
-0.0347885065377216
-0.000411250055360955
-0.00372981190131595
0.0344478739451849
0.00924992648118553
0.0333121801386792
0.048198222522122
0.0228137826482101
0.0261934528485824
-0.0166440886588345
-0.00137254334762408
-0.0169891535673491
0.0148283625689584
0.012881646479736
0.0298964123128013
-0.0172636476492523
-0.0490017982391814
-0.0158265237435657
-0.00943931516897386
-0.0363373811234515
-0.00667003727618592
0.029037491528619
-0.00953822618153342
0.0265772862003589
0.0248813373394486
-0.0117858314268031
0.00651246951234215
-0.0112843132452156
0.0102447820669076
-0.0108072775334337
0.000941873400473743
-0.0142515997954342
0.0041735153570049
0.00722127690664845
0.0526140743118002
0.0273170332630874
0.0306406230602741
0.0171707396576869
-0.0483039976922522
-0.021132916166683
0.00716466004742768
-0.00958077780725309
0.00770991871200851
0.00218238127526094
0.0214066008017987
0.0335735733017463
-0.0132387209932062
-0.0499724267602858
-0.013759993299108
-0.0130005501904228
-0.0457063467408511
-0.00360232657737974
0.0228840839063476
0.0106970658787352
0.0315651315445038
-0.0250785241010681
-0.0534863177329188
0.00632870557563584
-0.0255119198754652
-0.0448970317560737
-0.0141107624707254
-0.00119713749428933
-0.00728612825882796
5.44171018779171e-005
-0.0181237817089188
-0.0377395212871707
-0.020696878562342
-0.00390893304846502
-0.0194294586450869
-0.0048035735402762
-0.00847601938565978
0.012216041113849
0.0193395066481324
-0.0191993906572558
-0.0550373318861371
0.00405833810255623
0.0570049805982241
0.0530180347173756
0.0193619334627364
-0.0161088670370714
0.0102178117167819
0.0384930108800238
0.0122407148922323
-0.041359926312042
0.00464585819817289
-0.0294787632205128
-0.0413211070302197
-0.018688942665635
-0.00835105968699255
-0.0120867680596832
-0.00637389682977012
-0.0169157038071518
-0.0357297412189835
0.160982234549325
0.101968178629612
0.00118122720145203
-0.0179867305242879
-0.0548326146049616
-0.0543954578514015
-0.00161561509838407
-0.0288246319570381
-0.0511153173444015
0.0158800916634697
0.0647731192599072
0.0581827970205931
0.0298211945462655
-0.0120117708935916
0.00851254511278535
0.0338156566859827
0.00932183633164926
-0.107872844581698
0.0211184824645359
0.130862348459828
0.085651481220486
0.0831478773129618
0.0241666439367232
0.0397417851079625
0.114283402491028
0.00189562922322613
-0.0295051142060546
0.167782537651413
0.10486265785208
0.00355922520502179
-0.0150010535654778
-0.0542746585082288
-0.0567190841220238
-0.00139979317435881
-0.0360720238967634
-0.0917361276150205
0.0188648183021327
0.0213389469130032
-0.105313867948244
-0.10276137316077
-0.108721064054178
-0.0807676605502929
0.0138994600888752
-0.107039876781706
-0.107165302613297
0.027292743573261
0.143412744262155
0.0969419782720699
0.101080139463182
0.0441169828360578
0.054110131046917
0.123342426076242
0.00207566423347521
-0.0811357911518705
0.0811547836737431
0.114662166036278
0.0260806185960119
0.105151746893596
0.0920653436561418
0.124517804133841
0.13640283309004
-0.0614401266245234
-0.0946099907406127
0.0183197349017486
0.0328083324273932
-0.0916242025596192
-0.0919350588760942
-0.0980846942092223
-0.073664508662241
0.0178436472181577
-0.113522821249493
-0.101507093662992
-0.0358192566649805
-0.0139915024829784
-0.104950724257985
-0.0779466011782732
-0.107651618262454
-0.054587285494795
0.0720810441066354
-0.0259521098606548
-0.0861073286262825
0.0739534946853865
0.102778765946704
0.011254106752682
0.0925043236335506
0.0760700474085611
0.112300721068888
0.127501421205953
-0.0676611241635102
-0.0424912075998675
0.0199846846049582
0.0197480830626783
-0.0330595542887035
0.00533200958293101
0.00357721094354075
0.0493023680061111
0.0755558628883215
-0.0527370814349046
-0.103438223101441
-0.0356793718116113
-0.0140717214290487
-0.107811859457
-0.0821697567163424
-0.113555623269867
-0.0591281718923442
0.0711929212032043
-0.0172069494319509
-0.0530660563863573
-0.0160775701704959
-0.0454196831246682
-0.0728595431516998
-0.0459504385126696
-0.0240125791657968
0.0300340017390327
0.14465076227032
0.0857161709094255
-0.0382068759483057
0.0278224321677086
0.0275852828168977
-0.0226154001616812
0.0259753386873669
0.0158970711196153
0.057141555169529
0.0682950880791686
-0.0629905044831947
-0.0143477229487704
0.007200184452518
0.00804989436633034
0.0266979249860423
-0.0038417730945637
-0.0375667695224294
-0.0107374310490976
-0.0116480941462948
-0.0408882475372998
-0.0514860350746219
-0.00656561724899737
-0.0331259404719808
-0.0619043963024852
-0.0317192602452841
-0.00828425414551353
0.0418751662701105
0.150577526398128
0.0842795728071864
-0.00531172048265798
0.011960632276417
-0.0470338306619283
-0.037038151142132
-0.0224258501779321
-0.0390658636154397
-0.0238188417585149
0.0116291323921078
-0.00468174163358233
-0.0117513586788441
0.0217632597973098
0.0310907549062692
0.0480871704444061
0.0117332275167869
-0.0264561016464457
0.00195779729014332
0.000991306182697262
-0.0421126362913105
0.00283886767683006
0.0407052232335448
0.0041960432069378
0.0384225236975945
0.0413666478498584
0.00597190065054225
0.0153643208148054
-0.00976263549082707
0.00572966378224102
-0.00876261447609268
0.0126447135274517
-0.0341811146015087
-0.0205561699342395
-0.00937417679119034
-0.0312553614954091
-0.020634914457233
0.0160118341285338
-0.0079337008352096
-0.00693726729051505
0.0129987520743369
0.00813437414244235
-0.0047962081035376
0.0359605479118725
-0.0199251944459185
-0.0375300527322047
0.00339689469948457
-0.00973352231905358
-0.0456146907450507
-0.0104569769862477
-0.00419389416558532
-0.0294728754357305
0.0219950991951659
0.042750690126372
0.0236764801052231
0.0386020493898006
-0.0172979781025283
-0.0589265972861659
0.00495999623203673
-0.0106171102943621
-0.0175719836801919
0.0284397798835788
0.0347485265883186
0.0121244160938269
0.0150586376855101
-0.0133731344134333
-0.0248372767625481
-0.0379623064631334
-0.0580896552130928
-0.0493676191482164
0.00505697257903618
0.00544179986694066
-0.0219475554029595
0.00723089517422544
0.0135958403634066
-0.0472758044367998
0.0450549834472994
-0.0306273557175741
-0.0333763490025671
0.0100965703431157
0.00405933227878412
-0.0266399010961161
0.0180976127360973
0.00991414854052125
-0.0458773161688001
0.0040736856008395
-0.0257296508694875
-0.0297193445126984
0.00774334743993799
0.0140315673466756
0.000101050973726645
0.00310224655708027
-0.0130365041028423
-0.0295498557864164
0.165293541486031
0.117102241301957
0.0273811359989198
0.00701664609715974
-0.0302347705852385
-0.0314502737307766
0.0141281248815346
-0.0164768337996502
-0.0377858361417497
0.042003888235653
-0.0328404611321467
-0.0362016909125986
-4.51362796082726e-007
-0.0112604191785982
-0.0299921820367673
0.0130944757105392
0.0108832700448883
-0.00410324228313058
0.0886461387709246
-0.00700549236880979
-0.0578928787843133
-0.0623371012342076
-0.0209436563637921
-0.00869764415081069
0.0460051355989305
-0.00779563792357406
-0.0127306976896239
0.217780146593409
0.164930613716895
0.0745928011062568
0.0434378500688344
-8.02339531984003e-005
-0.00708852271061679
0.0343557670277471
-0.00203756252713361
-0.0930124958864341
0.043252708008222
0.0563893468596852
-0.0633270576650019
-0.0640044704074259
-0.0707850948549327
-0.0456521229210805
0.0447045132105692
-0.0874887147317422
0.016909865439046
0.137957377098172
0.0326362931161541
-0.0183195897228106
-0.0311660144953815
0.0078806317942179
0.0156847740492274
0.0610479432261202
0.0055883261144612
-0.0311739064763124
0.0179793967310396
-0.0287654863563849
-0.0986525124152569
-0.0973431958402612
-0.0845238942700412
-0.0509640044322885
0.00177214211340802
-0.0249355380955505
-0.0902739972436593
0.0666576542060328
0.104350218078249
-0.0101301153592679
-0.00960200412215474
-0.0182137124333702
-0.00433559489120841
0.0731656559893267
-0.0831447958816473
-0.0950737814657148
0.00563436961729763
0.0473486770588417
-0.0333346138601475
0.0088842133138928
-0.0153525449515226
0.0324714188617103
0.141186363837131
0.0117046638619656
-0.0240824903002679
0.0510506840713404
0.0140068834509119
-0.054322616908508
-0.0554709460229584
-0.0403114430575941
-0.0112422306179308
0.0319445346446964
-0.0164147946336732
-0.0240457448427072
0.0409904546891827
-0.00866520345181495
-0.0206959399637965
-0.0458727687380283
-0.047484458518781
-0.0407555397195773
0.00847459344255047
-0.00228373312468172
-0.100826577923028
-0.0134972910302824
0.0193682726582204
-0.0690162022643928
-0.031325660007103
-0.0620057779772185
-0.0117508599470099
0.10686067960577
-0.00114751976707431
-0.0424445279936546
0.0220355842498605
-0.00138975742442733
-0.020108602675729
0.00838842046524826
0.0348571406170871
0.0938527993741246
0.195637221184067
0.126690787204985
-0.0276309994355711
0.030183514557835
-0.0271780531237799
-0.0560913366831808
-0.0797321566293112
-0.0847021654684229
-0.073748355095229
-0.0211128396772582
-0.017936414081324
-0.00815469965860832
0.0470749625714715
0.00698734182475392
-0.0115726129044915
-0.0145826019274429
-0.0236204741635949
-0.0125346813232566
0.0708135492552036
0.0751542759418678
-0.0443407402910538
0.0145569975770247
-0.00579016656520107
-0.0311111610532867
0.000818574331050214
0.0146529918625742
0.0597423094254382
0.156855173209137
0.0847241090685597
-0.00600098701184395
0.0184354193775761
-0.0255912291291663
-0.0127640380133434
0.00365722374526759
-0.0226485255381706
-0.0140892924816511
0.0223133663615394
-0.00401647216820524
-0.0206934173344313
0.0338114680703162
0.000269916481800205
-0.0369236802782028
-0.0312299981794703
-0.0510719106043888
-0.0437863263296232
0.0416020504398247
0.0377371002566851
-0.0216592965115726
0.0670782131684174
0.00154424149873392
0.00239303002956592
-0.0005659295357621
-0.017408352568493
-0.0480042768989136
-0.00246517711450173
0.0548584646581829
-0.0109629104473841
0.0180502246805056
-0.0164000603794147
-0.000867447216826593
0.0151851493844638
-0.0169168109153978
-0.0120644839913478
0.0236366178704473
-0.0179448388746883
-0.00221375415524517
0.0179798908519991
0.0183188883176873
0.0088771071203571
0.0508471661706827
-0.00762939503077523
-0.0367816946251153
0.00808829142408713
-0.0108479405684706
-0.0271074796152257
0.0632600578185959
0.00265272766027909
0.00367214812829057
0.00203428284399392
-0.0296629146663795
-0.0568475591201545
-0.00567284756288474
0.047464795380195
-0.031492716792949
0.0105054651838881
-0.0261692978546888
-0.030983721259724
0.0496602443265594
0.0158318244616658
-0.0442464013619299
-0.0357658312512871
-0.0439209069149684
-0.0248669895895052
-0.038840784268157
-0.0511447532168268
-0.0346877083211273
0.0288950914051683
0.0339925185561008
-0.00411427090785298
0.0153374016706449
0.015164023736851
-0.0344527519082925
0.053058731094194
-0.0211229059431352
-0.00316752896089416
0.0467675649056067
0.0497229988020731
0.00993204039202037
0.0412309474089685
0.0325278052767632
-0.0366264949659456
-0.0211712833579836
-0.0388359354528986
-0.0373553480670255
-0.0124646604473155
-0.0332377596595073
-0.034294027842463
-0.00755082841204318
-0.0454273278845718
-0.0132235775763825
0.0256600875688571
-0.0137482930481278
-0.00465949041239466
0.0275066161749056
0.00811986807148717
-0.0146008692400716
-0.00845096016664942
0.0216346805016339
-0.0298622144878475
0.0373655078708573
-0.0411757610339049
-0.0293623317793813
0.0134400841215017
0.00961718939581481
-0.015182972972064
0.0226636276350652
0.0181515442322642
0.00271662561506844
0.0926476410713954
-0.00254648189393304
-0.0461054880396005
-0.0453253861126788
0.00141103093487795
0.00947949188604937
0.0598299559712663
0.00232982513535971
-0.0103859244240171
0.0170027676528187
-0.0250473968488524
-0.0167067893777515
0.021884696577763
-0.00616914942449594
-0.0313222543321838
-0.0142320867586522
0.0156042320930494
0.00622836438427617
0.0953181329098306
0.0184251641148528
-0.014321118511787
-0.0242422318687392
-0.0348330235564535
-0.011940983502751
0.0139566310953894
0.0389772125083592
0.0263532187060755
0.150854780263241
0.0399707220539937
-0.00357659086391542
-0.0134556755100637
0.034787083678051
0.0421528323177334
0.0773553828868018
0.0208564756533709
-0.0267649471411188
0.0268095566764505
-0.0177550067257895
-0.0854645667144186
-0.088813851630405
-0.0683459203323007
-0.0400700332887458
0.007508022311394
-0.0180910313926971
0.0257958848397061
0.132512620387491
0.0509432481973125
0.0316111357247962
0.0142523987147518
0.00218857298423893
0.0220785502053752
0.0333238907041462
0.064674005101022
-0.0398631163767508
-0.0103615860252482
-0.016809049541038
-0.0636208450884395
-0.0572243957181865
-0.0275429448079642
-0.0304142469911359
0.00599554126373811
-0.01693609704629
-0.0219443373368663
0.0662203801401676
0.0400477254826802
-0.0258546403186209
-0.0262264563064926
-0.0165919130934703
0.00032096618022639
0.0374785214845528
-0.0128556747065702
-0.0197564442992936
0.0518550627313253
0.00624088301802206
-0.000227193334176192
-0.0236670172404289
-0.0262201919094427
-0.0224732374402438
0.0273420376281172
0.0135702274294003
-0.0276332416467301
0.0200232167551876
0.0190401108732091
-0.0149238852113266
-0.00415213870174494
0.0240778319300869
0.00193875574903955
0.0287961950312237
-0.0161579298264211
-0.0612112838120124
-0.00319845633088744
0.0108094763183405
0.00711582648507242
0.00975298848351066
0.00264056767444379
-0.0116631603781068
0.0199766393613343
0.00258728141435043
-0.0208242274444384
0.0464993723497853
-0.00638057599136288
-0.0294211717734699
-0.0534439186327203
-0.0655590266368812
-0.0593427805421916
-0.00921129473569451
-0.00878482308528404
-0.000615650445413643
0.0681915973019859
0.0415630390698793
0.0252784824572945
0.0182689039313699
0.000722000848636987
0.00308288995091212
0.079412527826503
0.0832714863467515
-0.0604617936918357
-0.0105639059946292
-0.00541597409584266
-0.0260682610208725
-0.0328857238710128
-0.0428402000135146
-0.0473759402733155
-0.0102631178865756
-0.0116331861914439
-0.0177923504709104
0.0976657948021322
0.0301632709997195
0.00796603678693064
0.0103319384841758
0.0133445996669611
0.0247734069258673
0.0783372740032488
0.101591237852747
-0.0127909176648967
0.0494976465010484
0.0264306664098224
-0.0063476587665159
-0.000527178260077013
-0.0247333203938264
-0.030411313267183
0.0511047915646312
0.0403448111692811
-0.0184936626479105
0.0729680232872009
0.0214710959283896
0.0270468475467091
0.0242474356937582
-0.00299187716778194
-0.043695383359992
0.0044467813354766
0.0614504996788333
-0.0222300479210171
0.0748518743002992
0.0126805559076617
-0.0182271494292007
-0.0117000813532568
-0.0180434793470902
-0.0070825702265607
0.0597507402495675
0.0717396874499363
-0.0104842111418878
0.0196165498150018
-0.0267570401276128
-0.0100602321313605
0.0108655191710886
0.0148249657717586
0.0058669820588963
-0.0247581866957052
0.0276528190618746
-0.0200764112378874
0.0712204441759342
0.0229995931292012
0.0303980242241873
0.0346180793817208
-0.000251867570352234
-0.0427150611135705
0.00459227917454363
0.054153232088017
-0.0296335647098064
0.013601411331011
-0.0110963667290694
-0.0115390867680894
0.0698296736141518
0.0297223851710798
-0.0382707137777471
-0.0326681471594836
-0.0447592945227468
-0.0115853503361606
0.0176617836280985
-0.0220068273116662
-0.00862245211086454
0.00823316825134581
0.00396440789552888
-0.00169364965115393
-0.0303167931018295
0.0118537194867826
-0.0216928684648724
0.0145458917461997
-0.0221886733798758
-0.0385795602837724
0.0104439007805973
-0.00642128730885773
-0.0157939434152191
-0.0281241863287023
-0.028113007543001
-0.0351789701352209
-0.0194614044033698
-0.0351422196254464
-0.0237389066989354
0.0146918570804422
-0.0057670136734016
-0.0196497956528268
-0.00090806545142701
-0.0365823850603392
-0.00597591724972372
0.0382879580991928
0.000149940119698386
0.0278286958345584
0.0697939942779235
0.0497065172714358
0.0129815562132619
0.00456198459163102
0.0385466683330977
-0.0351226314863437
-0.0211822503351479
-0.0393544031235206
-0.0177242263794451
-0.0166642946582107
-0.0271005717449286
-0.0444597471187976
-0.0231067332322694
-0.000597657956185742
-0.0327524520114783
-0.0157873357565939
-0.0166324803527371
0.00485432726477007
0.0126164415473162
-0.00363669735526593
-0.01584539099918
-0.0227336773762728
0.00532161969726618
-0.00743552787275736
0.0213495417635699
-0.0221334357599817
-0.00585702500027319
0.0409310788168766
0.013028863184523
-0.0198763009462852
-0.0133105388811485
0.0129262818193681
0.00552540685533451
0.0927145182433788
0.0177925113152434
-0.00310739334068082
-0.00921147934519012
-0.0163654759623014
0.00529617523242642
0.028718649405672
0.0451481284524176
-0.03730784249744
-0.0268505764594823
-0.0334043134425309
-0.0314454682781806
-0.0258243972261754
-0.0385657918299097
-0.0432823737513157
-0.0344710556890359
-0.00739967599664229
0.0151178210019352
0.0823250867076929
0.00283448581723748
-0.0167334080216278
-0.0131846212013001
-0.0196409749873907
-0.0088708845631183
0.000119092162480692
0.0143021268988229
0.029480678771164
0.131302972985888
0.0501961479478324
0.0327151148814979
0.0187791870228884
0.00560990964653664
0.0251027522972193
0.037241499157151
0.0580394200629243
-0.0313623427198896
0.00182568258988013
-0.00646596519142137
-0.0515127545064279
-0.0468196037905831
-0.0208889319283059
-0.0251587417077322
0.00780544304581428
-0.0204398927982548
0.0238633840732491
0.111876690837553
0.0307902036873826
0.0150036161483784
0.0168661754233556
0.0144435412163744
0.0223495123013479
0.0214579361495945
0.0394152783955926
-0.0700275081554126
-0.0463632763521771
-0.0315802148330657
-0.0762931211542673
-0.00833439316389279
-0.0109323948983458
-0.0599684913779376
-0.0129607538291556
-0.0696578958867536
-0.0224534084488189
0.0307905324806253
0.0272819412657979
-0.00972999901192348
0.00471095816063926
0.0272962005840857
0.00679533371260398
0.0306351753307234
-0.0189129263112917
-0.0553156164715698
0.00512383927373765
0.0176478658025342
0.0163910292816441
0.00882068074720476
0.00170579341977699
-0.0117001294704836
0.0234609865289898
0.0139337574689109
-0.0644832719305448
-0.0146727329084443
-0.00176533468462268
-0.0329405327049749
0.0371777805602148
0.0303105717124563
-0.0290016882164953
0.00808475777016724
-0.0604478825434931
-0.116667597184518
-0.0361784845574657
0.0325270324283673
0.0131849703085617
0.0751824661728051
0.0577190915020043
-0.0210240346804546
-0.00587739365570095
-0.0251241416632281
-0.0537177701524328
0.00105405359952416
0.00384141352081359
-0.00881687743721728
-0.0278036443727732
-0.0398881981000122
-0.042479092397489
-0.00501681223699743
-0.00484544088271335
-0.0182102258916565
0.0957323902357107
0.036579315821693
0.0203650431015206
0.0180942372395569
0.0164051177286266
0.0265689337468152
0.0754529559493768
0.104255817179345
-0.107126383611796
-0.042320131731706
0.0174017317619688
-0.01578570063852
0.0326347698657606
0.00973841739170594
-0.0545465768714425
-0.0322644287256755
-0.0393050692979484
0.0311664203528865
0.0997838887816514
0.0151257376276207
-0.0122153094524535
-0.0193194333552867
-0.00176062897727862
-0.000422878506394894
0.0632243196613723
0.051588551818904
-0.0194306033152797
0.0826823698054109
0.0261685261583731
0.00138846814959975
0.00340447439856682
-0.0076413550780037
0.00514421932470304
0.0598093911516733
0.0796013643976705
-0.00815627631816573
0.0258210689579783
-0.0144917129522977
0.00940871277384319
0.0322927181535689
0.02928362860378
0.0133455182608433
-0.0206777522150277
0.029732538645966
0.0173609810560442
0.0767582904764424
-0.000912299139630471
-0.0272348962845544
-0.0311195537919285
-0.0149146071803912
-0.0120468022574535
0.060047728442695
0.0376724176661281
-0.0096633300906457
-0.000736688143929205
-0.0209243946638872
-0.0257268803601313
-0.0215145657712297
-0.015843558254725
0.00279758648842057
0.0151510620642659
-0.00719067523711533
-0.0073313309807769
0.0290979188369088
-0.00725163977981768
0.0186810546473369
0.0436513847607799
0.0333985336565939
0.0201036444582603
-0.0176369473298334
0.023715635095531
-0.0205992820562918
0.0200442257086056
-0.00643215988528154
-0.0166437723107965
0.0350122116289857
0.0116089513946146
-0.0056409797637569
-0.0208580687410164
-0.02274541804176
-0.0156766641377117
-0.00943431365111746
-0.0213225180173466
-0.0208157371922148
-0.00970414649356544
-0.0085571420685553
0.00749132485593876
0.0219784152054993
-0.0188079549525164
-0.0246775113423081
0.00564605265348155
-0.0564703738931793
-0.0688132014903786
-0.0231519528097917
-0.0145371684446725
-0.0132768284421847
0.00909958423394644
-0.0345144649990261
-0.0280858879669913
-0.0152511329233176
-0.0302341618155505
0.00856530487118953
0.0231109608942206
0.00286366855210458
-0.029057415163598
-0.0215274495743089
-0.000356673071242434
-0.0176622820776345
0.00548822255040342
0.00719791777986243
0.0401974003033739
0.050674044749952
0.0324007780852904
0.00535673692709628
-0.0193897678411018
0.0119199155232954
-0.0734796504707677
-0.0532013744473041
-0.0281818407408215
-0.0162698625595101
0.0060987480692779
-0.00277765420746174
-0.00817513739840724
0.0209390711616087
0.0146967261525543
-0.0444005198240619
-0.0228473447967665
-0.0379005391034584
-0.000704449771736385
0.0138983546702486
0.00533730128702073
0.00966710682039965
0.00737479774733701
-0.012759757490564
-0.0258984443642792
-0.00745203047319509
-0.0131175620213981
-0.00788355401020075
0.00100127728205681
-0.0162502580706447
-0.0312486927909255
-0.0342787084335383
-0.00831325813491906
0.0289565500291427
0.107248876015709
0.0220399268105521
0.016478718958669
0.0146111853317571
0.0117800215111743
0.020065288599013
0.0180975562749082
0.0375542950747821
-0.0566591310331109
-0.0328082218981908
-0.0508929441562649
-0.0409673450995794
-0.021160959000315
-0.0292241194397411
-0.0177930257323217
-0.0108826453591968
-0.0261883338424954
0.00114641201396593
0.0404226578554341
-0.00142420351227543
0.0176374897957779
0.00767581225477507
-0.00367220534286396
0.0313307107206549
0.029950766972236
0.0152237941072027
0.0383141926663147
0.129863728771869
0.0436829325477289
0.0323089223230902
0.0296283158869273
0.0284324040585736
0.0345772879791717
0.0332755380032329
0.0449284587158634
-0.0502017052652622
-0.0227442043039758
-0.0105681407775259
-0.0478808149678807
0.00729087548387089
0.00446085361087097
-0.045054086366374
-0.00658576413427448
-0.0623263377681709
0.0231708943782909
0.069492989219092
0.0164428521756083
0.0426531461058585
0.0296337591729716
0.0188131542189088
0.0561435243425185
0.0494111353460424
0.0329607846422068
-0.0942397533666319
-0.0120885352895347
0.015269878962935
-0.0775925130879873
-0.0418761052751866
-0.0362755929588567
-0.0469126971585855
0.000137161613262188
-0.0511204705484898
-0.0426758934833699
0.000283086202090636
0.0146592107097614
-0.00816331204204802
0.05351768438237
0.0450277592151249
-0.0209212254419604
0.0107069211178157
-0.0591342334383476
-0.112012085173418
-0.0273079251164876
0.0472946950182592
0.0274749061916391
0.0874748149652908
0.0627352313832882
-0.0214929836060778
-0.0034542664642498
-0.0206247773868785
-0.0884225266151761
0.00968224583800886
0.0379467087540165
-0.0444589785968322
-0.000662655977291803
0.00689325152668574
-0.0174557478835855
0.0223896530662505
-0.0376216870434048
-0.0801179109024801
0.0456129390781341
0.0531771327842457
0.00885395556742339
0.0369398063492413
0.023013867534276
-0.0653820205567796
0.026438024960559
-0.0377579243742544
-0.106092030878981
-0.0406109162018641
0.015359782649253
-0.0137425038556983
0.0372588161438904
0.00639084005963384
-0.0622241745360067
-0.036065351451502
-0.0432428656526021
0.0303886855890833
0.0999040582781992
0.0188048026121361
-0.00239488441793378
-0.00460077562047546
0.00911006842485805
0.00180211469240052
0.0634419440148826
0.0537610266945792
-0.0779786732386592
0.0303257167728963
0.0204036088761681
-0.0350699866954893
-0.00824896201347826
-0.0214790598575204
-0.0953328107569968
0.000258476504954297
-0.0584165856126696
0.016550986858937
0.079614757955843
0.0214647017802054
0.0140581366957776
0.0091281925061928
0.0123127238755279
0.0130775108076422
0.0292153505137667
0.0859348347059527
0.0213891072791541
0.0800429109434928
0.0016515219240215
-0.0148625880063541
-0.0196374659889208
-0.00523839673687519
-0.00830419787731456
0.0566992246034437
0.0512017487973903
-0.0119736174954662
-0.0102777654317922
-0.0266505922357738
-0.0284228931090346
-0.0186317465748017
-0.0134672859903938
1.05684100271399e-006
0.0123319547092581
-0.0088676795634553
0.00473590403842079
0.0554681063837755
0.00184079410646427
-0.00762666056863807
-0.00625373209419389
-0.00332984954226538
0.00146042939761423
0.0175076029369599
0.0758868266700092
-0.016311408073674
0.00519487767126802
-0.0215173108460178
-0.015932418975442
-0.00427254713495416
-0.0211075031630137
-0.030349331837434
-0.0347012409550381
-0.0133951132382964
-0.00922270009150364
-0.0134318893059577
-0.0195581860545229
-0.00826352926106724
0.00773834469132142
0.0105983535329046
0.0180832674166361
0.0242359925332861
-0.00743614907889713
-0.0239851321443752
0.00485104400385151
-0.0568097777589037
-0.0636753865341758
-0.00761187516221498
0.00452062740898939
-0.00236090613958953
0.0150143216094143
-0.0341406111000615
-0.0166859707288717
0.00576426804036371
-0.0135069953133444
-1.72963027958624e-006
0.0164534090511448
0.00204237246826495
-0.00811169496849599
-0.0284695042653135
-0.0118102144170177
-0.0538456521170919
0.000788512307551519
-0.0223004971841637
-0.0598631049849893
0.0304070679653964
0.000186831620471504
-0.0346125700673674
-0.000394481340541855
-0.0440164414484832
-0.0732086666785337
-0.0501627642740781
-0.0209738920542258
-0.00778597258332936
0.00760281556885987
-0.00171392490735668
-0.00551302385400798
0.0185533667457235
0.014429239268546
-0.041896603820204
-0.0155392169913039
-0.0283707923704608
0.0129663749674897
0.0224691767836811
0.012227731383147
0.0181723661301496
0.0162251446691516
-0.0019429990710212
-0.000636582061439866
0.0197826615605613
-0.0485854581215562
-0.0497288117975259
-0.0245565167871921
-0.00384163270345954
-0.00775286830110629
0.00624751812908811
0.00925838401193101
-0.0320742950784319
-0.00686113213354102
-0.0100050082259271
-0.0223959748907732
0.0217337898354853
-0.00312989792022165
-0.00420655426854025
0.0216073788163122
-0.0284235995471974
-0.0530443569386998
-0.0257502831781728
-0.0450508617047284
-0.0306645081796245
-0.0152636856023458
-0.025388907928688
-0.0133381577801072
-0.00491215531570717
-0.0201478727372266
0.0132363994347904
0.0594170041877963
0.0105432836889978
0.0310517488053454
0.012476055962068
-0.000151406380983482
0.0438038658276272
0.0401208830863951
0.0350761713193245
-0.0389242597473718
-0.0164633393985179
-0.0255340856234967
-0.0573414627378591
-0.01354633494058
-0.0392628750148568
-0.0394232625472284
-0.00065669655271155
-0.0465312298370496
-0.00208382565239289
0.0353002442729654
-0.0109737314292793
0.0243002602182176
0.0366751796370118
-0.00462063487299481
-0.0421929924767049
0.0103753081915116
0.0334791532903637
0.0264025924186007
0.0743476047860192
0.0179956429893398
0.040614474836969
0.0293049545654668
0.0149381474026573
0.0553988615726568
0.0504596437127491
0.0379616594577008
-0.0878570964450525
-0.00251981447301433
0.0165686973948228
-0.0760778624583208
-0.0491464981706059
-0.0415509342603751
-0.0415130533538234
0.00944019692173157
-0.0366427455922039
0.012143607586607
0.050980697251083
-0.00173496827293418
0.0311872153292514
0.0450396577251934
0.0107052052438738
-0.0291382930693364
0.0222488203694923
0.0502019363295243
-0.0196686490115618
0.0476632346027226
0.00279969724579954
-0.0464074677893555
-0.0439249669015588
-0.0421796958958163
-0.0619874490628425
0.00829121296684003
0.0586789964828686
-0.0819175517463877
0.0150164178325229
0.0359649422418316
-0.0474596588014608
-0.0121807973653132
-0.0105682689667848
-0.0226923768948765
0.0274577858707661
-0.0329286510697569
-0.0797510168495548
0.0479817655531948
0.0507478611603687
0.00224425485911897
0.0226514180906082
0.0159107036261311
-0.065218042244161
0.0251692446906492
-0.0347417859772139
-0.0144693175629428
0.0600894716668569
0.023028144148727
-0.0173398724456505
-0.00765476715135038
-0.00693455268720074
-0.0416811890048124
0.023878329827199
0.0698916994250582
0.0322919470483673
0.105552726199777
-0.000448175304502148
0.017933462604557
-0.00581392237892431
0.0124181385686852
-0.0213785243673108
0.0361486943085752
0.0874100927439054
-0.0809297089394457
0.0331231037375896
0.018258747065737
-0.0378921089337541
-0.0184160259363781
-0.0280091994633782
-0.0959128862571415
-0.0042639142552189
-0.0557021731803314
0.0128911891266079
0.0815146939209559
0.0180629310130442
0.00660645851278565
0.00151305127919998
0.00476844833401225
0.00764824773758026
0.0213774188558181
0.0768904500147077
0.0240070073203097
0.0766914295232327
-0.0319436333524156
-0.0255949873991601
-0.0490092412916794
-0.0348008416055159
-0.0617221262461942
-0.00260279100628582
0.0623553571243298
0.0304319838671827
0.0675987601741064
-0.0345722905543756
-0.0119893748414965
0.0274258385478942
0.0279052447293998
0.00288524960073132
-0.0153795132932224
0.0508577268912275
0.00761972839263307
0.0653754175510686
0.00277982677668854
-0.00530441179560489
-0.0125534450989397
-0.00502248266375934
0.00660382917079679
0.0110387797729687
0.082957022399178
-0.0187004621280416
0.00215431393844414
-0.0233074944276819
-0.0193717394538268
-0.00712003157289252
-0.0270443387894424
-0.0349499117570539
-0.0400137080324728
-0.0122371006256251
0.0202777060372331
0.0502118094794826
-0.0431984698765723
-0.0208684739816636
0.0161508718076182
0.0187723809512625
-0.00334006999344551
-0.0223756875911744
0.051367308259224
-0.0397079097038524
-0.0113067871970636
-0.0402241346686053
-0.0615508068664065
-0.0405953109244093
-0.0217284877729223
-0.0398579693432428
-0.029490584388433
-0.0532946628330667
-0.014647121534564
0.0101033604238338
-0.00949300547878094
0.00217831453778903
0.019459292388169
0.00232032773745831
-0.00222420248754306
-0.0264153825163153
-0.00386904513328698
-0.0537489018551559
0.00171353789093729
-0.019494686041444
-0.0523254263174221
0.0338964100068801
0.00461888923138834
-0.0274997513232708
0.00483649242411894
-0.042319858198504
-0.0399191585471419
-0.00110663368287073
-0.019572546200226
-0.0374473414092406
-0.0112790790296747
0.00751208220495382
-0.0236180731033967
-0.0222818354107685
-0.0552131818285119
-0.0338799975996755
0.00319593469510174
-0.0436031252683319
-0.0236233121153167
0.0096393761715123
-0.0222694684585428
-0.0508821175217718
-0.0201119346431876
-0.0275600366323918
0.00512130925076318
0.0252443777706227
-0.0495713562070789
-0.0514826249329104
-0.029295398265498
-0.0124152439291444
-0.0116170310934747
0.00388676316149683
0.010671864126579
-0.0315962484804262
-0.0118949160005518
-0.0212063125818084
-0.0306059752792009
0.0177464422237496
-0.00116854741566868
0.00229388285411562
0.0291255756348201
-0.0185822081284536
-0.0129792774875556
-0.00879389658706516
-0.0675293502411524
-0.0425217383779232
-0.0323919264204858
-0.0351412307211054
-0.0622114360543159
-0.0241416582319687
-0.0017548647184932
-0.0473750322881646
-0.018347726198598
-0.040009524079798
-0.0390102113705879
-0.000706865984222867
-0.0167910149080826
-0.00671869224041627
-0.0012281542707636
-0.0293083882252748
-0.0325490349876466
-0.0180694326160343
-0.0328052710561337
-0.059998551823786
-0.0123120710061158
-0.0352976470255669
-0.0319155783015713
0.0104800523263775
-0.0364851415164624
0.00141447988874159
0.0383378361668398
-0.0144018567020447
0.0224271193253592
0.0371141871099938
-0.000169125827668088
-0.0360750916703616
0.0196195398632372
0.0467799477358187
-0.0460599191170792
-0.0121304783744107
-0.0403295000995465
-0.0573316260166171
-0.0297430515815392
-0.049890240208911
-0.0315923775634054
-0.0180706598850918
-0.0446155105357599
-0.00499038136084268
0.0436949912267928
-0.0260865069427449
-0.00549287616132396
-0.0125127320947576
-0.0207946850883903
-0.0155141671525167
-0.0297354373638829
0.0095678282131685
0.00972039688977544
0.0514262096901264
-0.00539598142599498
0.0202526648940742
0.0381860256216502
0.00312242528445176
-0.0358507666805064
0.0221350964958958
0.0409829045710789
-0.0227445690137875
0.0444295543585937
-0.0057945607524029
-0.0584846889481265
-0.0556136759796205
-0.0489960044171155
-0.0637135437596155
0.00417631657369483
0.0571881368896107
0.0100321974140998
0.0581661078289719
-0.0191324904131606
-0.000309500649915427
-0.0168482632104619
-0.0227075790356154
-0.0163118405585737
-0.0305993488536421
0.00815716508155671
0.0412218071520877
0.109266773230286
-0.0155281269097702
-0.0282422453124719
-0.0532546421948438
-0.03859803370735
-0.0169288930881331
-0.000547190970435983
0.0521621094048814
-0.0259433298144368
0.0460168688136053
0.00925277318453402
-0.0437346902529987
-0.0314898170539924
-0.0339628326923717
-0.0649073760802674
0.00993958352557928
0.0440256180863884
0.0168602378527621
0.0865792323338097
-0.0145562865026567
-0.00881096319142471
-0.0321161609635788
-0.0150719490378807
-0.045101139696133
0.0265720357724583
0.0750046882731831
0.0331809993345357
0.114812189486172
0.000754021236945695
-0.0107397448314584
-0.0304624169148281
-0.0178210001781582
-0.0133272860068966
0.0107399675621996
0.0496417469495531
-0.00428651433279255
0.0491744455086926
-0.0137436535930988
0.0215488801345335
-0.0216413191016806
-0.00223751205331429
-0.000408927885400036
0.0492731219784172
0.134727885286834
0.0247448945602603
0.076658953861359
-0.0362678672979417
-0.0298961941766273
-0.0555395604862136
-0.0378434540624448
-0.0542234213561316
0.0106433212085861
0.0732665670581264
0.0214101596571858
0.0530958860913805
-0.0382590554172516
-0.0219004435452196
0.0185697530012909
0.0221808821149417
-0.00158398780642715
-0.019796347028771
0.0439962002961945
0.00948081395196098
0.0413995209254173
-0.0407023473903526
3.70395220017867e-005
-0.0502844955778049
-0.0199831057426091
-0.00937665374418746
0.0305528528889871
0.130670507096957
-0.0170601198189889
0.00581168534137576
-0.0326345210686906
-0.0151996994232589
1.35974384043425e-005
-0.00693469198291802
-0.0382978456212885
-0.0219555036885366
0.0383329123088208
0.0246785115629105
0.056002211098429
-0.0339191483907185
-0.00575363397927463
0.0322551840422739
0.0368223490856546
0.0128483229178702
-0.0135051611533328
0.0534871701902206
-0.0369612384390811
-0.00679065674198815
-0.0345702836525931
-0.048601452927307
-0.0290089647246659
-0.00982505822778204
-0.0308842681685581
-0.0305179387833136
-0.048073714153546
-0.0138318649131467
0.0166809334595674
-0.0257939389333546
-0.00370181627962472
0.00727501362349088
-0.0024918777689004
-0.0429443532360926
-0.0386857754340076
0.0382053512751261
-0.0437013799074652
0.00172631871492182
-0.0294881626112117
-0.0458534987206125
-0.0169754437281839
-0.017492125365821
-0.0343279362012022
-0.0164329168222738
0.00348616153295368
-0.0435148036550347
-0.00213660102558972
-0.0179313557809457
-0.0292979101206173
-0.00150121311772398
0.016290792056745
-0.0176486353131712
-0.0230567935485541
-0.058669225009119
-0.0347849969815967
-0.00489435437278613
-0.0465341635382143
-0.0197697257020781
0.0159060486447938
-0.0099689570428795
-0.0361030846599341
-0.0161448361026737
-0.0207797959846437
-0.0532983137066692
0.00628226190883121
-0.0212869521580079
-0.0357133481340961
0.00306313462635078
-0.0018397768091775
-0.0288882299071561
-0.0179934299517773
-0.00130726670823633
-0.0325833183574482
-0.00543435901552292
-0.0705911028884584
-0.0732980213305151
-0.00873362294352585
-0.00433363169846159
-0.0161376951283621
-0.0375536271634701
-0.0185280763130026
-0.0139861652051305
-0.00373717579478641
-0.0587229307444611
-0.0220915422724979
-0.0114063310561279
-0.0172538371511266
-0.0503581936346098
-0.015687568012291
-0.00210041099588962
-0.0461908527561963
-0.0136784447400334
-0.028460859380294
-0.0232703192327718
0.0244279322731854
0.000515162795558083
0.00186201680642572
0.00321023593307154
-0.0324534525942593
-0.0380736209579236
-0.0140676775921956
-0.0511085460850945
-0.0637208695370028
-0.0343487430344931
-0.00553760062076827
-0.00879933707026962
-0.0123041098396503
-0.010642809241207
-0.0714707188146687
-0.0349230199382849
-0.0349260158648704
-0.00798924733040279
0.0161516734950728
0.00565168554636497
-0.0166639532202934
-0.0324003859104586
-0.016777738304907
-0.0445779805870621
-0.00995297330931363
-0.0286999980011529
-0.0390046416244093
-0.00512421158528589
-0.0310682666365649
-0.0210963361881633
-0.0118867292365087
-0.0482109101151334
-0.00313313883757199
0.0561870934277437
-0.0151244235543379
0.0124502722480465
0.00558439040130075
-0.00314062633941724
-0.00381577763400793
-0.021690947284335
0.0171374983869498
-0.0636103904235529
-0.0352983251924294
-0.0460025160838822
-0.0302205357908257
-0.00807310289371569
-0.0199707573568429
-0.038999520317028
-0.0534381297650263
-0.0387313051387086
-0.0131903299922598
0.032601331977579
-0.0160336126076624
-0.00980912544399796
-0.00210618693545969
-0.0152002048299077
-0.0230763615252257
-0.05895734051704
0.00315309300468465
0.00470175726958879
0.0575269566989319
-0.0171102599427281
-0.00454910067309004
-0.0167383295051247
-0.0271996259839111
-0.0256488800128792
-0.0323934500656364
-0.00546440975592038
0.0397732307304756
0.110136022832608
-0.011888227237267
-0.025332964391717
-0.0483972958737728
-0.0421742104231223
-0.0271880590983729
-0.00745804019199816
0.0359830580190694
-0.01110395161485
0.0258044477423653
-0.0235799919704906
-0.0363216759424823
-0.02744673060215
-0.0389601596233002
-0.0404026756149902
-0.0646436102317362
-0.00895273893623217
0.0353849261790473
0.100512146693783
-0.00652993412734166
0.00753628462406929
-0.0603854335300169
-0.0558939752360116
0.0110468764271448
-0.00629071219593502
0.0740876794289065
0.0225450157015786
0.0965561655725454
-0.0172995949623042
-0.0371922420765527
-0.0514512450760662
-0.0476110899484328
-0.0433458618119603
-0.00390181816324133
0.0208919466986899
-0.014658210936773
0.0349940947811111
-0.0357284356813262
-0.0107213517022816
-0.051164706317353
-0.0321906620463717
-0.0270192685973467
0.0309320331898909
0.117932544120599
0.0228506836158588
0.0874052700931945
-0.0155570222415486
-0.00504854878923442
-0.0585718565303009
-0.0604462043251714
-0.00133227218643057
-0.006967794455475
0.0600202690947195
0.0246949046801482
0.0674171084145775
-0.0188474574315673
0.0209258684148439
-0.0463354183302282
-0.0298503224020395
0.0084519634661877
0.0175051489995066
0.0711025640644421
0.00627970030316152
0.0416403293478379
-0.0437219496105082
-0.00414950770632041
-0.0524885596898029
-0.0224213603147656
-0.0110400833091769
0.0340322106866283
0.133454536768928
-0.0185015906500543
0.00228702018619153
-0.0380600820233029
-0.0237213289714331
-0.00661540493260881
-0.0143138603766859
-0.0490079860949471
-0.0271576617072554
0.0349439217319377
0.0438789545352288
0.0770905014050616
-0.0244622256626297
0.0213884561695103
-0.0555027730701919
-0.0371644333131397
0.0110527925995664
0.0152560901844789
0.0727953781868487
-0.0390156162311838
0.00678061166690334
-0.053172339058398
-0.035721332990946
-0.0145074579390184
-0.0372006259762039
-0.0365672456610533
-0.00450486826922211
0.0106751486569696
-0.0121194416919239
0.0196993913062762
-0.0269907767941912
0.00613074156381014
0.0192821964856657
0.00897247442291399
-0.0316263586594558
-0.0254775606883736
0.0476848358867534
-0.049285244080573
-0.00138279705794761
-0.0306072800294004
-0.039686816318089
-0.00965993517596783
-0.0112516527976439
-0.0329480372530021
-0.0176526873337618
0.000159496866869645
-0.0391621580622718
0.0145555604604342
-0.0461543750246453
-0.0199114865729963
0.0042289822539343
-0.0174615077125728
-0.0190866096353842
0.00192467112276948
0.015599774361099
-0.0372795357086419
-0.0249886433922433
-0.0532272782522093
-0.0358558791427543
-0.0246721619589033
-0.0148937993004465
-0.00922121602871549
-0.0273201263025226
-0.0063462855139307
-0.0587483943656629
0.00370412309924783
-0.0188591743242159
-0.0299580567596258
0.0138453843747682
0.00852089150098148
-0.0257319342911315
-0.0171708338136325
-0.00883376482992176
-0.0381027451040269
-0.0128371169479453
-0.0704735885828588
-0.0716271678431382
-0.00475972425713395
0.000647944695076671
-0.0159325735841594
-0.0431592938144523
-0.0246527446641834
-0.0484352453135735
-0.0230980103552314
-0.0471702804537522
-0.0280835843581644
-0.0105837699753199
-0.0050598150311173
-0.00187928586420927
-0.027814188792726
-0.020694656284335
-0.032467877704891
0.0180823173112462
-0.037783930227152
-0.0486543392387665
-0.0216280709759045
-0.0284461116365223
-0.033772829059981
-0.0466884965789301
-0.00367982380855989
-0.0314723677649607
0.000232126214520107
-0.0303426407598909
-0.0375024414962017
-0.0121967598216879
0.0129494224158894
-0.00237601945366305
-0.00857765239417925
-0.00766507080363692
-0.078672508717972
-0.0357176501141771
-0.0267634487835301
0.00635615357756832
0.0357763523651476
0.0277354823400261
-0.00101107521741112
-0.0181720773905309
-0.0118924176703193
-0.0357452262319083
-0.00952615292414736
-0.0278967103240374
-0.00917286579753186
-0.0171021050904016
-0.00323105435286834
-0.0137383986737922
-0.0211489719153591
-0.0202929037979494
-0.0764786857959348
-0.0642379780355758
-0.0398812969611213
-0.00942796376354942
0.0326727159032602
0.00352402678101663
-0.0130136228760253
-0.0179754643404287
-0.00893202659040961
-0.0633402271505657
-0.0341428259894512
-0.0388435096672507
-0.0163458572180994
0.00531844728549506
-0.00645876548269168
-0.0285793779925355
-0.0435101582325187
-0.0355608913500947
-0.01128278113405
0.0295764745942355
-0.0191819400922811
-0.00696949323609832
0.010450144080231
0.00339088862028783
-0.0105904434751358
-0.0524393686040103
0.00444978553119534
-0.0626608500802164
-0.0556522946188721
-0.0472694424666918
-0.031803723601776
-0.00290090163318446
-0.0373528874986375
-0.0447131686391028
-0.0447832848927194
-0.0232358819419606
-0.0131855851210402
0.0656369244866742
0.00849048897063225
0.0050285145988876
0.0235910744498127
0.0138998843850026
0.0178468902872645
-0.0224627969299334
-0.00302465027811227
-0.0187278164832457
0.0133653983142708
-0.0353075308021846
-0.0537374031011174
-0.0365987343054106
-0.0498165088692955
-0.05412884963095
-0.0737725242152656
-0.0215318531836096
0.0241155005928476
0.0870810359948343
-0.019709665825364
-0.00959722721659945
-0.0680767206161118
-0.0689631384307685
-0.00674642031728044
-0.019863782911117
0.0610764651594475
-0.0206641581520199
0.0427788099108966
-0.0183001831315951
-0.0458643565214998
-0.0302385198520418
-0.0414195075485563
-0.024553952816269
-0.0413786006777617
-0.015252354324898
0.0218042757047822
0.115623220142306
0.0454549033860667
0.058110191856061
-0.00574160390650023
0.00402092598038272
0.0417500981168167
0.0347723600578265
0.0768756827366341
0.0167079755225077
0.0775081279091539
-0.0316633673830522
-0.0297191814701419
-0.0802646074102674
-0.0859142101824067
-0.0255400210865709
-0.0246208571299437
0.0415120598656215
0.0144858456283426
0.0476000446469554
-0.0436667484224448
-0.0145322558474548
-0.0763611117553954
-0.0565736684081969
-0.0131140080633493
0.00599206718067232
0.06167382069777
0.0108308338022848
0.0999730434450557
0.0249597128503197
0.0271890445152965
-0.0306897766147959
-0.0270274563299122
0.0159735875068742
0.0235044214276347
0.061698571945299
0.0231681744865215
0.0836362562950222
0.00573639228988542
0.0204790449823124
-0.040419751236933
-0.0157101089808614
0.0195472293800047
0.030823108791911
0.0941835987543235
0.0453518931074013
0.0779869007732478
-0.0327742989146371
0.00944976724506737
-0.0680021693162345
-0.0465506057273539
0.00429376368417625
0.012819039038596
0.0704646270455374
-0.0402537923515903
0.00555514615069786
-0.0597023399213448
-0.045761332375476
-0.0235978950747498
-0.0485385203947076
-0.0546050089144519
-0.0256258954368281
-0.000769468995445052
0.0404666296608806
0.102250473785842
0.0143622003223048
0.0427878445230841
-0.0231279585074868
0.00295607314212768
0.0447191322836752
0.0438796773572674
0.107634266480642
-0.0529977168016137
-0.0047029582774696
-0.0243030782739301
-0.0438339560686334
-0.0615664368902412
-0.0360667449216235
-0.0357813032792257
0.0143013359790494
0.0355352366812169
-0.0288230763048932
0.029561713179922
-0.0362234884959061
0.000109412292132384
0.024263942613394
0.00226933298001408
-0.00882495135634178
-0.00181218811270188
0.020444460239411
-0.0366572253904701
-0.0204265870287098
-0.0492168133432383
-0.0254337891353055
-0.0154900079508705
-0.00103342839959089
0.00688992086443476
-0.017478449199104
-0.00118961864830814
-0.0520264812215266
0.0116419787069933
-0.00408316965502588
-0.0028559602303371
-0.0114995666965684
0.0144352094650739
0.00798962563530096
0.0360951112547392
0.0498266537306321
-0.0290906236073804
-0.0181961291103502
-0.0278328426092237
-0.0208506647624044
-0.0293758613281717
-0.0204902083199027
0.000977917912767348
-0.0299370913133855
-0.0274458904673592
-0.0534785047868724
-0.017107567708112
-0.040057352807853
-0.0121116191649506
0.0108496187487335
0.0188651588735719
0.0179101678250019
-0.0157488674568506
-0.0179094825463748
-0.038989380864937
0.0203003335863657
-0.0318127000350422
-0.0378921155204108
-0.00290721638158218
-0.0053739637194968
-0.00894747429115963
-0.0328219928918585
0.00257018785368001
-0.0450632964629826
-0.0176625821855985
-0.0164616567103204
-0.0042678642055621
-0.00163728776309133
-0.00192516114730708
0.01242868407704
-0.0311100610469992
-0.0378775096699013
-0.0498824617946352
-0.0189871577843327
-0.0462469227042714
-0.0582302727836004
-0.0126084579937728
-0.0246873967930041
-0.030757635802322
-0.01520893720557
0.0167640592442058
-0.0245108061478512
0.00332783177949657
-0.0147864480603986
0.0111652896726178
0.0062977766843393
0.0134286112894336
0.00313632544997604
-0.00905732984479941
-0.00945555903910495
-0.075569724952693
-0.0487474370993161
-0.0240070786506661
0.0148986130622038
0.064944583051943
0.0340468967923649
0.0132925412028442
0.00472126955747354
0.00597306184069296
-0.0586565186463977
-0.0407565323852413
-0.0321457938562025
-0.000538203351306837
-0.0139710760495341
-0.021045546190587
-0.0110784910929789
-0.0146374488555477
0.000421279190381076
-0.050028202609696
-0.0359388837978591
-0.0463448386639827
0.00638157156221549
0.0160927767885811
0.0126876415579735
0.00781034509849702
-0.000187324906016283
-0.00310731617449212
-0.0643433945543837
-0.0509122775742572
-0.0395640959411059
-0.0241636109421859
0.0135063911300688
-0.022202216407016
-0.0289688991028115
-0.0287074039827681
-0.014791902849051
-0.0141142421277118
0.0648775353005917
0.00634171161567289
0.00570857654406389
0.0297366211290822
0.0215907619551927
0.0299349645104804
-0.0129132449528547
0.00803476115862194
-0.05084033841933
-0.0455464196158988
-0.0673574419461146
-0.0369447494096445
-0.038377258584064
-0.050672443521847
-0.0396822931016183
-0.0302942163161535
-0.0235583138741708
-0.0476295976789657
-0.0129940492303747
0.00667928006776111
0.013730613142592
0.0361671532813168
0.0584035461220327
0.0460104993071581
0.0554625659757884
-0.0296484164353706
-0.0289110725720786
0.036011963103172
-0.026557457311899
-0.0602098931052132
-0.0376861849338995
-0.0496196385198957
-0.0313949915719534
-0.0444300408307549
-0.0216561748709913
0.00790769455227189
0.101187220323477
0.0317719128796902
0.0417628920321378
-0.0136065075131466
-0.00565497880243135
0.0319828296025567
0.0229418950125399
0.0648260977701651
-0.0595975861220651
-0.0416100179212759
-0.0353538533313404
-0.0596359027414348
-0.0476508590676803
-0.0219418399540358
-0.0139039403390222
0.0205129194979003
-0.0534552868060328
-0.0486014837626836
0.00673047358379935
-0.0023990497870696
0.0320538580563579
0.0693853827827541
0.0782252517133159
0.0643128683072699
0.0415511166163115
-0.0599074488175313
-0.00133344267274935
0.0815435346617998
0.00873184480391327
0.011435825640976
-0.035590905109529
-0.029031680260448
0.0094049552064556
0.0133491167579999
0.0494660462851195
0.0118784845075318
0.0704794759526595
-0.00908579864813383
0.00371417522905336
-0.045285270135588
-0.0212524191122544
0.00695849494139379
0.0158768673784652
0.0750511277158577
-0.0540502476497618
-0.00836457887682272
-0.020395599247146
0.00560912685422155
0.0397148225849044
0.0495071184579858
0.0389604770166896
0.0313451133289809
-0.0690450974667221
-0.0532331052331982
-0.0269723098273207
0.0019003082490138
-0.00205362229381427
0.0406493323821994
0.0276707703724431
0.00697802731876945
-0.013570281240871
-0.0263540742330556
0.0351823726356186
0.0987047811260885
0.00551195977395098
0.0366849625074916
-0.0224344147611058
0.00325614951055463
0.0385206458386209
0.0375186864506653
0.0962044551159245
-0.064611553098048
-0.010158803964358
-0.0291340712269302
-0.0493039974681728
-0.062875566093053
-0.0427658426672676
-0.0500167964937694
0.0015188489364471
0.0275586439181254
-0.0447193296161066
-0.0158724518915997
0.0127446481370479
0.0240152212768893
0.0729333193322519
0.0587752251834709
0.035506207310287
0.00799275261772317
-0.00768246012183006
-0.068117267407735
-0.0432388995196055
-0.00995435381213316
-0.0299869539296916
-0.0139408009415668
-0.03691749629542
-0.0338712700033428
-0.0214755330413948
-0.0441166959565047
-0.0490739961892148
0.0209714550220913
0.00148517829344636
0.00869075382138299
0.00139920088954959
0.0233630331440556
0.0061908696522628
0.0314053663460401
0.0505700406825173
-0.0330468195299047
-0.0115865597745201
-0.0226962235069147
-0.0165652517975372
-0.0238604108927218
-0.0159039714665947
0.00593851092105877
-0.0247697542965176
-0.0203056879414255
-0.0654727804687301
-0.0241027834022369
0.0212289752547323
0.0253460430733727
0.0572161039127536
0.0266219862018788
0.0146437855667913
0.00235311465424313
-0.031759725358961
-0.019645762822277
-0.0264708393614915
-0.0163665040257468
-0.012134537889286
-0.033751329874038
-0.0299929496259682
-0.0210918116993221
-0.0206065934744905
-0.038343769557349
-0.0410453805167058
-0.00870424124212462
-0.00971923184148443
0.00592473758632282
0.0157350863288509
0.0171614439045324
0.0273443780669535
-0.0175065749658967
-0.0225443869899511
-0.0465542651293637
-0.0133023510497505
-0.0428342023531151
-0.0511410888226899
-0.00149680178723162
-0.00708291195255507
-0.0167134674277214
0.000998458392238934
0.0300547863192724
-0.0236292234393424
-0.0263686235282806
-0.00379788447832617
0.0136244671554624
-1.70792733110738e-005
-0.0051174518790045
-0.00881068972140343
-0.0108180723707158
-0.0412191462096359
-0.0614943798670201
-0.019487814098586
-0.0384304009299486
-0.039360361824203
-0.000306728704081221
0.00827505852026934
-0.0137943103245725
-0.0270331926806327
-0.0130961037479413
-0.0597080146520232
-0.0334688972093833
-0.0227106854087347
0.0125233341286328
-0.0142984003783964
-0.0281014392974034
-0.00665663086234578
-0.00942003959442595
0.00548515289569119
-0.0482831114122061
-0.030904178643989
-0.0412974338653721
0.0104556224604761
0.0222896933886983
0.0210633502827093
0.0226854523455431
0.0122850496902141
0.00612382948364561
-0.0140703185602586
-0.054629204883552
-0.0327379246402692
0.0240105535867505
0.0259459542446396
0.0322368176620434
0.00327725082119008
-0.0338700238641371
-0.00574925197065072
-0.014719357804218
-0.0233177614325324
6.50834187809814e-005
0.0111567409059051
0.00695342985838303
0.0078623093120478
-0.0153300477939869
-0.0183959872072991
0.00290392344680929
-0.0458417224189643
-0.0362727081742929
-0.0571814827252924
-0.0164423082062047
-0.0111885453515835
-0.0185252652568609
-0.00880887381389794
-0.0115418819397794
-0.00995900720740123
-0.04490919926916
-0.00250850646355312
0.0216042439748565
0.037074978694823
0.0660224863681378
0.0901451178379981
0.0769081522897327
0.0738250791422278
-0.0219970812765194
-0.0207458210506055
-0.0327410456275667
-0.018816118159596
-0.0227150346304014
-0.0307697029265577
-0.0306200639230488
-0.038164097846631
-0.032561624248009
-0.00862488439542399
-0.0490477146520798
-0.0589551217821872
-0.0306403842049347
-0.034164219462422
-0.019898831431198
-0.000256410075843543
-0.00565295305986897
0.00729931248173175
-0.0382211816835464
-0.055535290024765
-0.019703634723769
-0.00336338017097728
-0.0108855820117867
0.0138400643211936
0.0392481138103074
0.0366428665246186
0.0510690473709318
-0.0396820760171172
-0.0460754204613823
0.0273856347456432
0.0230542592438922
0.0858680237085904
0.142596637363291
0.150784430080049
0.121436109874389
0.0740622405307078
-0.0493087819693129
-0.0602994227709759
-0.0775927505152097
-0.0531430276927993
-0.0772465818770599
-0.0698225310693824
-0.0477240031618829
-0.0373072162984419
-0.00989666182041667
-0.0521385291444483
-0.0554732052284072
-0.0787847211138591
-0.0744611691917733
-0.0840739283694111
-0.0367723146279071
-0.0230673266313447
-0.0345343532656649
-0.0234386956644836
-0.0576253537023684
-0.0481865803669771
0.0141235315112379
0.0100246299781369
0.0616478323142995
0.112676265565614
0.121003100533655
0.0976334342758743
0.0662191234328902
-0.0574663070511703
-0.0482555987737479
-0.00688928165160838
0.0357898382689439
0.0515994169295333
0.109266678490619
0.0912416482639525
0.0499053887182956
0.00967027705779406
-0.00476493161097559
-0.0600375873412697
-0.0895192484143987
-0.0869526022784499
-0.102166957695897
-0.0592707121541875
-0.0454972181729248
-0.0515792962162408
-0.0313856564757053
-0.0654075737544015
-0.034188224543507
-0.0610281186550893
-0.0482745176608219
-0.0708173539683249
-0.0348677329427354
-0.0519277712789593
-0.0943360327790469
-0.0734229540841662
-0.0992847312906636
-0.0411102995439594
-0.000145709543592803
0.0402015215837814
0.0688943689000473
0.134116082502537
0.115958120086768
0.0722400816095861
0.029553192691974
0.0137108621728812
-0.0727557409244502
-0.0313098037053808
0.0136726646072328
0.00700956209606141
0.0313041949976523
0.00348118653309521
0.00407598346983085
0.00642015524093383
-0.0286951665776579
-0.0368856509644263
-0.062556026603424
-0.0445828507371355
-0.0633196046319386
-0.023245651044635
-0.0391584138750784
-0.0821976248521809
-0.0602257395940811
-0.090621286132714
-0.016150734984969
-0.0658838510367072
-0.043284536735842
-0.0641037677028272
-0.0234758721423609
-0.0352012885943707
-0.0588725205899449
-0.0334154384924699
-0.0727142219628826
-0.0715882807657724
-0.0200773680590087
0.032562629316435
0.0440852263185071
0.0771432229025199
0.0439439704144732
0.0353562371271266
0.0180745961220938
-0.0245029782533198
-0.0167524416951348
-0.019158491916751
-0.0064954135095651
-0.00301885960983684
-0.0206019580328355
-0.0242921955362998
-0.0152754884194453
-0.0135842621291337
-0.0306348899789784
-0.0123869128936721
-0.0578539315813857
-0.0284077356896125
-0.0365035987870823
0.0120450255719979
-0.00025636213531832
-0.0326693656512111
-0.0170543961486172
-0.0660882408929092
0.000905230096715397
-0.0226086887299161
-0.00523105851142028
-0.0181082834079085
-0.0142790002359366
-0.0209725271291764
-0.006887308179253
-0.0268457758556865
-0.0448870544869957
-0.0171923056050685
-0.0162841302225674
0.0066708850321205
0.0160977285770468
-0.00374532412510731
-0.0103798503580322
-0.00886288685534246
-0.0072584504205082
-0.0389068583499867
-0.0686838037384789
-0.013309335242665
-0.0357065173471315
-0.0414536323473041
-0.0047675812006227
0.0034368327351455
-0.0117384908846459
-0.0134563435046629
-6.1327779941196e-005
0.00400855727937708
-0.0241838362275016
-0.00056170309392831
-0.0068285739332992
0.0042414380792367
-0.00600784175599502
0.000921374165191172
-0.0237378546649837
-0.0498700580612971
0.000785967231762862
-0.0159075898470272
-0.0147874930976983
-0.0118079968701663
-0.00430176137815045
0.0201093935018092
0.0107315948525835
-0.0186226664871054
-0.0276078650952146
-0.0166581673098114
-0.0561278767577381
-0.0455691153035971
0.0082190291486166
0.00026899621784936
0.0161373896698707
-0.00081936325783942
-0.0385903135631669
-0.00194481768232499
-0.0217566320202305
-0.0264157046402496
-0.0109425022801845
-0.014367854457237
-0.0156528158715792
-0.00627630378960535
-0.0236912029083134
-0.0212715407795119
0.00103731412363006
0.0586877811583939
-0.0302475058535602
-0.0391191528602079
0.0109171237492062
-0.0211657596485114
-0.0298633646864032
-0.0165521805694344
-0.0172245808588954
-0.0365076367523932
0.0335084965431794
-0.0430274331087004
-0.000319813713350195
0.00481262467386634
-0.0410363771720973
-0.0341663182519475
-0.0142963627532984
0.00797691807169492
-0.0349149673264611
-0.0182365725839355
-0.0194723369134074
-0.00504203283531481
-0.0104666960065649
-0.0111433279420711
-0.00210569583291131
-0.0148982180217083
-0.0193140813162814
0.00432035191391503
-0.0509000119924534
-0.0516198114320212
-0.0148191438959135
-0.0170120650657651
-0.000142783307774218
0.0277434755050571
0.0252187200239297
0.0309570714272193
-0.0338408540972417
0.0358071042940108
-0.0374537696996447
-0.00231556467098259
0.00658473218638504
-0.0410086523380809
-0.0317772679846547
-0.00881366344480382
0.011734199679444
-0.0310839373641879
0.018840881945067
-0.0636482351819272
-0.0288288007093732
-0.0311385711652045
-0.0338186432871338
-0.0155561952573418
-0.0208692615016024
-0.0152865797762874
-0.0597021882847031
-0.0505196145489926
-0.0485221791914276
-0.00623360003214096
-0.012010932229388
0.0027447487986254
0.0275931533670279
0.0294701285252392
0.0310109824076976
-0.0333863459385899
-0.0564208885632251
-0.0626872504533246
-0.0402288689850973
-0.0299488375158952
0.0352884869650372
0.0573041872543056
0.0296223947182322
0.0179988660634872
-0.040134530425033
0.0154421739609128
-0.0640056412094623
-0.0224608797369704
-0.0284492330286256
-0.0249144760160347
-0.0068488511747554
-0.0140480215916861
-0.0124236930655293
-0.0616648187012632
-0.00153605201391847
-0.0798065104765817
-0.0467631089164603
-0.0385624673478374
-0.0165191014820037
0.000436478180175889
-0.00421423598963225
0.00691878433525024
-0.046140605894536
-0.061933402900248
-0.0671491438326782
-0.0459752690257527
-0.0346379821843466
0.0249153436924375
0.0504930941449433
0.0255926881270333
0.014598567720952
-0.0446495179591374
-0.0319196325692261
-0.0385065331909414
0.00318884231251442
-0.000597239924295219
0.0523562653541673
0.0292023754668165
-0.0381556985694243
-0.0458345436211341
-0.0872795466393944
-0.00461292242049916
-0.0872032192027205
-0.0507169544095727
-0.0414493972243736
-0.0197119433311535
-0.00643237297707171
-0.0091253223088437
0.00178348216101363
-0.0499132323437869
0.0110289712734882
-0.0463099170703078
-0.018261618884463
-0.0381202846888179
-0.0133308123373179
-0.0176321745845246
-0.0300272542398788
-0.0276629399393825
-0.0796813567358513
-0.033697536636463
-0.041992654595298
0.00142289886971783
-0.00614868085425927
0.0466217937771442
0.027024301245207
-0.036954193439744
-0.0357095489021374
-0.0808652722683128
-0.0104446802004866
-0.0446825532651621
-0.00297605454454498
-0.00916109037079573
0.0376362339902135
0.0202607362131283
-0.0104497786978687
0.0010667656402875
-0.0542722808013476
0.0112882173631431
-0.048344158030555
-0.0182670142511431
-0.0419729083008554
-0.0184612741292107
-0.0245546303535634
-0.0357591864206424
-0.0289801822508116
-0.0776977981318178
0.0128225657217943
-0.0723360072121706
-0.0211868079467923
-0.0252972957637793
0.00508765972378452
0.000740103408191626
-0.0135186085101608
-0.0099211757125795
-0.0703109343711221
-0.0109640070930823
-0.0525980741459073
-0.0108812773999256
-0.0177054535905961
0.0327813581205695
0.0158237293213747
-0.0159232615147339
-0.00224363200130704
-0.0600289614472761
0.000247960185118818
-0.0161374389904958
0.0067480821539845
-0.000182241009829948
0.0126145463770059
-0.00163101455358382
0.0104667942499793
-0.011929740432114
-0.0382005178704932
0.0131080483051374
-0.0766507532308172
-0.0292413213389594
-0.0354282588193244
-0.00936253667492356
-0.0110190992862461
-0.0157175741145416
-0.0101100636503702
-0.0679882360268104
0.030669155839781
-0.0391024922727076
-0.00699996684071268
-0.028649312400788
-0.0303121200070228
-0.0301118387524459
-0.00444294744858589
-0.0129378963997794
-0.0439716553214599
0.00452331480325069
-0.0240663905590297
0.000788444256953427
-0.009323678080503
-0.00121286891910553
-0.0174090752431045
-0.0033975126519814
-0.0222758835868684
-0.0480139687819069
0.00283173538624793
-0.0111218619265337
-0.0118082543110816
-0.0135307612619974
-0.0155121225107888
0.0135370219186899
0.0194698153246912
-0.00317789598936649
-0.0113508704169201
0.0345860644710164
-0.0449502792878561
-0.0146747045879465
-0.0419932442674006
-0.0478627500328831
-0.0471556284855157
-0.0206854007979608
-0.0197114559617452
-0.0510279563489089
0.0443888701507451
-0.028328918038673
-0.023365949424196
-0.0322319372109331
-0.0493236501240879
-0.0122828006264084
0.0179809347104091
-0.00299047362759486
-0.0726995038287525
0.0491624477904772
0.0175968278066532
-0.00863255642282642
0.0377466230457389
0.0340837720995079
0.0322491251872474
0.017320044477595
-0.0310129873266319
0.0530676754332866
0.0327696342840208
-0.0185786513008259
-0.0195296750531614
0.0231732583089142
0.0417603908503045
0.0140448207756265
-0.00143904806373631
-0.0432588619830585
1.24502375056793e-005
0.0266459570564773
0.0363044192527728
0.00604424899265269
0.00190437956544964
0.0120323429571184
0.0188210704433929
0.0246938210699351
0.0375126392015618
0.04713220442379
-0.0101513667244096
0.0984949027879455
0.110437442386018
0.0730499306157772
0.0607100864241576
0.0211942048444257
0.031005795656904
0.0836986488514897
0.0577427241183927
0.0409134130881875
-0.0108091289590344
-0.0133200343884453
0.0239573204899734
0.0365282013246614
0.0114258952766955
-0.00454918779409913
-0.0458596323823869
0.00028267356277731
0.0318800808349159
-0.00776251999070114
-0.0545539449557622
-0.0242680857963391
0.00375647416786561
0.0162027563238446
0.00303225242838059
-0.0329148615289058
-0.0165698416425206
-0.00358341884778975
0.109868309180184
0.126854016634213
0.0854377057681304
0.0683296557832348
0.0230117583162426
0.0286112477056379
0.0758883986102852
0.0535570703287753
2.8395151166686e-005
0.0861039275923658
0.0574872526260316
0.00604203174700054
0.0358385588375303
0.0431054259748058
0.0733235216995686
0.121947468207588
0.021899228018567
0.0272677796726557
-0.00862911424202095
-0.0529547973970374
-0.016444049044812
0.0174863006776289
0.0309631323974728
0.0131162126797534
-0.0281380655224979
-0.0160803164360558
0.04849355665788
0.0101416657659138
-0.0317614333361658
0.0403088891391611
0.0520556535143156
0.0208270138158321
0.0233994135681396
-0.0381760627589715
0.0417912370964954
-0.00103528513498065
0.0962767752967193
0.0724033402746579
0.0211066142690565
0.0531192939397838
0.0533975289310425
0.0771178689650936
0.118653083222447
0.0163685674647094
0.0235066591842425
0.0617675159028884
0.0284711036537548
0.0411109880445853
0.0161308475021717
-0.00732151932824552
0.00745750675531416
0.00462803484160993
0.0281278727174456
0.0229065168813099
0.032375309181284
0.00982855635384056
0.00928888354029223
0.0205297084183922
0.0275909471968908
0.0340880414152631
0.0444943295968508
0.0464532147977654
-0.0116308729099695
0.100892393667032
0.124403118501607
0.0882956279963484
0.0753447224823178
0.0310914974997292
0.0363265075670052
0.0827515203312116
0.053229229697251
-0.0153633719841489
0.0478128687114578
-0.00704339019968512
-0.0395891040095349
-0.00317548800975511
0.00276901702860557
-0.00777496309915745
0.034821935000323
0.0264313965918416
-0.00446949615148514
0.138183275272891
0.0563828511129347
-0.0590307992065263
-0.0632377084901635
-0.0597252874859256
-0.0416854755416605
0.05022111630202
-0.0023198239626195
-0.00793190226610993
0.103538265353035
0.1263582764035
0.092177489862613
0.0800732640467258
0.0363750802156878
0.0402441626466175
0.0837006375707201
0.052812713387508
-0.00448535683830721
0.0867184005966531
0.0666414715321513
0.0224365084870812
0.0570781249568946
0.0617969880834715
0.0856764214771125
0.12835544112728
0.0238426870393785
-0.0013459355196451
0.139603937744266
0.0602835306852663
-0.0561958731918454
-0.0626484269514171
-0.063923343736425
-0.0519364568520039
0.040830514503191
-0.0132793327070471
-0.0130963044256323
0.0336582796085677
-0.00315907117396514
-0.0598548784779821
-0.0525926860378288
-0.0602770176688755
-0.0284231317875995
0.102835108892286
0.0732580013225477
-0.00786165656738638
0.0859747271651492
0.0683084795840767
0.0242414983096801
0.063473508564702
0.0655749441147545
0.0902364783811775
0.132782069164983
0.0230702187775952
0.0234259533837887
0.0598670835508208
0.0309811235602362
0.04186922349256
0.0242842063057159
-0.00363002297684409
0.00472213169349887
0.00125895517009635
0.0181831951707303
-0.0108092880721071
0.048580526522943
0.00869976098414292
-0.0524586319019187
-0.046438939886765
-0.0584231215556436
-0.0242124460625799
0.107278757807461
0.0827615777266097
0.0247330887943249
0.0642580658337437
0.00511603883267904
-0.00824189982666527
0.0129958764714257
-0.0252818664757049
-0.0447002520036888
0.0205674025046606
0.0447570958297355
-0.00210920971750973
0.0669556001327778
0.015154991163171
-0.00509200390100242
0.0397405635075608
0.0457783830399757
0.0284342001161521
0.0625072230659006
0.0535302458370333
0.00842473899733989
0.166119193119603
0.0913942458605001
-0.016044932918164
-0.0246103316656325
-0.0211636998246965
-0.00924548330587165
0.0747328022135508
0.0245484676723102
0.00697608541141569
0.0309216922967731
-0.0186622081039722
-0.0130268001513255
0.00272605698384962
-0.0192498495924179
-0.0271434134009458
0.0103189930175171
0.0370083785879709
0.011371908067507
0.0793470020427999
0.00949490911892345
-0.0335512941328873
-0.0129060494265318
-0.0107785362081156
-0.0145603606652181
0.0298134876836055
0.0507399630990177
0.0152074458949536
0.17902938755465
0.107442866432589
-0.000981159182984783
-0.0103383517341677
-0.00991478519362065
-0.00465661682881562
0.0769129566099429
0.0194558400200762
0.00728171991527583
0.0659038834612641
0.0337328812637041
-0.0101405190642228
0.000325269396067024
-0.0055865078791951
0.0226412903731322
0.140525310862458
0.114601307389154
0.0184150645720518
0.0969523604392052
0.0270549766229108
-0.0140137237926188
0.00892775923646402
0.00677679833008493
-0.00606128431172494
0.0296279550803554
0.0420732071447194
0.00516748446146137
0.0699595826783854
0.0218024778902363
-0.0121878547805845
0.000937921745582539
-0.00356462396674749
-0.0150015551919974
0.0461310841408101
0.0804614724710329
0.00197058283281119
0.0725706067696627
0.0387604179024565
-0.0156821896525007
-0.00312107196650047
-0.0155687664375325
0.0148561180660083
0.139777289901622
0.108556452507555
0.0358931723398672
0.0875619163064115
0.0362183866422014
0.0267845559691902
0.0557107499755653
0.0135235278859096
-0.0172903453903351
0.0440988479332761
0.0615671229523153
0.000729828858029663
0.0757545282478444
0.0259303797663834
-0.0165731667501894
-0.00890695801082063
-0.0186918798850701
-0.0261863739756545
0.0395514364119059
0.0660425386823145
0.014365237761827
0.0477271955557793
-0.0109854208702826
-0.0304485982790782
-0.0020013224229658
-0.00891852784949027
-0.00439793372896618
0.0119110257771848
0.0235009988844654
0.0198041510452067
0.0525104624266173
-0.00112657211541667
0.0115544067793825
0.0322139807610441
0.00927204087762944
-0.00619816592111056
0.0217405592960638
0.0468668320428025
0.0319558960588515
0.110583107189027
0.0347808796877572
0.00372978337181694
0.021585045943955
0.0248588344854594
0.018930782552564
0.0516775427596745
0.0763585432117114
0.00228390463546392
0.0295301520119065
-0.0213785663184944
-0.0371813142195281
-0.0208058273250637
-0.0291397276268516
-0.0191004022347267
0.0171727942810625
0.0349253029390785
0.0179570481294031
0.06937743235947
0.0138730319738109
-0.0134372489978507
0.00908236234060833
-0.00396162153785967
-0.0177454890433537
0.0354379504639072
0.0820732179262939
0.0300758636975961
0.109654570732781
0.037335443901611
0.00119618360147152
0.0226856119330616
0.0221753781280544
0.010265638555807
0.0434741365110437
0.0554828907439689
0.0123571658283952
0.0856029261278377
0.0383794612179479
0.0095077259753906
0.0188730113640781
0.0109445999281833
-0.00367210152551232
0.0495528102852039
0.0872151492560474
0.0169038024076233
0.0708427047126563
0.0135570476646778
-0.0159536319614118
0.0140394028730579
-0.000920175907026712
-0.0206407803056597
0.0344044519974649
0.070474108226305
0.0591237533655962
0.113041864156597
0.0100893486843457
-0.00514549234061981
0.0166476779228886
0.0101644656098894
-0.0305977281355028
0.0186159054517057
0.0808309972743535
0.00818025037550681
0.0875013253804277
0.0389279609311569
0.00724097534003978
0.0119490452289591
-0.000969513319154801
-0.0118068700344751
0.0464741074020475
0.0815314986224022
0.0188340695521891
0.0545512025361613
-0.000810467535672719
-0.0115361166494937
0.0204883798368319
0.00733579320315856
0.00571867125039243
0.0155358311707832
0.0289360271588486
0.0554299765111407
0.112427514551152
0.00763398133922974
-0.0094856557819209
0.0150671991008234
0.00684171242430116
-0.0326388049438918
0.0176934106020021
0.0761122699876686
-0.000310510164618426
0.0362076321181182
-0.012342362705874
-0.0293558088116817
0.00334067534613463
-0.00769307572650731
-0.0273313808004494
0.0133063351597354
0.0159639174748015
0.00595691691959563
0.0355117589376746
-0.0130309480646428
-0.0248739250679603
-0.00681586917694512
-0.0174031121740322
-0.00951408078984423
0.0264123840760703
0.03904806899562
0.0247073508126048
0.0840517072431283
0.0255366359926604
0.000108910046993045
0.0208266990235937
0.00601165481900564
-0.00594977344863824
0.0446772154938072
0.0903899664138589
-0.00818849302510603
0.0328583301681903
-0.0257731368263605
-0.0379082952753033
-0.0319181716741945
-0.0356513644969605
-0.0372665723510636
-0.00839519387632704
0.0177561352135239
0.070657725130714
0.130187686410648
0.0140674818078624
0.00740399418184684
-0.0137768573455718
-0.0111502468105903
0.0118429376176189
0.00106498041419257
0.100273308592341
0.0180663883806062
0.0756919646216118
0.0168614517862114
-0.0141247995028099
0.0156528576611103
-0.00323521229836721
-0.021519187204346
0.0367490918392739
0.0689690243637339
0.0589953024755889
0.118477878481653
0.0158130303633374
-0.000811637214685999
0.0198890121952107
0.0119390175884417
-0.0307849226821059
0.0163938470517463
0.077021738891067
0.0661471504891097
0.120102213467539
0.00586692754621288
-0.00356472643813965
-0.0183846659925386
-0.0183202949002814
-0.00266050914769741
-0.00387159011896484
0.0799128135657371
0.0535174677191048
0.0897460275221469
-0.0166901660392604
0.0140827419750487
-0.00615520145622841
-0.00668287928108509
-0.00690235442553199
0.0294386043923288
0.119574459050797
0.0627913897335064
0.120060875111744
0.0113223106493493
-0.00137679634272012
0.0224434755458259
0.0134357045584661
-0.0284839426721061
0.0169542921545101
0.0791367757131947
0.00304224465018467
0.037434770983091
-0.00923182964404453
-0.0236198420503433
0.00963828193773783
-0.00404560531512738
-0.0262295963356976
0.00789677461203972
0.0108043563127399
0.0582528248553496
0.0883494059783163
-0.0253639771217451
0.00590218479464702
-0.0154336167494984
-0.0126072851588291
-0.00980004948998998
0.0287177925296445
0.120551975375725
-0.00353348483136828
0.0405398160611612
-0.037551529301389
-0.0548611723211634
-0.0341019769089598
-0.0267934819222546
-0.0231982198807289
-0.00441158956591452
0.0368723149001957
-0.00687107374732559
0.0365199405722025
-0.0233527894242866
-0.0341705200489365
-0.0264515545659185
-0.029891799691386
-0.0348776401999171
-0.00602102398633214
0.0140102108121465
0.0689680954318631
0.135605840034147
0.0162605537282154
0.00816361353577045
-0.00714627138688315
-0.00795106515667457
0.0105963485800874
0.00412715191699879
0.0954323200968893
-0.0339398776902602
-0.0115565411376331
-0.0511158543589634
-0.0536998550786257
-0.064165841760285
-0.0646491690764392
-0.0452933368500923
-0.0175222106016097
0.0114584643266572
0.0175511699691314
0.106604170391416
0.0568154432737783
0.0568254557404415
0.062928149051395
0.0665649859747451
0.0675968168920183
0.060423783407247
0.06017265311995
0.0562503510159214
0.109277473204801
-0.00405853799780945
-0.0214222424817637
-0.0310686467563006
-0.0339865922553731
-0.0184522906802524
-0.0121927103566312
0.0655867707656109
0.0445394968612024
0.078099425757043
-0.0299949397410004
-0.00589268392422468
-0.0233342326158848
-0.0237309569793297
-0.0234563842240895
0.0205279958293648
0.108083516427678
0.0101833355364655
0.0865917684174176
0.0329949332440074
0.0205903592146552
0.0244250449593014
0.0275961070244573
0.0354481574761105
0.0438069090736803
0.0413522508313921
0.00397492317621056
0.0619153213862879
0.0326286961861036
0.0309638310644549
0.0246363796895099
0.0199549228594724
0.019768067463963
0.0482884182675826
0.0771429110628203
0.0626247446140335
0.0958816641061166
-0.0215841485332268
0.0136095955696187
-0.00637856680010969
-0.00174914581220151
0.000728903493402582
0.0382851717817657
0.130120013804592
-0.003674592924293
0.0421987822585112
-0.0361020828238184
-0.051068356071491
-0.0310227766404152
-0.0243789112605391
-0.0230347193802149
-0.00322345060455228
0.0366533460711434
0.0147910854593956
0.0719294640521216
0.0401621135754928
0.0508517258619809
0.0506764163003346
0.0420004447819208
0.0416312939004326
0.0619223395534879
0.0911292403054891
-0.0140362121331348
0.00755540700716679
-0.028146810204565
-0.0450889395445494
-0.0513336223207148
-0.0539304669813551
-0.0362345302217624
-0.0130182715291958
0.00835295168313024
-0.0220152931556179
0.0156611181846333
-0.0272760945013643
-0.0240222758006198
-0.0393123143149683
-0.0421631300219482
-0.0196932794779596
0.00453656635509745
0.0384812986707308
0.027290261856058
0.138835879943755
0.0803103411557717
0.083473234810759
0.0895002454058354
0.0944481731322747
0.0971939613166883
0.0857596952318482
0.0859040791037381
0.0297413582215481
-0.0209533303375931
-0.0235432462108517
-0.0167151352192793
-0.0455831262504765
-0.0442234538674924
-0.0397491400952804
-0.0192320435001173
-0.0134245628765302
-0.0162000465126923
-0.051578268725124
-0.0340218340027825
-0.052090583276461
-0.0371327280824664
-0.0228686490422408
-0.0235614962616127
0.00607961027464818
-0.0317305777651944
0.019250871278003
0.117638324487588
0.0591646404745322
0.0525346453109175
0.0589514881489824
0.064451858457584
0.070399599247426
0.0714104621901053
0.0694824328238447
0.0116649557708146
0.0925086818818349
0.055698977275796
0.0584746506703446
0.0534964190790862
0.0529846009535937
0.052325301508553
0.076536142321068
0.110664605333099
-0.020664973460036
-0.064699774075419
-0.0513271535059783
-0.0778670866167488
-0.0664557429652227
-0.051746909400772
-0.0442950892785599
-0.00664761330992561
-0.0434761550290517
0.0111379205755861
-0.0364248654667963
-0.0289307445757733
-0.0602013242695877
-0.0382200307484516
-0.0507261047388511
-0.0694815544678964
-0.0332726312699873
-0.0689025849673631
0.0225742388449816
0.100598253859001
0.0608231476885969
0.0766540867792775
0.079563945340991
0.0776864944931956
0.0764407578803363
0.0946953148669306
0.129656477218196
-0.0131654313999834
0.0256170500427731
-0.0177427924035269
-0.0324343198599502
-0.0384478593883711
-0.0365810595218751
-0.0149609873087939
0.00999226787489556
0.0321839478940881
0.0103699535914659
-0.0414749458660471
-0.0299832942103469
-0.0571712168325079
-0.0273619629173213
-0.0365549320230659
-0.0563374812569304
-0.0205891962916722
-0.063503099781962
0.0378618943923465
-0.00606930345710391
-0.0139521439280335
-0.0402344695864915
-0.0424016717231159
-0.0291918667345669
-0.0152683060337812
-0.0146960494568306
-0.0382498984150411
0.0544542394768137
0.0563369205794548
0.0492098270533031
0.0578548941121166
0.0654693923379729
0.0451964011053822
0.0280428388961345
0.0246297384167325
0.0538916634206587
0.0533595126659134
0.0595123430321738
0.0159745388270441
0.0348496249854899
0.0517804194291921
0.0396912941104626
0.0355672213127154
0.0313016760457195
0.0320341711501819
0.0261259480747646
0.101731231014175
0.023922929035635
-0.0300111160716788
-0.010838806724826
-0.0159772661756804
-0.0218215792511782
0.0376831995621784
0.0455059061909703
0.03060129674407
0.0789943068015766
0.0106620192622395
-0.0294625354453092
-0.0133984965689353
-0.0280372123821116
-0.0298388631487578
0.0523916237335673
0.0751158639818595
0.0457200704687313
0.128433899934093
0.0502844974420367
0.00711254921655248
0.0278856409973202
0.0235168795910674
0.0136847693769189
0.0630376742681829
0.0735202073908653
0.0484426415718719
0.104436803402297
0.0390602875441918
0.00954446462144245
0.0283252614325326
0.0125797004464152
0.00466153680356794
0.0749576282728738
0.10413887936029
0.0410416930699103
0.0776801214625144
-0.00845135254520805
-0.0358160570226081
-0.0288485852839357
-0.0339168783944914
-0.0319735918291911
0.00812254864326755
0.0752247785868013
0.0582044902850873
0.0927127676717881
-0.0134103746852435
-0.0191500645913484
-0.013605963898258
-0.0130907755617006
-0.024324911979878
0.0203034175914563
0.0935279421837614
0.0611054010355863
0.111485289378559
0.016691445716374
-0.00114565328743037
0.00475398967012709
-0.00111015054144512
-0.00219880049795372
0.0322070437446392
0.107703040969306
0.0766400341191174
0.125136399095295
0.00897313965260308
0.0106789670837683
0.0149951895663376
0.0148398548216201
0.000382473291018748
0.0402776510744797
0.121324174103232
0.0336368225353479
0.0379601512411067
-0.00705051466791597
-0.0189364518941074
-0.0259774830182901
-0.0253913602361841
-0.0133727994478134
0.0161209834237927
0.0376866886665867
0.0552218450220604
0.0476696368511646
0.00853824744515031
-0.00524941997868454
-0.00789006809289669
-0.0114058703014442
-0.00568729502719647
0.0262907848441186
0.0438943701828106
2.5522116000
